"LSI_1"	"LSI_2"	"LSI_3"	"LSI_4"	"LSI_5"	"LSI_6"	"LSI_7"	"LSI_8"	"LSI_9"	"LSI_10"	"LSI_11"	"LSI_12"	"LSI_13"	"LSI_14"	"LSI_15"	"LSI_16"	"LSI_17"	"LSI_18"	"LSI_19"	"LSI_20"	"LSI_21"	"LSI_22"	"LSI_23"	"LSI_24"	"LSI_25"	"LSI_26"	"LSI_27"	"LSI_28"	"LSI_29"	"LSI_30"	"LSI_31"	"LSI_32"	"LSI_33"	"LSI_34"	"LSI_35"	"LSI_36"	"LSI_37"	"LSI_38"	"LSI_39"	"LSI_40"	"LSI_41"	"LSI_42"	"LSI_43"	"LSI_44"	"LSI_45"	"LSI_46"	"LSI_47"	"LSI_48"	"LSI_49"	"LSI_50"
"AAACATGCAAATGCCC-1"	0.411561056202629	-0.426941310362291	0.107218672658397	0.409252357846289	0.0644717255836969	0.0900432574916815	0.403962844210191	-0.66313897288802	-0.352677403009132	-0.10954222201236	1.44613615960661	-0.68067924696198	-0.0632453187619703	-0.155097670165804	0.0863553967486376	-0.156036074504816	0.312696466481879	0.944966365479718	0.0439434583622106	-0.394023081893739	-0.343247447003442	-0.469004331822442	-0.0939797178838994	0.220872427958757	-0.114531943515616	-0.432752207033052	0.256542334459262	0.246489126781036	0.36422962257957	-0.120890801093073	-0.0897313995333963	-0.123856015306627	0.0457067582811655	-0.126933303342182	0.416780990164264	0.12814842829828	0.629980282928933	-0.882856148266133	0.26839691222636	0.117776199965509	-0.552432886165473	-0.683733667750002	-0.654224928069287	-0.526975877721357	-0.46889187951512	-0.618216401179596	-0.217392381184627	0.237825620749658	-0.346350539051871	0.100237058353181
"AAACATGCACAACAAA-1"	-0.961914152186667	0.588146767885777	1.08978292504517	-1.42581674384795	-2.55260382606796	0.743934028112299	1.35109214274848	0.397462752292264	0.327951570611855	-0.29351638991561	-0.477629011443903	0.608785788194532	0.0948141331250998	0.220453093506912	-0.00457497306640982	0.354075702899967	-0.0579401148357929	-0.562192521173566	0.138847782186359	0.343026747498684	0.302344152079689	-0.120113220681575	0.526002408239784	-0.15267007116472	0.44033388705206	0.501636396534383	0.476061229119759	0.0309330240229371	-0.0220900732096909	0.108966947502443	-0.0522052324238083	0.236651492685847	-0.0983196901339233	0.11317449186702	-0.638934273995409	0.262622776974871	-0.249094373749465	0.0920776622836629	0.25337857596113	-0.292672275241702	0.0564832599072262	0.168202641995512	-0.207490906208499	0.132972936370637	-0.20167850368209	0.18773906736409	-0.138586265063502	0.185780778523991	-0.367237436027759	0.540357325417854
"AAACCAACATAATCGT-1"	1.10119028380193	4.20506388725654	0.534716062863466	2.56781574337208	0.880418332048053	-0.361669552368643	-0.211979508255782	0.83214101681433	-0.992469651880759	0.219066828347053	-2.20424675919622	0.0795022065123284	2.53969503831666	-3.32070894576508	-0.164102560441148	-1.28556944922142	-1.13911498604372	-1.07064021154375	1.89850318149677	0.953348246416373	0.231146546804133	1.39102336985839	0.517649812178883	0.237349881259662	-0.318083766476454	2.01313497492013	-2.2082852054427	2.06305859425466	-1.33427304266783	0.0652168622889717	2.80385471082896	-0.233238333922681	-0.332344309972613	-0.536436956867384	3.44833754008218	-0.49058963716571	-0.914814158101928	-2.39134682413113	1.02845932311333	0.768321423179785	-2.18603714489735	0.44379240097264	0.835393705305049	-2.26493414086212	1.16493393219089	0.860468801458453	-3.33863972113793	0.905000533734461	0.292256265350214	0.609913055188121
"AAACCGAAGTGCACGC-1"	0.491863395011113	-0.16467597526321	-0.653334367230707	0.0668880880223624	-0.654755524344527	-0.128180602341964	-0.891447801359181	0.216610413541266	1.28801810760065	1.19514119898799	0.594032169058595	-0.163786339077906	-0.186365512035345	-0.0360102803317212	0.211243021786951	-0.0164910589779011	-0.0923071503241318	0.572139238525598	-0.608268852316743	-0.170125172151665	0.64421823296861	0.452323339821533	-0.296571985581766	0.70869592460789	0.153867405428428	0.455992706746164	-0.392349027191923	-0.318614989666641	-0.55743112286997	0.171654555287655	-0.286805880917028	0.015991761218012	0.101104280556398	0.245728615165839	-0.190848564714713	-0.301218388875345	0.587945103716918	0.407446065064823	-0.564996306739352	-0.118003834919377	0.426014924350108	0.243684057315759	-0.477343074412125	0.268563527285639	-0.153817591184657	-0.621741265831084	-0.114557044870559	1.19330832363519	-0.943575311766615	0.398400718811488
"AAACCGGCAGTTTGTG-1"	-0.0808158345666838	-0.436145222313066	0.211003764802241	0.415758486275194	-0.042805586589811	-0.118952838031851	-0.340355535107034	-0.488185653537531	-0.0902632636329063	-0.20350087875765	0.10407541097082	0.185508935094278	0.720889371925942	-0.0837826958024987	0.128787500919267	-0.179888913166944	-0.106984798829006	0.0699249421046468	0.230457757491952	0.16333153078374	0.310001313474834	-0.167273288651279	0.266411835935653	0.468439424267565	-0.133873176578887	-0.348655999541999	-0.136126192723436	-0.124935622012971	0.171185268691178	-0.408685041088732	-0.314078499152965	0.00472659952601093	0.151706499244851	-0.114097056748964	-0.52165732707904	0.314854284270896	-0.398223249194076	0.128945005018465	-0.0889817581430023	-0.313608837177922	0.219731732170901	-0.385184306851233	0.0818662468765422	-0.44083070124122	0.056076509388635	-0.271656949402675	0.0488046033749195	0.0824780448863915	0.272535539732371	-0.135874255719658
"AAACGCGCAGTAGGTG-1"	1.79271023761311	-0.310938659004955	-1.34286703903233	-0.239505376754926	-0.240688737374103	-0.183472177636885	-1.05435430036554	0.390406580597119	-0.424964710733435	-0.10175633426027	-0.0234729797521878	0.839653822489689	-0.913309192710315	0.799357508009632	0.87988034292522	0.926887897083424	0.541971771852138	-1.08701687322466	0.263185539127645	-0.0688785611496186	-0.175903352557651	1.37776614186829	0.481030604242904	0.190414230870721	0.890950348697132	1.15647044015877	0.146389277304448	0.626941086523941	-1.29758747896783	-0.348679318571692	-0.0520725183153904	0.602911170957472	1.29163823862065	-0.0624112481680044	-0.360789914059581	1.31473883346289	-0.347457915003839	-0.373510345864827	0.238326695664218	-0.265095562790315	0.313024146105013	-0.514393861015999	-0.0655302380177647	-0.448670488199788	0.703474879171381	1.01895690828389	-0.310131555986575	0.638400294102815	0.603487151248452	0.439511520014064
"AAACGGATCATTAGTG-1"	0.699117605609307	3.27867943648424	-0.409198232173072	0.790650239811726	-1.37746977617465	-0.485348179144808	1.00729351077162	0.580466736267872	0.16103504669333	-0.871229010224201	-1.720905754445	-0.0440969802789833	-1.30699148629185	2.14818342367104	-2.3916571494042	0.547666462883437	-0.505059962144122	1.10702878758647	-1.09940629779593	-2.02496866933357	-1.96408073499367	-0.137617890085043	-0.47820737957364	-2.01861556706637	-1.04530414606701	2.69997076778029	0.553047142161746	0.948198049191424	-1.51864492319879	-1.54458529346914	-0.663343735101142	0.309546485880773	1.01238880180521	-0.0643530252953274	-1.95718273481146	0.562038797286253	-0.834809621128032	-0.787607614651317	0.790571016535657	-0.250614822914444	-0.962608447596775	-1.21156247032417	0.257328104264044	-0.102965035917098	-0.335289709384168	0.206435074338156	0.256233609807081	0.933463468744357	0.863237713726642	1.39222668722479
"AAACGGATCCCTGACT-1"	-0.738227505465168	-0.308838872928493	0.164545364195925	0.0387374107755969	-0.0461107427640004	-0.0270603811773381	-0.29199699460061	0.00942231058948062	0.536242388726289	0.285714564477801	-0.566234657153598	0.201732335707024	0.0904571892765012	0.0420507175216309	-0.226432336644226	0.233252378857037	-0.16494707638652	-0.107270974497214	0.0173858670849137	0.0608569992489161	0.30317992427084	-0.0490465157591548	0.0820910390014968	0.0714608839390851	0.135108534139822	0.360007894140406	-0.414234563032517	-0.143228325801682	-0.263498089773789	-0.559257288452029	0.193759359454177	-0.0837377286528979	-0.0574315630504288	-0.0206610653768421	-0.48338797178951	-0.233151305686	-0.390171962435244	-0.252988097655116	-0.235880599214039	0.180676763044734	0.32625238486513	0.143589261082349	-0.0761742207167546	0.0225425801124328	0.181819811164942	0.162763825894442	-0.209304710091183	-0.0825367386020332	-0.0900822157962678	-0.222961889270901
"AAACGTACAGCATGAG-1"	-0.785725764747817	1.1070855687659	1.20871183861489	-2.53660684268512	1.00310683635149	-3.18955471901392	0.00773281903437527	0.325758135539386	0.187914769231839	-0.149011807939062	-0.191365365534958	0.0152278034721222	0.408449861049779	-0.0830366859812168	-0.383130211129779	0.757585164127246	-0.632606514071933	-0.556043219745341	-0.269064771310037	-0.155282539042036	0.689332695851162	0.334655443260783	-0.201689544904404	0.089170015279253	0.744577701476203	0.656743740116456	-0.474342111503915	0.228931776494695	1.13743690877167	-0.437507732058263	-1.13281511279049	0.182735100051963	0.043383583478782	0.284415849804183	-0.596086080104855	0.507359225993334	0.695704564596591	0.0110197654702356	0.352237621889223	-0.386228165907225	0.487772392659	0.396734536259754	0.208130635965839	-0.255794505281273	0.359482856394123	0.607953879632344	0.604429873780606	0.0962397434788322	-0.431138379759251	-0.776892423534306
"AAAGCACCACAGGAAT-1"	1.64142686858851	0.588839116159822	-2.89918474996315	-0.658653477347148	-1.56814119817584	-0.789712493841632	-1.89959819052876	-2.0688448387404	-0.629253189656014	-3.40358620452584	-0.130521374486571	-3.22370276278746	-2.30571908842963	-3.88606666590834	-4.25991292157567	-0.794082196607749	-0.398166714339743	4.56452203849898	1.08839990237437	-3.78480493528366	0.40113268160379	-4.11727938466268	1.10718619308394	-2.280240775593	-2.24484279504068	7.13672253379579	4.5170975339993	4.16465795068754	-5.68062826604467	-3.55152722202225	2.44265965342649	-3.49895192105171	0.454729369895309	-2.70805736139906	-3.49281502736526	3.35766760286312	0.644102904754116	-3.52905861837182	0.710877111971535	3.24959766913834	1.16111847998452	-1.80152435131608	-0.687082138077407	0.940704818472991	1.23041466713838	0.779602837117731	3.01275245030032	0.45361939968609	1.57457067181781	-2.32895814170308
"AAAGCACCATTTAAGC-1"	1.52040461869272	-0.588602022837713	-0.816956976668058	0.0819331293534535	1.03923467981795	-0.129316886989306	1.0391477655525	0.111748125028034	0.165751359852897	0.0208988233344011	0.228923181859574	0.0523770007901627	0.232030522189388	0.436383008783824	-0.178997516163415	-0.133422690781532	-0.0365628760132375	-0.327327307739229	0.21137600445248	-0.0257401866432752	-0.0291569218834068	0.429041304211501	0.166756790982018	-0.276920390708652	0.248355333566087	0.36966806255183	0.241821611616766	-0.261531487173636	0.0775674379177193	0.36466334141048	0.846485544246692	-0.626651292175541	-0.310472940374847	-0.540190681798115	-0.548106748231183	-0.114259693685163	0.00345772000267555	0.50793360845259	0.574425883904973	0.651360691525955	-0.0784559766270687	-0.736122789464532	0.0358069863825625	0.91872017921092	0.244130535336944	-0.102372904845581	-0.00947680735224224	0.230286522842367	0.498465991403417	0.461787420381139
"AAAGCCCGTAGGTTAT-1"	-1.41136064766382	-0.191433019925736	0.146277049696844	0.0909909826621709	-0.163769159298064	-0.085652456145937	0.0425704310082054	-0.0293213728023784	0.0543410237625466	0.0494655376908799	0.11391766814546	-0.00564831395154779	0.10863152160361	-0.0678182920510162	-0.0309853799225723	0.11972668268795	0.262205062839469	-0.0572051735896567	0.112351206580291	-0.240938501158821	-0.0929013610273447	-0.00874360647141583	-0.129053030205112	-0.0458571032099081	0.0945861940644553	-0.070756024754309	-0.271551055241142	-0.0264479168984911	0.0340812208133471	-0.114939150044618	0.10047814895131	0.0155098864270252	0.128346358523739	-0.157233853578694	0.00355865588771331	-0.0681257410448763	0.138399003416486	-0.102964157588983	0.28558205121829	0.260224641690826	-0.185584710945753	0.181293446065685	-0.280972292012803	-0.49972285198911	0.0663601665310688	-0.10875839207939	-0.142795407467861	0.00755889318908275	-0.256021829821091	0.324896308310011
"AAAGCCCGTGGGTACT-1"	0.544319126967408	-0.535608595522957	0.00848352730483899	0.221561458837482	0.199250852678356	-0.215263236676248	-0.24462503579608	0.275171302551012	0.202160641409862	0.0573282739692907	-0.322494119223824	0.511734176497635	0.14291501928225	0.356115592996406	-0.141728870393103	0.116201111623576	-0.0185631422379882	-0.139332616447174	-0.278240517764393	0.314653155074319	-0.157807687233303	-0.0228877892716421	-0.0429086291390232	-0.200780276874016	-0.215442950581402	0.199100187896359	-0.252571329917745	-0.0656169792187435	-0.329711213966234	-0.412233881998849	0.215089649603571	-0.197395554632506	0.419400559699004	-0.415661713227355	-0.0997925524641917	-0.0502440264498536	-0.418844915350744	-0.179125424404462	0.423819022269948	-0.115860193074355	0.075836089931035	0.405676098173693	-0.500305454007237	0.600666299370219	-0.0600507176329825	-0.0457263506424171	0.157538303384488	0.171631375316456	0.242719037470117	-0.783972489730531
"AAAGCCCGTTCCAGGG-1"	-1.59851940380976	-0.263926757013228	0.213248946245634	0.0721236320492592	-0.181436653831342	0.0313595666854683	-0.183196334960746	-0.150814939026627	0.0794692246016221	-0.01641221685768	-0.114765341965682	0.126057417520986	0.00210358039519642	0.126184689346483	-0.0813230384508276	0.0289309083092296	-0.212829886568544	-0.365678800972372	-0.148926501999597	-0.106471215345672	0.241737676439126	-0.0456378404006397	0.013022731506397	0.0302877339742464	0.205931277085072	0.0172715037707295	0.166864310078051	-0.117818539267686	-0.169255571852412	-0.271219187371364	0.0817043298061947	-0.121290755473146	-0.169208680965495	0.180913409562523	-0.0658803469648727	0.127837899298967	0.19488520528253	-0.00115176847363292	-0.00764160004517844	0.0492990206517313	0.113858683390593	0.0417914249224205	0.063053655831653	0.121700522968609	0.0563389735445992	-0.00775713641015493	0.143234779254904	0.169184994008032	0.0531588574761731	0.12355927002975
"AAAGCCGCAATAATCC-1"	-1.72865354384268	-0.128698447554706	0.18702001813085	0.134208083242555	0.0615663352873151	0.0568460687667141	-0.0449573129282058	-0.0758945122530677	-0.141749781353977	0.00390992328847189	-0.14060982988363	-0.0164264343237001	0.00687155212071009	-0.114308870370574	0.122220112881382	-0.0849871501664233	-0.186177788089807	-0.0971042027311971	0.0111540973202659	0.0737851834389273	0.205508335680983	0.100802697078192	-0.0961419488083167	0.0703482058817838	0.33624405621579	-0.0947298033788557	0.166293357353121	-0.154542981842089	0.210016560314624	0.11603298820734	0.116786857975093	-0.0206005210283754	0.11502888642589	0.170737896791507	-0.102130181257583	-0.175812767219397	0.132005947920591	0.126194921271022	-0.0475365982640039	0.239371383414889	0.0587486040200949	-0.158627226738796	-0.0170747816002118	0.201974692302766	0.0100545804858904	0.175397804120981	0.0762013494596467	-0.18163223520856	-0.0259186790078899	-0.0826377072133002
"AAAGCTTGTGAGCAAG-1"	0.179983647572794	2.58837502468048	1.87130403190008	1.75424110864538	-1.43924347819503	-0.446654959334855	0.559882856550938	-0.280597234697853	0.0653704821166588	-0.0750200727423846	-0.855007735014558	0.0198468520752288	-0.706450987202439	1.70902988447905	-0.0642752890471163	0.748643859497833	0.470876690828794	0.441160547816052	-1.17518608580715	-0.518017482463895	-1.0034186481212	-0.442552949107163	-0.14937834423509	-0.489151335703363	-0.416196679582538	0.35157614355386	0.184110116057085	0.0679817069025096	-0.0583377131193019	-1.12297166353463	1.22222559428697	-0.345608554789536	0.813255112437767	0.222536276522359	0.777163853682193	-0.691494100280224	-0.591071020431056	0.163613168753511	-0.253813047114035	0.115967999095368	0.0458262146329864	-0.840149175220287	0.222304039832341	-0.416359495742544	-0.825996019966337	-0.534870426601306	-0.619249144050359	0.0208770926418328	0.285602802046901	-0.211578685604661
"AAAGGACGTTGAAGCC-1"	0.569485618933094	-0.461497755436963	-0.296529394303236	0.254244568660443	0.330551519250278	-0.324085472004054	-0.430606526240994	0.437982796684936	-0.0381133571854226	-0.566954371172004	0.100042441078518	0.399297022759933	0.0353156803050194	-0.00570289388479665	-0.0456608507362126	-0.302283624308211	0.59425994641485	-0.211501350488251	0.716679213852002	0.707645792432599	-0.202096379583041	0.391653012084446	-0.330174929676672	0.65375195536226	-0.237698856940557	0.185470257686091	-0.55732903472024	-0.207535532341785	0.328446607830078	0.211948059435981	0.109327273791001	-0.332168370105252	-0.0202293114275549	-0.13704415718591	0.595428117675311	0.221940065496187	-0.657011454146888	0.261820708001361	-0.868352705798106	-0.0108097454774706	-0.123415554294524	0.145734885349766	-0.177501597865893	-0.050304574455321	0.420219170317095	-0.0622754078845866	0.117932406608546	0.350835691051526	-0.215801485955862	-0.584143232316571
"AAAGGAGCACCGTTCC-1"	-0.867525031323472	-0.34452363987049	0.21039574858246	0.149788407161087	-0.0621940530364206	-0.0846724690025991	-0.109370678524048	-0.23077667406906	0.0222966830583682	-0.0737999265898529	0.139513087853932	0.0873782905664578	-0.118979938550037	-0.158838400096229	-0.0431872340384658	-0.0215519912833441	0.218980985106182	0.0725147323733916	-0.0375312508246416	-0.0414855039349921	-0.187465402909966	0.0935301263614763	0.0779406675332631	-0.0822615216932281	-0.0947458110879891	0.203513063689999	0.218561126335781	0.0870440849908606	-0.172419529815868	-0.232639967881134	0.0631250430827129	-0.184274074419839	-0.0821287051056761	0.046078979208471	0.341216398113576	-0.0740407819794843	-0.079708043312143	0.00467531404068373	-0.319609280526725	-0.0576913118020491	-0.262065650562916	-0.0497273056370034	-0.238685936484666	-0.327744597866093	-0.236854610839873	-0.0108175674534165	-0.113010071037929	0.0257937871213543	-0.24718144506403	-0.0890175367701799
"AAAGGAGCATGCTCCC-1"	-0.704926508130111	-0.332418712418775	0.323053640331481	0.0978295196809247	-0.323339970425101	-0.032140788374322	-0.238535510110158	-0.128389899663245	-0.158609522315681	0.327364595464336	-0.356876616941303	-0.177087327032343	0.244232915867611	0.00147660065657317	-0.213785356294765	0.062520409873391	-0.475198268235551	0.0593299795911365	0.0375694801118552	-0.00912578225377824	-0.0808859731225384	0.0482467745269857	-0.0190231747066843	-0.0560365945083497	0.0780349058071095	0.14501174028025	0.137668938565846	-0.265625166999256	0.32322846791801	0.00738053806353555	-0.357470614524955	-0.0872680917804833	0.11372074985247	-0.129774344960127	-0.380431799778397	0.283891259749821	-0.0194659470579335	-0.312795116180726	0.354014130748871	0.161793143908842	0.203264750709103	0.344879779946641	-0.377853813223218	-0.270688770861253	-0.0561691697954652	-0.0267968051512564	-0.236077749796913	0.239416771464562	-0.473475297431753	0.195499971463256
"AAAGGCTCACCAGGTT-1"	0.941875622171169	-0.45161109848623	-0.19562371379206	0.261405909358187	-0.0743543061479391	-0.0828357168536327	-0.430499744138212	0.533597667976032	-0.239148652506001	-0.693714619510961	0.550161587843582	0.32092307947324	-0.601481755495366	0.103384657830302	0.33128990309948	-0.341928171157842	0.321052057574198	0.393446690194138	0.152471674490687	-0.154917869256015	-0.12892146341368	0.100691872581993	0.0724751552912571	-0.205918501052619	-0.337465024689005	0.147751200531088	0.174521704488124	-0.165778311345445	0.257326790202086	0.814457907203233	-0.744097121253283	0.508304627986296	-0.0522925782819694	-0.124126795168495	0.428958220215078	0.206412930335532	0.475440510703125	-0.35925043874051	-0.123881539924151	0.711790504549386	-0.057779019887094	-0.148585084167941	-0.264445099740081	-0.693963119193593	-0.0797723592675834	0.00531862819468429	0.129959081415923	0.30220279399349	-0.0544168499727338	0.523520594186969
"AAAGGCTCATCCAGGT-1"	1.5739173993784	-0.62822067689828	-0.783652120843161	0.0664112380985618	0.226348908111762	-0.00649151244562058	-0.147069498932497	0.837523573216765	0.202314308020794	-0.18184550585203	0.401664236294671	0.719308832116237	0.11950265575048	0.217522127813382	0.393120002007226	0.111444843164284	0.188346446287773	0.259830636915576	0.027961136679959	0.114744026117131	-1.03973996776455	-0.198224619745809	0.0252838510875817	-0.297125477798012	-0.703957138820069	0.844986170981748	-0.0296440284683471	0.451287922194772	0.604496265405306	-0.206168813038125	-0.622058227417857	0.530633231859778	-0.0246288611020238	-0.48131148323498	0.462237092473011	0.178583043609272	0.148887558524545	-0.357852057743671	-0.515741415056248	-0.62526777299957	-0.168139186922547	0.565428654125623	-0.531878824393819	-1.17486804841297	0.137019818322912	-0.103219825865446	0.0907344631034233	1.02171125656834	-0.839312834137513	0.816786942051373
"AAAGGTTAGGGATGCG-1"	1.37825223586303	0.47967622717778	-3.63659112483634	-1.80416602525115	1.35281433891069	0.0276116835956848	2.11713769640657	1.95637990482066	1.85857025748496	0.78332558029263	-3.37480553890824	2.56106405361178	0.710835362609759	0.680739547468932	-1.1729480689009	0.256034062619042	-1.43892550720019	0.56647875750981	-1.55168192878472	1.52582629758869	-2.49304290981884	1.09573212439813	0.0163633868124515	-2.39984887367314	-1.25942343727963	2.24258576818925	-2.18731830914457	-0.0131234944090908	-0.976982777582994	0.583204922634283	0.972112503539768	-1.3285075027908	-2.64129530397817	-1.76783319983329	-0.861166224747209	-1.16050262507763	0.442480373192265	3.50871009261388	-0.0264577313821031	-3.6361110175066	3.78013556430159	-0.189797813944715	-0.270754020433997	-0.795288093981195	-0.675271336971594	3.74905670582139	-5.81325055215524	0.698094287988248	-2.72734835078087	1.76214451210753
"AAATGGCCACCTCAGG-1"	-1.11632823345018	-0.222676835692996	0.336966931102974	0.0763198330941484	-0.220795801790498	0.0545763258727661	-0.107267070854659	-0.185201025664209	-0.132263856845004	0.0509226465291017	0.0536345588455566	-0.223900011331085	0.0358235023179115	0.049668618757095	-0.0568687655340654	0.0299196271902376	0.159844003776626	0.275649622441092	-0.0426145293369187	0.0469598288469977	-0.193161502005413	-0.0288253536141161	0.218754732425409	-0.0662016527922442	-0.0712383973639802	-0.117807341472911	-0.0752709059375288	0.04766467460501	0.153265659889546	0.177467498541482	0.285813997006683	0.00342907646763215	-0.0405285731538032	0.218324580759464	0.170132924621487	-0.0375480079633524	0.00595066909385672	-0.0500032248581684	-0.375593169551237	0.291921457015247	0.140094660222659	0.133182220052548	-0.245331284011386	-0.274256017741392	-0.148895861505399	-0.141660497334231	0.0318233673680988	-0.0540604513969956	-0.0709504912801364	0.167662927909387
"AACAAGCCATTGTCAG-1"	-0.189665550499881	-0.478409560779883	0.556324716716419	0.372330531807097	-0.371459466604885	-0.150862271511744	-0.374949268237299	-0.473539017374507	0.227308265251293	0.0527313525920694	-0.645082032918352	0.12357353933158	0.193704065407339	-0.0377952000352457	0.0149110054042017	-0.326180421816483	-0.0309814359087113	-0.218106448296995	-0.0404894539407428	-0.103197767832018	0.192370705761489	-0.136655724783031	0.109732072238353	0.0529016783539359	0.132236220883366	-0.127095861190258	0.0404741520210951	-0.131580693910543	-0.10168569772124	-0.282675024289541	0.0212333165993449	0.0971084164936673	-0.00652105127813794	-0.122810878962987	-0.252050005922528	-0.204756236462942	0.164189553198258	0.142811905532302	0.0185523048907884	0.221069752809105	-0.314887587134348	-0.0406933241740159	0.173771762004597	-0.112727524734565	0.15471792183835	0.0297663263621021	-0.00970526549273525	0.0654069813504896	-0.141110728814767	-0.73558028931463
"AACAGATAGCGCTCAA-1"	-0.982155338307405	-0.274181117452689	0.326534932351657	0.309946218316116	-0.231328250741029	-0.0247033210785786	0.143184767921914	-0.968967698372173	0.198663709067945	-0.144191624190473	0.407070676375479	-0.639509990015919	0.110013361878247	-0.440154324387401	0.185293943983754	-0.205496649172853	0.104688394447634	-0.0607861832927059	-0.241154173203456	-0.152570614983855	0.217393823404995	-0.656751910468853	0.016679547632956	0.105854032769201	0.422057271684437	-0.459939203943982	0.0983474334379513	0.131751205592642	0.10726015018523	-0.117368605516061	0.140642547052513	-0.47998086066159	0.325324386033188	0.16234688336146	0.320877192389032	-0.144909895273695	0.145041206343333	-0.0992552958277352	-0.237521712245248	0.151408865283767	-0.359587636087816	-0.0223726583554122	0.0628092660382346	-0.114619335973017	-0.581589362344508	-0.173778363106753	-0.138548975494649	-0.276009783540606	-0.0146403459502876	-0.509736830260149
"AACAGATAGCGGATTT-1"	0.222256741591815	-0.512514162277147	-0.0960135657986309	0.121561756943083	0.266003053976317	0.176093676490573	0.564137193322694	-0.099443118612047	-0.117471272776681	-0.317702192043344	0.17126981227188	-0.367733679629654	0.483834912204165	-0.514177175485784	-0.327673089909713	0.315926177027742	0.256081383885572	0.545498977161005	0.0174086490680626	-0.619402804904795	-0.054990678866244	-0.472038045070318	0.0529200899128889	-0.0820095062863919	-0.00513223258850101	0.126901283356127	-0.103215932768017	0.437614162197122	-0.352402234909226	0.110217544652755	-0.563368076118474	-0.80157617734268	0.355080268005122	-0.14281495587657	-0.0577047164884902	-0.141643712462122	0.0237954730645767	-0.0530221865920195	-0.0927898082190945	-0.119416232434264	-0.0630677864363261	-0.529849144544729	-0.0941501639929558	-0.293401821577351	0.148334316863449	-0.166113670369007	-0.13923751603442	0.0130428984401458	0.125682312278766	0.78198356156999
"AACAGATAGTCACCAG-1"	0.399175224412076	-0.535011781404406	-0.0773580763225053	0.310842908200528	-0.12687892490625	0.22408951076162	-0.963108410736767	0.0549232196617017	-0.294353018623661	-0.730082930934777	0.0179333981152049	0.359843036283574	0.0647168120640177	0.0424361932071182	0.307779175025737	-0.0188503298635526	0.080409395313322	0.116516065485366	0.298769859963116	0.277937645928187	0.200251144261819	0.461592695901683	0.154634767479414	0.477211573302749	-0.0398168173042637	-0.303378060749739	0.0667225277093124	0.107061658240496	-0.376163437340137	0.278990448875821	-0.130902696567123	0.164501548926089	-0.1284324921311	-0.318382041799237	-0.223182854952495	-0.0913802088071031	-0.0226912422749213	0.322192684206474	0.0636452298826493	0.368051900002303	-0.0608679405658128	0.0248094338908436	0.500631389145183	0.683921370033903	-0.0784352853390818	0.871736296894509	0.427178790464299	-0.183916379633362	-0.214132195529858	0.661239241407353
"AACAGCAAGCACTAAC-1"	-0.835081375431646	-0.194849891878551	0.159763771151617	-0.0822905309049776	-0.149234166815641	0.0546553533531041	0.322074569232548	-0.428415677553549	0.0518988895755983	0.49961245089983	-0.872031052403393	-0.158176792103694	0.174469206062222	0.0932743181122312	-0.257888163814366	0.541574601716999	-0.440694745055826	0.0633131283670956	-0.518497152345329	-0.0230137219752573	0.0274737693575903	-0.204948810739081	-0.17934516862846	0.099816866684018	-0.00442908353617779	0.162844742906027	0.247764023827477	-0.112668304368652	0.258796114285717	-0.249476644652703	-0.360921094352633	-0.344874875626919	0.431822379904505	0.314243482185534	-0.29575629678715	0.0908129075475517	0.295732385930244	-0.580518451917994	-0.0591345168274934	0.108792820916876	0.341960203986052	-0.280284507887855	-0.3969967217077	-0.110314924974923	-0.0582167784358553	-0.330636234356247	0.0994693872534479	-0.0954009666421553	-0.201783894389252	-0.0585990899364735
"AACAGCAAGGGTGGAT-1"	-1.84271133199487	-0.144729874957571	0.0958061514069775	0.0284290085948008	-0.025688653366288	0.0650116277479575	-0.172146095345876	0.244976798595376	0.000315604039392752	0.433352988660771	-0.562780759562794	0.0773463960061769	0.213402690024805	0.067948283938129	-0.150244186356297	0.189993758152238	-0.149952934584114	-0.133177708851049	-0.316164735615684	0.0342903668776995	0.129109988289058	0.0457995207849993	-0.268538313649057	-0.0459796095317002	-0.0840530545705929	0.18668088893508	-0.249446653016021	-0.0406033782954046	-0.0362528857632563	-0.0163573598658292	-0.0957138852284086	0.161651069428536	-0.0497657320649867	-0.0986838683208599	-0.164966601838	0.109134905563266	0.0184569786865114	0.220428619691504	-0.0105948863026065	0.0804648305544347	-0.0283318673426922	0.164007020076315	-0.157148982321001	-0.217667737461598	0.106076265080145	0.0931714317398127	0.0895663632615379	0.0718280406659661	0.0345473886751797	0.282089186198702
"AACAGGATCCCATAGG-1"	0.804541071822017	-0.602833022697527	-0.231815347922907	0.376700863132624	0.294033174522665	0.161048506771708	-0.194028347934796	-0.0772571520643587	0.305303500674548	-0.693430368718368	0.588047205659665	0.119823205348777	-0.659306321675307	-0.324362396828134	0.468308881156801	-0.154796120013508	0.485785137937817	0.714658704689026	0.299305918489457	-0.359901837065574	-0.355925959520067	0.181347546075185	-0.483958119805042	-0.481843358208072	-0.54456390659122	0.496026022228064	0.0695745763316885	0.224438575529431	0.188250277414012	0.18166726548665	0.119402503419282	-0.0846197085518285	-0.408944743741084	-0.129079212631707	0.44763808971676	0.563379720822343	0.742790440286393	-0.171399284199434	0.70608124420022	-0.314333018060672	-0.19006433003048	0.536953432314908	-0.552144209134072	-0.973542043219134	0.0763973846045011	-0.0924440973905327	-0.380203777196489	0.306052748058887	-0.55342201889536	0.102292897475215
"AACAGGATCTGGTCCT-1"	0.416094196056001	-0.55079723126917	0.223245654702958	0.340558679599676	-0.0773717302897886	-0.0353291087716522	-0.376513650639311	-0.13351835197415	-0.106031001742122	0.212473575403881	-0.354356237123332	0.34523397324958	0.0421686312475024	-0.0621395529352189	0.240377658479587	-0.0728524262501328	0.091635434183346	0.0772037217280627	-0.0281692092956593	0.306397693256283	-0.0771662258173081	0.648244186545408	0.488269815008438	0.0832391123559319	-0.336421419668307	-0.063181026076567	-0.210325994182802	-0.335780508712922	-0.234077969473373	0.20280551285281	0.292187436025236	-0.0457044247754294	0.149074959600039	0.144407774634224	-0.13738378563178	-0.111366942377999	-0.677790443674537	0.296626611997266	0.114773783715244	-0.0202022342767523	-0.0286316529619925	0.215107859715208	0.197199749332005	0.283256803193001	0.35304034404081	0.268553399165198	0.425530621276115	-0.185297050039183	0.370294225527084	-0.0294553169852117
"AACATAGCAAGGACCA-1"	0.224271870456694	1.72843563945919	2.00612359876628	-3.99598746672006	1.61579513963804	-4.3591537528094	-0.0368531957378855	0.818562564409377	-0.147754606618603	-0.319037234737522	0.263943963973554	0.386589908532098	-0.0818318803713051	0.20542905321529	-0.649276761112881	-0.403336696774454	-0.235082001953531	0.22680361314342	0.660414102359876	0.570845326009485	0.125069384559641	0.264302734483774	-0.170052995224522	-0.972487907721338	0.562261731747218	0.815492938168758	-0.603953555852262	0.185844115306875	1.76565997199781	-0.0754972834018263	-0.437515947535387	0.530625528276111	-0.0397739341767642	0.391736058138024	0.134682794250969	0.131618838199657	0.861539485305562	0.416938704839002	0.95932406010567	-1.25266260368444	0.538119519811221	-0.16578138474518	-0.355049578403237	-0.531898941628148	0.213824452565486	0.462407025664764	-0.231937110570556	-0.113454290852825	-0.921617765710386	-0.782436860180707
"AACATAGCATTGTGTG-1"	0.778254773311657	-0.488853567299417	-0.699858875130423	0.0386622104956063	1.34001002389986	-0.123367406894888	1.95110566469009	-0.370370082969016	-0.09853509955163	0.921972648595934	0.115419317300908	-1.10406165942477	0.477061398462125	-0.076278762706183	-0.0103308888122083	0.21245350398757	-0.436457031963618	0.1040710335811	0.176600052277083	-0.383878496984693	0.0977331828280417	-0.864164523613535	0.226022165963924	-0.179606835177731	0.154487228654079	0.13310678107625	0.174429382809667	-0.672672711072419	0.071287482508354	-0.218107108764349	-0.0253717324789077	-0.134766039084134	0.029068887943799	-0.0954109536322985	-0.456140721433136	0.349458911464642	0.299572486998266	0.0452795216770695	0.0239327645375973	-0.114774878663706	0.155871090488069	-0.430898310661382	0.0613346552338496	0.0320127140210584	0.186401847084048	-0.186758249937279	-0.478515004517419	-0.544707100012832	-0.330749325125761	-0.105767658173835
"AACATCATCCTCATGC-1"	0.864551158502001	-0.561052227104705	-0.0593712505647685	0.390841359562188	0.264172134176651	0.145769954118423	-0.906487179734736	0.255764433020458	-0.212165944348032	-0.379993666893542	0.874464226506344	-0.113147857726878	-0.55642094853661	0.12977958870386	0.194307129737407	-0.520731108455562	0.58527487756408	0.223244736239815	0.267761675327494	0.166929434491964	-0.856490828881645	0.0547345309097289	0.524427138302577	-0.621948610473551	0.0165593849130259	-0.195261806868564	0.144181661815797	-0.00763374477449784	0.354115916916731	0.383618125352793	-0.830329273191024	-0.348259897119302	-0.0928985593306829	0.73309668702409	0.269496639547949	0.185278006779995	0.033993525246085	-0.0144980762164616	0.361544252959017	0.41359086399572	-0.614962567434029	-0.00114530211605554	-0.335789053656859	-0.523899312591349	0.664041468631894	-0.317643611087311	0.14725780013456	-0.121418182938956	0.191938391617236	0.292222045751289
"AACATTGTCAGCATTA-1"	-0.00358774531551151	-0.511050437443777	0.399999322367642	0.228268030084493	-0.421825620636486	-0.143379251071293	-0.53650098061036	0.0342805776100208	-0.463467403237652	-0.139307087982187	-0.0134516005274761	-0.175010847587423	-0.143421116651997	0.118626482525738	-0.189599412009363	0.186354985779436	-0.372859764881794	0.0102243579483212	-0.118273858879135	0.202031361154684	-0.0950070190537346	0.00189933483555507	-0.125956004518381	0.446857040129405	0.12654439614825	-0.108970433575299	-0.180076198400505	0.077086458010486	-0.147907972606314	0.0877739949098883	0.0608683525625221	-0.194213446290498	0.15363573978533	0.118890077164084	-0.122823585341483	0.386983202977969	0.131806169166027	-0.287801319116382	0.210594605932846	0.321075205479785	-0.360363293374288	-0.0408388298447495	0.0734455237002713	-0.217090701578665	-0.433827761754191	0.383776546947488	-0.240770757917005	-0.0120848902706232	0.153246157969042	0.412999553664144
"AACATTGTCCAGGTTG-1"	-0.787744840800411	0.211050683394326	0.221544385446616	-0.861211242528606	-1.11856337714207	0.849791012535123	2.93030996210041	0.197787714106451	0.681402013679514	-0.216411992452081	0.429486872154522	0.208931283010628	-0.475892083058248	-0.421483739211936	0.0793439480156598	0.2064085760948	-0.846606731471441	-0.204548873815226	0.440165643130931	0.609688694959091	0.517410530233097	-0.165407119048825	-0.258968049954363	0.167931011390001	-0.127735149501815	-0.231572861815362	0.147263279782481	-0.565069148813575	0.184236469992902	-0.23954315357405	-0.0404193324292301	0.144265317464129	-0.325877838940426	0.2114477004468	-0.219503114485284	0.237464361607254	-0.41504636774496	0.288149329631716	-0.061848669059373	0.575324132175063	0.313686453724256	0.162419840050064	-0.303221024572485	0.116636868284808	-0.32351255147191	0.121688090059432	0.145051239055134	-0.142797483031147	-0.0290427475711983	-0.279651502509118
"AACCGCTCACCAAAGG-1"	0.68942987927601	-0.589895231009812	0.0059015749676133	0.223356123040314	0.115080579948149	0.143485097473247	-0.123935037329756	0.0594101093192547	0.313849992481288	-0.233968962500078	0.247292612590395	0.232349819233217	-0.0927197043858117	0.0513293474050224	0.274791980692626	0.123604434767583	0.352988985933867	0.153566010692329	0.201207056721819	0.406600960159236	-0.236662539270612	0.0876152236544376	-0.0198965262563818	-0.472334250975015	-0.0919745576200715	-0.0680660144704031	-0.102859800100472	0.1205809918319	0.175876212680346	0.128676993654333	0.0974240190592739	0.0739139783236276	0.100561214230355	-0.417770095154223	0.369402225886926	-0.0966736173842377	-0.155046935492128	0.072165196080652	0.0299555029149843	-0.078251343770517	0.127614383382277	0.380406560163327	-0.149340885533233	0.455196371550513	0.38648290380364	0.172215304531233	0.272369683345966	0.403089932404617	0.279975168522234	0.240440943259433
"AACCGCTCAGCTCAAC-1"	-0.305447962792572	1.3922356778757	2.41522385508442	-3.3068800418181	1.55466538506925	-4.48286974369765	-0.19291103816378	-0.395892731272169	0.25761870698606	-0.396480688244083	-0.295224707263265	0.132321371531087	0.380405449564235	-0.451484943968283	-0.301528332933765	-0.243372116409378	-0.216159147998931	-0.308555336854362	0.439126899710005	0.0520281062465634	0.427257423863973	-0.0801780504881317	0.153714045104355	0.181851786154943	0.559528109663602	0.124552194409094	0.201242351553169	0.384843463515877	1.11429800737174	-0.340329780909024	-0.186177219609888	0.281015490434862	-0.131511692344887	0.451379394882272	0.0105401124996319	-0.164522607342956	-0.167599743544325	0.198182703899158	0.365924240486167	-0.170674168759463	-0.297719329189695	-0.0671311765209727	0.34936424135814	-0.315468769591813	-0.07267209426684	0.283449390234429	0.306680426204933	0.0108116388857282	-0.0834951397832917	-0.169366979542552
"AACCGCTCATCCAGGT-1"	0.503566474498716	-0.48712875662446	0.292415332577992	0.0442319602977352	0.0875542579807472	-0.150930925658808	-0.237970782047172	0.381631473659462	0.113773974046949	0.270608090085314	-0.727978434019373	0.250887682705661	-0.115039096574315	-0.278978530537653	0.159153683695208	0.110702400435691	0.0636579970331775	-0.170574403786684	-0.0995669812856682	0.435017704898432	-0.263037571466531	0.0864252113113911	-0.0453123314778215	-0.16894135745797	0.240722575287867	0.217269312722418	-0.241549367015639	-0.536062816166748	-0.467822522315695	-0.0816927288306634	0.07832959457259	-0.0360116950114801	-0.200284970007236	0.175145694383985	-0.313752810440461	-0.00288113875103016	-0.19882600583582	0.2948151705349	-0.220857697546031	-0.0777033793766961	0.129098151458265	0.0694966216383822	0.410156543860081	0.251458256650413	0.124376606917562	-0.00562180511180776	-0.128898487812334	0.138745316680879	-0.752379706619689	0.222402865013486
"AACCTAATCCTACCTA-1"	-1.53122258775281	0.846077574149232	0.720772902502184	-1.0652766525032	1.14355450917359	0.103710273476917	-0.231024019818151	-0.36709418013891	-0.357542361846424	0.530530254632214	-0.291228867291307	-0.355955432186341	0.0884251779998382	-0.145609635921427	-0.291979319476092	0.174857364057262	0.238513998894335	0.0667270039621096	-0.346390920560901	0.0232290153323335	-0.499947643910378	-0.0544531565734675	-0.477966646775936	0.236031329240753	-0.513112336983395	-1.11320126853496	0.187534774058291	-0.491423135096354	-1.99064359195202	0.630199136159612	-0.33161086868007	-0.557141401548038	-0.424667525460551	-0.810675084152163	0.269416365004324	0.376033913461618	0.0741967735636424	-0.0898576864981969	-0.0686737299904551	0.620705955648003	-0.339391629347033	0.339281305736636	-0.237407717079599	0.0809982789405424	-0.0435897591369018	-0.096789235271743	-0.174786842437362	-0.204893082953755	0.220452646443621	-0.479636443961965
"AACCTCCTCCTCCCTC-1"	-0.330237486890995	-0.248278976915992	0.189655299337327	0.14720327188765	-0.685655147413584	0.0557323764056307	-0.600891367202804	-0.222950840116915	-0.606387857321519	-0.3786162446833	0.383878242102385	0.153376721370674	0.0413092810894461	0.210313761351848	-0.478842153714137	-0.0293917355643992	0.473483747628891	0.241976332841847	0.0845075409617513	-0.0100447492150789	-0.0457613664898812	0.196712041690778	0.350815388097868	0.226275722346958	0.102797713179767	-0.547315362367237	-0.0259314805631905	0.569113873564588	0.275637241695753	0.260788784479895	-0.386626317099899	0.0638014880079953	-0.0908657246452341	-0.384488699989793	-0.068522228366969	0.00236886251842064	0.30493020457149	-0.488047451401387	0.360007556156876	0.51085731737514	0.201925866095994	0.328645480796033	-0.565492878524585	-0.26043196782264	-0.546347906516803	-0.186839911533144	-0.530744531558796	0.21425122902284	-0.189056384345752	0.14773336878629
"AACCTCCTCCTGGCTT-1"	-1.64814365752814	-0.197781942527147	0.0326502314784297	0.0221924230739972	-0.0260997950837915	0.0390160213559588	-0.0800460658114731	-0.170077029290632	0.0424181963142914	-0.0464115716192482	-0.535471273841961	0.231710115815374	0.00518895141940488	-0.0261834772078801	0.111615576131155	0.0531851776652771	-0.322386446344254	-0.100258953476316	0.00439892012042079	0.123510654096539	0.116471066900321	-0.0731858503534819	-0.0572576069207265	0.00302024833751063	-0.162820313954584	0.170071803517977	0.036575513919432	0.045512884228807	-0.19287486414747	0.179868809610602	0.0734554761082431	0.288408970496767	0.150937046279064	-0.0191303737858593	-0.302571634881981	0.212035565631496	0.128906795758058	0.0996952607988585	-0.100023135662043	-0.0568092054770467	0.205450757451722	0.065702426008725	-0.0413585514285176	0.126613746032573	0.0969896102177749	0.0029200468718032	0.2048239492029	0.0721547950278854	0.0117111596836658	0.0298629332932949
"AACCTTAAGAGGGACT-1"	0.395667279446452	-0.537048655927158	-0.284825756725667	0.240995630495881	0.105365240745695	0.0277117823718388	-0.0869538095108893	0.445393427670513	-0.0346421905924554	0.331495214200888	-0.395415798753817	0.156021861693089	-0.393975414510895	-0.207606479808948	0.406947869032524	0.519513406414817	0.0378432385668765	0.0675126580511046	0.0732037367295352	0.284906647144572	-0.394548844115843	0.173503817551854	-0.0208113700586423	0.286758268592879	0.153153015277556	0.0482060472382185	-0.178801185042224	0.16293984407174	0.183212376603117	0.0927803686933201	0.349668989213417	-0.107087414247819	0.373655191552939	0.441692645170341	0.247551393513816	0.149070133995975	0.186715466214889	-0.0113882961911186	-0.397054663009761	0.137523852313261	0.020056306312306	0.43013420869084	-0.62320220580488	0.089249688537061	0.127510275639533	0.0019709837932578	0.51670091083473	0.103937698033976	0.195023663254761	0.225647320430638
"AACCTTAAGCCTCTGT-1"	-0.384161000888603	-0.262895130410717	0.812863982436618	0.0038182973354537	-0.587835160215245	0.00433342036955585	0.247065753233054	-0.304368071087765	0.148414270081824	0.441200779291353	-1.02514899076651	-0.21515130288089	0.379722147070773	0.0530263272147923	-0.291249567164641	0.0776754989484139	-0.393115955719106	-0.33330935513365	-0.324165163755609	0.139439519778126	0.169002955374251	0.136603042908538	0.0840132417600494	0.131891860263734	0.252311368528324	-0.0839173712167097	0.102531902414875	-0.126090820171303	-0.226771103444301	-0.494552949177463	-0.0136158782966369	0.22399608239265	0.0429354902797116	-0.0277148585826128	-0.252424669905033	0.229933675938295	-0.545173258323112	0.186637093034123	-0.109447646997319	0.213195077336723	0.163928705580766	-0.26519709339847	0.174609541580272	0.357229015703781	-0.372785910712851	0.22940780130808	-0.0255832485000119	0.235255724640991	0.0310766920279406	-0.140565253439139
"AACCTTAAGCTCAAAC-1"	-0.254126716421942	-0.374519907970354	0.82799126270192	0.40332640702685	-0.825308088008961	0.241997066485031	-0.650439285427131	-0.350830125252512	-0.392632667078053	0.0793068798303849	0.00793222980742454	-0.0782876943812025	0.26230841805977	-0.285380091788415	0.139752990167449	-0.328813650905769	0.360176787890426	-0.044124146979041	0.230838599295437	0.101751425209283	0.0437977004276034	0.0563343829277651	0.407737210018187	0.14853014572089	0.145218084722147	-0.491198256938938	-0.00927922212565745	0.245705975048743	0.131186536863117	0.0781651557669562	-0.258524808982541	-0.260203934715289	0.152577326154758	0.259681549491977	-0.228164989361448	-0.127422910718658	-0.0402338940996512	-0.0960014611168201	0.229618176509515	0.271308376855922	-0.199579941172222	0.326623684596121	0.0972477435710952	0.386180596087886	-0.396266759562848	0.0932183991811293	-0.12897775192169	-0.0922362391950507	0.0985129953896688	0.200290788770704
"AACCTTAAGTGAGGTA-1"	-0.135283229960449	0.185981543897083	-1.75185610230215	-0.824089305825502	0.165484950481542	-0.200776889610738	0.312621789025237	1.00450621786077	0.685232402602833	0.366084799051904	-1.90770021297849	0.634665166119191	1.10715112706742	0.38865269674134	-0.697948932809134	0.925972777513131	-1.68584477666654	-1.89721263798464	-0.678298910377461	0.199410560356271	0.0429051713073293	-0.433798888782887	-0.820022033882124	-0.0368726114829772	-0.157122078405999	2.55079137300266	-1.29086513344027	-0.377195171984621	-0.699426545109642	0.0830073826708068	-1.46461676211611	0.854161331053592	0.371412476072115	-0.976394614797498	-1.15627487587444	0.139710126487224	-0.39554600700991	0.105421047816011	0.298000366597606	-0.989636784197575	1.23926164381467	-0.344213286936971	0.974943021906629	1.3118961162791	0.55730748187962	-0.130842034453241	-0.163848630084929	1.19275852023503	-0.217488180071759	-0.25867002933205
"AACCTTGCAGCAAGTG-1"	1.26443875389117	-0.456700751819401	-0.438422733519397	0.077416788661183	-0.161451404930902	-0.342645969336273	-0.65523302325922	0.317708996456497	0.0357648756156389	-0.25245959375288	0.221575459907369	-0.0766600709803	-0.0806694486359112	0.0902851199378823	0.164869195561849	-0.430464388808533	0.230090809059721	-0.530437562262553	-0.0642743798492557	-0.240109882771754	-0.625064859893804	0.079055835151452	0.0992575795475575	0.34472786441982	0.462617767553308	0.387964064285054	-0.518022211810496	0.640640337461035	0.0201892954252693	-0.510532297549851	-0.995737326007299	0.0011473003615481	-0.0816238953756785	-0.147764289478437	-0.0935665309855103	0.01638802318715	0.773092958953943	0.0226048574677037	0.481877820509732	0.158322201233287	-0.369724514565019	0.13412234188499	-0.881181978709114	-0.751161682247007	0.531590844356625	0.304223463791037	-0.390013620329768	0.0229172621944211	0.73958019147169	1.03918106113406
"AACCTTGCATGCTTAG-1"	1.65209586456547	5.00086481623101	-0.478626118428439	4.57295777504501	1.25404472441258	-1.16231830984277	0.111311517339998	1.05038391899328	-0.424955486341662	-3.24559068845204	0.156098845626962	3.30162201667416	-0.245195424642489	1.03832550918517	-0.357105203227083	2.12377530825874	0.162310367913807	-0.412833107376471	-0.535152986491399	-0.0991574324109184	-1.37972563264981	-1.57524081482778	-0.271184665062838	-0.393152796618069	0.231269781087491	-2.12137704394405	1.09579989592418	-0.50672140169533	0.437242985665624	2.85767028758305	-4.89211620893187	-0.608930263204714	-1.03495553450182	0.762426350442129	-4.0394907339564	1.73613446238996	2.14413932122631	-0.352604611785392	0.206941161675344	-0.301449995881761	-1.64997922709091	-0.407151067750995	-0.7835552524079	1.8175873899599	-1.38916746584061	2.68116988186962	-3.29533167949998	-0.948057362049408	-0.678228425428609	-3.20121704533627
"AACGACAAGGATCCGC-1"	-0.980169903784241	-0.249475785171182	0.618025635955933	0.189994741208435	-0.589195984206226	0.100661193407302	-0.062719728072007	-0.681998443763707	-0.289114574241437	-0.0978769250235916	0.294625878226641	-0.518017850316721	0.115246344403131	-0.175403752928201	-0.390030965494273	-0.223092717739318	0.226292093007771	0.266753163136492	-0.0147182537909341	-0.520435152127236	0.0506344682773717	-0.269048117066608	0.460885055725313	0.123505698311198	0.403528954601572	-0.438914972638222	0.123561263374556	-0.0260193718005252	0.429284057632266	0.035732182824444	0.289778482931184	0.0624540097416278	-0.0798440012765193	-0.0961580169525974	0.117181917226206	-0.314949342937507	0.375872903965964	-0.0417363036326772	-0.0396998514740638	0.477476616690449	0.0768078958200671	0.0481765933122857	0.0645168220672819	-0.0500684267099172	-0.605900969714961	-0.339704985654073	0.0805367018818452	-0.179174728376647	-0.125112789004064	0.0589221486216195
"AACGACAAGGCATTAC-1"	0.689693767696068	-0.572891106596942	-0.0991284832587056	0.16822444407696	-0.000788518383310504	-0.0648188934041418	-0.546166498699921	-0.0653727895668943	0.060891193956885	-0.649584345889059	0.658416199447771	0.574024898264665	0.0806262734045322	-0.277375191299748	0.443227863240025	0.0121384703002118	0.170865845470661	-0.11521544306903	-0.051397148557234	-0.275275774870032	-0.576521585278817	0.182239427333109	-0.291428687794752	-0.438484680134469	-0.208634747178805	-0.124581750185976	0.077509378875278	0.16098907874444	-0.247819915123126	-0.192955700427554	0.0153052493655046	0.316896042319008	-0.108237669471794	-0.146847605309424	0.607171362281405	-0.14023440718597	0.204036716054163	-0.562955731528412	0.745578485784508	0.0413366538930731	0.173538685515412	0.00289493684894195	0.0286963197582144	0.350817626935114	0.798931629968008	0.300739860783948	-0.851243942288367	-0.081627985191939	0.490451676532439	0.311274770328963
"AACGCCCAGTAACCAC-1"	-1.99334220561894	-0.179942912735254	0.0955515400629757	0.0388965932402226	-0.0977684005692383	-0.0445769716503093	0.0308346514567735	-0.160772203425039	-0.0120038610192893	0.0169813311706679	-0.115789768007379	0.0344859057132997	-0.0904319552488159	0.0105272612617471	-0.125016034177747	-0.0384144289189668	-0.12858261804485	-0.0938222237780159	-0.197384380467996	-0.0131220650375758	-0.0186823325214435	-0.214540164685466	-0.139690048424112	-0.0351510087679102	0.13330055715181	0.052028879012515	0.0844760945984454	0.0288811566625271	-0.0549463807931542	0.0312955362261671	-0.0288660560144772	0.119570900382332	0.0964588667547978	0.0827360008309177	0.0104439705073879	0.232270233611269	0.0604231838099389	0.0624523641300331	-0.033447103171128	-0.0386587635298509	-0.0604412701482365	0.0920546232172344	0.0207369239545608	0.217217732075116	-0.0858300772535423	-0.0201689107767999	0.0527792853948496	0.213819873703431	-0.010415438369879	-0.0582989998167146
"AACTAGCTCAAACCGT-1"	-1.94046516986072	0.220235267010826	0.959393884668088	-0.437418378090999	-1.11196034146342	0.29698222112805	0.77827361275704	-0.117063185793084	-0.0569078209435784	-0.247144632610892	0.0994958791668288	-0.0258843081524476	0.0780345809875878	0.0254025478259041	-0.058624951085396	0.081961200443538	-0.130124681189444	-0.14148168232185	-0.167996372686799	-0.00510468737107997	0.0190686046366755	-0.0432651659169136	0.103978151120575	0.0379453509523787	0.231896078087182	-0.235053368787432	0.0258453562883124	0.0727478851445788	0.122850061156578	-0.0980488287991291	0.0294342079825135	-0.116063277836074	0.120212990575932	0.0593493854809605	0.0831647230509648	-0.00956487091035855	0.130400971303627	0.0429313414435895	0.0789762086733802	0.17899618714241	-0.101620405347379	-0.0391953928017003	0.168598332071798	0.0369550399918017	-0.014240975461145	-0.0507022460415248	0.0258452376576759	-0.011893726920071	0.058387558729287	-0.0655207057883197
"AACTAGCTCTTTGACT-1"	0.942958584205641	0.879811848145601	-0.327712200336613	0.378065386496178	-0.208725805524174	0.160890838491263	-0.215704428560361	-0.129185382516832	0.58831168077709	1.37664415777135	0.363518006773852	-0.770967943698732	0.220372877052486	0.279532267548066	0.319669366868007	-0.589884065814836	0.346378815510689	1.19928324936814	-0.150252036829144	-0.240458839634339	0.1844860516829	0.549100399748611	-0.23015753630151	0.959417658334489	-0.8587936253053	0.548869608126248	0.490430332181674	-0.254103542221171	0.713563275703025	0.688820740675333	-1.34778259116268	0.659143703303554	-0.000821043562473562	-0.69083028964314	-1.19877660622078	-0.112891412264374	0.957183708200121	0.730631526796593	-0.327040570939567	0.263714161444655	1.0978415155497	0.559904334136194	-1.37631821124271	-0.368075795871634	-0.299942038530323	-0.366866246395933	0.0137995846091691	0.284729505364674	-0.865838608165208	1.06693635655647
"AACTAGTGTACAATGT-1"	0.00457815695775078	-0.583814351718292	0.429943098067369	0.447475525481413	-0.31147111142898	-0.204366779484866	-0.574541866953359	-0.666535461886503	-0.190707276933792	-0.0771220507329619	0.0337641600192208	-0.179275361179418	-0.124305442426517	0.219610625340289	-0.216737078813204	0.235723256049115	0.142508989814004	0.230195281124009	-0.0781774771332039	-0.424178998744253	0.09717183614894	-0.100480981197605	0.0959861068256382	0.208362006645228	0.143535963630491	-0.224937170038993	0.035717532060958	0.138363698563792	-0.218154707830861	0.0688376165595766	-0.0470624437367579	-0.320549247439707	0.0440194813743932	-0.325072562354703	0.0468868149294272	0.344807133654888	0.569178878136203	-0.363230070877805	-0.0181698156431869	0.517084924519275	-0.436724899697769	-0.293981033328308	-0.459838423620691	-0.535458996687794	-0.350417973526909	-0.119028386883216	-0.194011586452502	-0.440061369466966	-0.290513903214763	-0.336562455834784
"AACTAGTGTTTAACCC-1"	0.805879703581225	-0.266995215019854	-0.958146907169308	-0.480802092007199	1.15947272080567	0.297711675251973	2.52024691886764	-0.250392922046963	-0.377105053869267	0.938363579235453	0.200732387984504	-0.69470602016728	-0.483151342396871	0.322723878999018	-0.0810045420079462	0.689702065958753	-0.910223076194584	0.229580524568253	-0.132191530350079	-0.520094137377978	0.0049755760228044	-1.18701107328459	0.467288864180152	-0.407470200332499	-0.0365068565256925	0.0845202324094443	0.351490237368882	-0.180083828825236	0.177853229867978	-0.361496631201637	-0.382868061370208	0.0733426329086191	-0.0931082503806464	-0.23835433407324	0.455287580708502	-0.148696376097523	0.501349078139904	0.0400596168269877	-0.337631447289523	1.01740991197112	-0.196582970424001	-0.600851387972196	-0.943003929651923	0.0226240905331925	-0.352888934718944	-0.0210493411711993	-0.808277478711083	0.0748522157984549	-0.872869711909748	-0.194070775163696
"AACTCACAGGATCCGC-1"	-0.588043904454157	0.268087395767963	0.709193458444729	-0.644748195608936	-0.997332956578861	0.435387958004314	-0.766851625769262	2.59265027112065	-2.6129028584438	0.869815841804769	-0.537128652765289	-1.09667007282938	0.201444008508809	0.186581109616406	-0.0683753578967879	0.0465720063180738	-0.835559951052631	-0.441055056618237	-0.219188898044713	0.00654402249689369	1.00511436791466	-0.669770212701827	0.0381139443003885	-0.165432270966346	0.603003676996624	-0.118436353506483	0.188447445614557	-0.257643444750691	0.406228356178943	-0.153030824827191	0.315043137187791	-0.0571053088238326	0.0582116531662417	-0.176459157940969	0.310539594865395	-0.0953045215283366	-0.219224225189687	0.15952697831307	0.0084240133941924	0.270959072900784	0.259651996600622	0.136509891301488	0.446751616839939	0.136570533898813	0.332996874549324	-0.165831074611898	0.254303212299078	0.210200404041626	-0.00329076431412843	-0.626045379035623
"AACTTAGTCAAGTGTC-1"	0.587940791558434	-0.474281703043362	-0.0531717313833841	0.162119805386513	0.172928993959472	-0.148534715255905	-0.4182286730503	0.237610037954053	-0.0470114586771637	-0.1625406591579	0.429403754450261	0.46588867408467	0.232140652185725	0.322926870474293	-0.338329792674003	-0.256979634710334	0.734512554309287	0.173136397213371	0.21101509865145	0.348289857051774	-0.0611197041284067	0.259771319957577	-0.285912646551615	-0.301170969173416	0.0944222327749693	-0.49023819171757	-0.198401021053487	0.419398175751897	0.00431183604681934	0.516624569859805	0.0485841458000888	-0.160100148194888	-0.338452333430032	-0.195946573404383	-0.819060446344259	-0.0165951988792801	-0.640803102490016	-0.322463912509688	-0.0985504544804648	0.150016127138866	-0.247262769254568	-0.139061495594566	0.454840234485747	0.304488439396019	0.250492726036785	0.467712372015872	-0.319630263067549	-0.52294881774987	0.31224858253543	-0.17469080077096
"AACTTAGTCATTGTCT-1"	-1.31812025473965	-0.223381326707147	0.157244238148101	0.0897314226645837	-0.202032498237702	0.0206263253585114	0.0188962586061979	0.00825755853694047	-0.0659049152136366	0.18591241082162	-0.299133411723409	0.0671649425316485	-0.141141203409009	0.0606381505825249	-0.0155523141065237	0.23941902785017	-0.123091424488865	-0.0683915823319822	-0.28088859863222	0.160286413150328	0.278987247865356	-0.055387848499458	-0.0431067198329986	-0.0431123834989595	0.0719429605098198	-0.0495317895796705	-0.243215697359288	-0.319193860051261	0.105209952718304	-0.177149581202489	-0.0445537169795751	0.17247036625348	0.12219537130924	-0.103857419375786	-0.201385390720215	-0.0385160708169965	0.094625299745223	-0.0608271217250017	0.0171494123591268	-0.0666881040886214	0.089566274725255	-0.0152510738863214	-0.0400565593006669	-0.0296161885290797	-0.151942380352738	-0.018563554347821	0.276464167908613	0.0235851013531685	0.0982682729560487	0.2536899323795
"AACTTAGTCTAAGTCA-1"	-1.17361813073664	-0.216311009823407	0.296173342609408	-0.0265149394778158	-0.0955384390629546	-0.00294966299764932	0.982122655719103	-0.749146124427572	-0.336386387981217	0.274617349294228	-0.065628747441929	-0.701565124542783	0.0286633386167915	-0.13813614288035	-0.113447346017363	0.115066865769011	-0.395631805184251	-0.0367737730642037	-0.140231510550227	-0.078108851087228	0.263861097088524	-0.414296033598715	0.0050575574756026	0.348258052875359	0.244546485711528	-0.615826532521722	0.380249462364386	-0.0599932724057933	0.0287627791727253	-0.165347860056396	-0.0575638701153725	-0.233653322507667	0.267408158033419	-0.0321675243008748	0.04225047299286	-0.255302980456988	0.241695023852245	-0.157709461096425	0.0645242087376639	-0.0921549455801621	-0.224246237885796	-0.319531557709102	-0.175478774459436	-0.0623706774520753	0.0299010897913763	-0.216836778674786	-0.0455948966116451	0.344805350019587	-0.0354291181931072	-0.118279781739974
"AAGACATAGAAAGGAA-1"	0.406440658867186	-0.365865833431531	-0.453313930500246	0.109130964729163	0.717360336326777	0.376556904920756	1.4609021476384	-0.85039043255773	0.267591212605024	0.377693052658114	0.216547384003375	-0.805013835674439	0.142396822022577	-0.428300798778783	0.336862512869307	0.172177701757845	0.3446457064766	-0.262438055581012	-0.00133458692650273	0.586221786547374	-0.141468923306928	-0.776302306144127	0.689100311071841	0.225437718153	-0.129523019786446	-0.4543869905471	0.326977369307555	-0.0994384827317248	-0.540167684029813	-0.377201079659829	0.307729848734262	-0.542270708087316	0.0824625498900525	-0.425750451717664	0.252659349457212	-0.65726497978006	0.0572148060535629	0.683268911882507	-0.336140905627604	0.580908449536451	-0.465232803173235	-0.0845374641875397	0.370848271501544	0.808205174786934	-0.205382457717745	0.12136996891174	0.140007677838148	-0.112277808442321	-0.00655006735041166	-0.155726599805917
"AAGACATAGCGAAGTA-1"	0.656551479994835	-0.446520858750386	-0.2825702315443	0.145100274491506	0.172314553368157	0.125300480630475	-0.431506631170228	0.204609623507541	0.266619271188895	0.142819226562673	-0.209791671546597	0.35963462017339	0.477281646358264	0.307075657343393	0.018611450117059	0.600046300271739	-0.152545429091875	-0.49481520946209	-0.276818636011606	0.196211482889739	0.173776201197372	0.142964957524736	0.335059446391256	-0.0442617539128502	0.00529969619844243	0.738452071620715	0.233474741102981	-0.0245687596838602	-0.210733786255314	0.148998296020977	-0.152385212268897	0.0622899691786237	-0.0190794233089981	-0.072612091644958	-0.238705040756869	0.187032152495004	-0.753296918932466	1.04331505427214	-0.502700777076424	0.0976134354627309	0.290901016398191	0.304036960332421	0.351289741755139	0.489958433745898	0.464685325778065	-0.316979215070606	0.585806846102962	-0.0211004713462552	-0.13755275440879	-0.412615632510584
"AAGACATAGGATTGAG-1"	0.818751361731557	3.65637608773955	0.221839739681285	3.53288518721352	1.35464138674088	-0.989507580349533	0.526250855229649	0.429777054262406	-0.974317561999805	-0.886694773877036	-1.21232663666212	0.811007966804904	2.56348415057871	-4.79260968332239	-0.400162442907188	-1.64312340084933	-0.413744577598258	-1.50399853312569	2.41854695065469	1.40323359004817	0.765867717721116	0.905768565023837	0.222753652000715	0.59838994944131	0.0586581146066464	1.0009470281729	-1.0365780641805	1.1518643410715	-0.0131863125684625	0.657146526675566	1.6037992723335	0.632072638567596	0.525298764274152	0.563882095034397	1.28714605544721	0.892897963555843	-0.39582915708187	-1.43188104159735	0.0986234811510143	1.44705001046806	-2.83087782481818	-0.590323105041676	0.164013075256734	-1.07995530317232	0.108453962081508	-0.0451544564900682	-2.95338677951285	-0.919194340312083	0.876656515581919	-0.959876491802235
"AAGCAAGTCAAACCGT-1"	-0.167155356375982	-0.432078597315594	-0.300306350579026	0.229859334531519	0.452729675591538	-0.0254491072481301	0.921480473076845	-0.493705174653975	-0.305995899670892	0.252796523603253	0.37489038799227	-0.531341707010013	0.420186990374065	-0.230916714239013	-0.0977959110180338	-0.323460808608189	-0.396138841129003	-0.200656526907132	0.0676181531003751	0.454292401536484	0.208815291660732	-0.569924047193403	-0.0191500131520674	0.131888235857352	0.431213108555867	-0.505811450605605	0.0467906803975895	0.0856035227003462	0.11302037399676	-0.073454218068689	-0.0747706167582751	-0.0131160544890234	0.459765227414846	-0.371066535429006	-0.271834307822523	0.0471467685449998	-0.304205709431224	-0.0463269840961289	-0.105267774375434	0.0627393478626894	-0.0336721104952364	-0.210213281584132	0.967052077217904	0.728788784499517	-0.482359758901704	-0.0383581733724627	-0.371566509427854	-0.318684877865334	0.20981955349515	0.0862116841717072
"AAGCATGAGGTGCTGC-1"	-0.273088076379686	1.30468477739675	2.53980964930441	-3.28755562748492	1.04877934753397	-4.32844689370795	-0.0712922926152602	-0.43697669815779	0.322571546441346	0.158891742437253	0.0617667051135823	0.547249114204687	-0.129178986847191	0.0111069232322834	0.00434831778631435	0.0699418184953101	-0.162366692095979	0.0182266875053717	0.134901709189606	-0.084282950999809	0.306103569955264	-0.0186031011405091	-0.492979904471055	0.208797533680921	0.185362809892423	0.305096726857522	-0.095022898985084	-0.053351301851478	1.05384770471419	-0.48110393234662	-0.226898001708261	0.252410417128058	0.263794524252953	-0.125709391953605	-0.332788001319021	0.0142111354724508	0.0992872928617941	-0.0826442376970666	-0.199196125170277	0.0102332298796269	0.151564373550828	0.267554966939782	-0.236311924855542	-0.254169986857813	0.109630696899023	0.328995593491151	0.548237146851233	0.249659341413803	0.440050885796233	0.157554434947618
"AAGCCACGTGAGAAAC-1"	-1.64894785420164	-0.167309104490491	0.303569191861066	0.0336723129974238	-0.296416354376567	0.0747273289097041	-0.000563355908968521	-0.078459667298617	-0.0314154605115194	0.109758336042557	-0.355961031665262	0.102583103541137	-0.0645175880818799	0.0419959605061224	0.0473741204326322	-0.0506444161608208	-0.100455900338487	0.019545320052662	0.033756423642327	-0.0830375427223506	-0.0265471194942898	-0.14407121894954	-0.121737724935341	0.0485086085885021	0.161414924581601	-0.0544010566813055	0.0512157843944125	-0.0921217044305677	0.0989483608041611	-0.153805895745807	-0.241930922681044	0.0722712461091062	0.0601942209248169	-0.255170824945979	-0.108405341109003	-0.0527282541856479	0.125111854038998	-0.0104889319298562	0.28884982290346	0.22209514126453	0.127341809057512	-0.053830391661092	0.0399912996533432	-0.180895775384698	0.208374730255404	-0.210406602432384	-0.0456822515289073	0.0201731390227162	-0.149314107287937	0.0484815235815004
"AAGCCACGTTATTGCC-1"	-0.252128294303891	-0.341106064219002	0.0422275801192027	0.151788473765672	0.00960211297555573	-0.123563596356363	-0.300725327594381	0.233932380763261	-0.18507415848209	0.11856201105347	0.0200205526764529	-0.00438060050732339	-0.45706971259406	0.224747126820951	0.00175929762081856	-0.181888020360686	-0.487609899906353	0.202399038951034	0.0317346408886285	-0.155524844848173	0.135589834266586	-0.137313218595231	-0.256308061101199	-0.511781347925919	-0.1104892784375	0.727841704163239	-0.109870024553341	0.0996901966899939	0.436082303545042	0.0421109519913224	-0.334706638212036	0.735564182994638	-0.20694036258958	-0.624466830018179	-0.280916122169973	0.572479332075244	0.674008565392158	-0.393795557969304	0.0284513113929097	0.15323012285756	-0.37215094112917	-0.384610683523633	-1.22819064250422	-1.10858852775369	0.110756193336681	-0.372777953246593	-0.229880931774821	0.460993813624974	-1.15111380462374	0.195859074132577
"AAGCCTCCAAGGGTTG-1"	1.57020338946807	-0.703181706441871	-0.404942365933162	0.322197442003842	0.516510005929163	0.0970839124787403	-0.950193438523325	0.636819669687254	0.130938087189982	-0.510524489388049	0.441921245552227	0.185417814270702	0.0671057653237109	0.228137501288056	0.0541038193651357	0.0334965488462179	0.571617577000403	0.0685076843504672	0.632685079699117	0.0670932188811352	-0.646606034638243	0.370706302816198	0.122389058609726	0.182574761093961	-0.242245126340846	0.441447489492728	-0.11084399704288	0.393254114308625	-0.331024423114218	0.502050814244706	-0.445297672378662	0.273438650854747	-0.66275037477184	-0.16856576848115	0.217456516186632	-0.245059531552203	-0.196534081763183	-0.00990889811909088	0.00575159587394814	0.0741903170761383	-0.345746639144225	0.688975855452855	0.245716991515265	0.209247300094997	0.757962930740062	0.542787215400071	-0.355597259010361	-0.267974176363132	0.0909283922185762	0.0266037643194251
"AAGCCTCCAGCTAATT-1"	-0.37680606244888	-0.429540587656647	0.415242723533719	0.317778398499683	-0.242725280596982	-0.139785830463178	-0.439075781662174	-0.300836234022153	-0.000709855307185114	0.244861078062563	-0.703566467664932	0.282418327708286	0.509986441134771	0.106171565663606	-0.377941426031758	0.184289920555765	-0.568447274264903	-0.247628625655003	-0.0585525384033403	0.177625909275375	0.398290394558251	0.0524529195229534	-0.193235789185059	-0.174731152017217	0.0078157245997844	-0.151920056533588	-0.120419714196537	-0.0176567154701373	0.050023495859906	-0.481674500587026	-0.267569246338973	0.138038994806235	0.215664766079579	0.0449465406996171	-0.373005742635589	0.277955794935219	-0.414480686147507	0.558276650156829	-0.258304423228693	0.137119298612677	0.255955617832247	0.155083482892667	-0.0865576910358264	-0.0449644142005973	0.187535578538366	0.0409356707535635	0.253259039100945	0.0168583765323089	-0.661745170831969	-0.250494530615565
"AAGCCTGTCTTGACCC-1"	0.69827747584158	-0.557603260733591	-0.50408387693728	0.114083701557625	1.11643519099666	0.270891202428701	1.77120087674092	-0.337393831054879	0.264251871442707	0.0120516870011674	0.160039013268197	-0.762691699620765	-0.653515598267772	0.469740180437672	0.207914512177946	-0.219460192045552	-0.0304848887336608	-0.212107871683543	0.0529413662466505	0.313928443206492	0.439770874672752	-0.0116232923319801	0.30095320770435	0.0848995368051675	0.671938805255933	-0.402844354887251	-0.283471059161075	0.0804141191802942	0.00617828686134561	-0.0929094592702686	0.4195575252682	-0.0459314471386423	0.528281591092611	-0.12784475932317	0.190158310907133	0.139666895610845	-0.296343100360423	-0.177273289727582	-1.1084120177437	-0.541391540938506	-0.642304031470493	-0.814055915690209	0.151417652107707	0.597598690080133	-0.134148239812952	-0.401526745659707	0.145616744441876	-0.0626420817292016	0.523051952719617	-0.956914094124961
"AAGCCTTAGGAGCATA-1"	0.126769803951777	-0.42703011612641	0.528044944068379	0.274541369071784	-0.376636232971734	-0.1867843947925	-0.271734789928605	-0.479641808583746	-0.0862304324967199	-0.322371322689879	0.118144037651007	-0.27381070564729	-0.0362982119725442	0.00264974800463728	-0.13730758272484	-0.260976290437321	-0.0114955807833545	0.238508914252559	0.106186617020989	0.121103086577784	0.0026887302677035	-0.0147795638162648	0.0596716913401946	-0.511929813020315	-0.0609781639067604	-0.381135420255185	-0.355363923800835	0.0990485721275657	0.372905119674347	-0.130834100862063	0.357054315667283	-0.231228917521488	0.170771459477749	0.133966572124498	0.379042270549233	-0.264342333770088	0.560627958803173	-0.522669140319675	-0.121076227760776	0.183982589794393	-0.0867268078831239	-0.142908199943599	-0.138737406172613	-0.565114781080557	0.0846896159537656	0.110370484765267	-0.567262091257695	-0.088876777620866	-0.372489961797339	0.193906905704341
"AAGCCTTAGTAGCGGG-1"	-0.0153600048094746	-0.317096209089665	-0.000607939630761663	0.067432335701323	-0.0306365645153568	0.00433529647310515	-0.391832456310789	0.359538106812669	-0.30213272298169	0.20392589385397	-0.496370649034203	0.218113217348562	0.193309209132534	-0.124180015220701	-0.320048734754575	0.0194029761046236	0.141172807114464	-0.233870461350406	-0.120365091103839	0.539580918203976	-0.0520439364736614	0.218428081992459	-0.116870874848701	0.105716536233306	0.231982480053278	0.0970714524408461	-0.0129649858148397	0.0322119969416723	-0.374171902159211	-0.228135819228176	0.338303012905051	0.108298642492211	0.258234553521299	0.328909667128005	-0.486381186480959	0.40670619823743	0.0381655552738387	-0.169351080252276	-0.347487600820576	-0.331394454729628	0.17071344005049	-0.272515635589364	0.372962176062637	0.335235817627744	-0.282855396439624	-0.0885143833327231	0.780874311029153	0.144188378581762	0.728325500591627	0.12040178407551
"AAGCCTTAGTTTGGGT-1"	-1.57101635641411	-0.0388144374780615	-0.0222976667823811	-0.0192490403361674	-0.241846824762482	0.0241847972575334	-0.286921594640348	-0.378996549416953	0.133689749321514	0.281410875404849	-0.280659028580376	-0.21820250787022	0.370126604071386	0.159869066885197	-0.077268449016565	-0.126126364106863	-0.390174085244222	0.000584313109823744	-0.0180006615847975	-0.371744869229048	0.0719784131304961	0.0185520245102106	0.344960249175359	-0.00120728501343014	0.136483610726633	0.0838443245566587	0.271389292735276	-0.256844431100961	0.16420424028305	0.348816004809454	0.137442393861468	0.00619000141864893	-0.166733681742087	0.0404557520990902	-0.21381611264359	-0.183606604951662	-0.00316126313367441	0.0597460489282986	0.164990574793365	-0.0914783418616231	0.391709222248234	0.0689779756393305	-0.0306903865017663	0.170432626917372	-0.119086066036437	-0.141430671280488	-0.0104987415987249	-0.142231561435437	0.0409129174796916	0.172589377640984
"AAGCGCTGTCATAAGT-1"	1.81161070046724	2.12059108765177	-6.22818821657454	-3.11183888989119	-5.74571417823384	-1.02248894965797	-3.40783924159186	-3.69512915733433	-0.302293651100308	11.2622833726741	9.79954253204183	3.06313381787812	14.6398299014722	2.75918056199161	0.184776247861427	-21.1472227606802	-2.12240487238184	-0.661956420317243	-16.6650739512388	13.5640101785578	-23.8490166872059	-15.5121734657303	-10.8216105159948	-5.81008307269962	11.8483887764626	-0.991179745368749	-4.40036054702091	-2.87198829495123	-4.68407113543481	1.55875300490653	-0.0315849300059459	3.36202832744108	1.1921449064621	1.66788930188913	-4.70749763526756	1.1591674860386	1.81304943093102	-2.27432964101021	0.409691875480594	-2.46941997691039	-2.85720877811572	-1.39794772058614	0.501414182002876	-0.169985948045476	2.98563920832952	3.53671104334112	1.49961669592795	0.787164438648581	1.2333689419236	-2.44817805050071
"AAGCGCTGTGTTTGTC-1"	0.895119704063168	-0.552095393269316	-0.22374067583863	0.353727468682619	0.252057178201935	-0.0759243532586488	-0.46720797378466	0.458119790697132	0.0895674812366252	-0.449685449392637	0.542769763484156	0.53867223399474	0.105521235557008	0.401235893683433	0.424868737336153	-0.411113069706687	0.22020082706595	0.103772256928117	-0.0105126891182012	-0.0778178039840068	-0.48054601032663	-0.0518903203346495	-0.548401841869383	-0.434418485950588	-0.33547219792145	0.405187395313314	-0.215722262273728	0.20116339309982	-0.140314832382857	0.735111918786051	-0.391822516987769	-0.0222372333932046	0.200259451821477	-0.0986139732420676	0.0709950294631411	-0.408363028793058	-0.177448796921922	0.280787830636354	0.131097792870438	-0.275839386304004	0.627126208729339	-0.0753657970723618	-0.525002447417162	0.00249917206557313	0.913097141425708	0.040085005804534	-0.16652114914875	0.211748201905419	0.593874062041247	0.520207382045778
"AAGCGCTGTTTATCTG-1"	2.53377703776308	-0.717060039323347	-1.00967554811703	0.313421717717689	0.906977875576709	-0.371508505680669	-0.806897949122671	1.04699496615399	0.134231081373748	-1.29392178578131	0.760990141150472	0.804944849135542	-0.363056920233054	0.117558733382225	0.806951633807175	-0.603203914615273	0.549590785485007	0.409480822970771	0.415230709172675	0.270333402284393	-0.426752877954756	0.598201378259802	-0.278131752371436	-0.284631407197512	-0.416054397376722	0.56847207093576	-0.0613444621459148	-0.122461312210434	0.147604865108602	0.325241907525469	0.660218531634698	0.289546981089872	-0.679075932989271	-0.246312102490784	0.0699801856186974	-0.159139822619597	-0.356824217132764	-0.0879420862923169	-0.0407593172103229	-0.643837989939069	-0.0780747786614618	0.194401431328115	0.963535105644698	1.24555583369901	0.594333298473164	0.265051132781654	0.793549023050493	-0.0902793144345701	0.795663109986003	0.0228755796468827
"AAGCGTTTCATTGTCT-1"	-0.796873695786247	-0.314592543597968	0.622097277235225	0.129702446356861	-0.473615701535591	0.107930118972392	-0.278863011762916	-0.324207428683581	-0.349920891964136	0.37237939710493	-0.322855220552262	-0.0124852293106538	0.454747255881089	-0.126693480305314	-0.2473595552101	-0.151720521115114	-0.528947546891922	-0.239618185195017	-0.25432472712229	-0.2324292167208	0.0978493365708029	0.064278892798393	-0.160782814069115	-0.166212857029084	0.170865492732469	-0.21841000297413	0.207937273810516	0.287260566248565	0.0557566636280914	-0.294889381506066	0.0894777600748564	0.100432253923855	0.275198155397988	0.0656016893020956	0.110801698938287	0.0332214339819951	0.195903905441459	0.352420907461889	-0.0660574344562321	0.234802753761175	-0.167394309046238	0.0756648914457374	0.0108933521069974	0.226614389355261	-0.2613434875639	-0.157930550461862	-0.145032576717144	-0.195380382874862	0.0370124805078809	-0.0150097735091851
"AAGCGTTTCCGCATGA-1"	0.909325338745648	-0.604005397572544	-0.384131075112346	-0.0378272928760839	0.45371997780516	0.294651026426697	-0.108724018484817	1.01471031661921	0.150256248874706	0.0271913172410164	0.12037324253506	0.480123092534395	-0.277032565334748	0.348520296263237	0.400985090050338	-0.287198043553567	0.201272315069361	-0.125544308962792	-0.214469732753278	-0.0508498388119722	-0.382366867147833	0.324544811472467	0.532424884000381	-0.367747155098488	-0.942656550200774	0.308283672087265	-0.585053998193445	0.134218601863706	-0.249238358644565	0.34689380333439	-0.692805183030198	-0.523585657773918	-0.106463747053874	-0.16131705594923	0.480796367835228	0.727626922622781	0.635477126632781	-0.632752896059385	0.253146996891286	0.404273328059224	-1.10476105757759	0.484291364966832	-1.0625297291103	-0.653597329709991	0.988975890650602	-0.760008902228134	-0.74731188251882	0.282624070792273	-0.628579471604791	0.222507205430444
"AAGCTAGAGCGATAGA-1"	1.10064704887611	-0.53579644928445	-0.643396410065361	0.221615060994387	1.39653010215	0.513622771103185	1.16707539442479	0.293186601054023	0.208233961194134	-0.408752180602999	0.629294629004987	-0.77731505873591	-0.598527557833321	-0.265993852517619	0.309347681012379	-0.415893307007418	0.501477914259035	0.283663923108555	0.814002107616891	0.37276981365019	0.135247446298474	-0.492477165885331	-0.456619286789464	0.752374514643705	0.18513403857727	-0.0782244695600899	0.533910421489891	-0.352241756420598	-0.213250632718593	0.335482185225788	-0.257680448492754	0.0277300747975066	-0.0718537476671834	-0.223317459174476	0.480054465257146	0.108401331792312	0.0592156291669714	-0.449737791913194	-0.46973116761441	-0.00123559383728694	-0.390935100263398	-0.808931223557708	0.196838594704356	-0.115113092552922	-0.926530658936594	0.265760496332882	-0.279304300830626	-0.369562387338818	-0.0714372130979626	-0.237299801957789
"AAGCTAGAGCTCATAA-1"	0.898321473515958	-0.536687875555396	-0.2114186181928	0.243699275424137	0.180835196736354	0.143526397714879	-0.33029150048124	0.407247056356978	-0.225702700865275	-0.421615797284072	0.331456498240155	0.0115956611159193	-0.622981675529311	-0.161137849979017	0.0903956157620818	-0.294436444838256	0.767064156900577	0.604824945701023	-0.0477487518239219	0.11998663155365	-1.11076064515542	0.541412610738575	0.124214331722024	-0.287092559525133	-0.500848140432698	0.100833300438287	0.27681495475462	0.21867567214175	0.260192651633999	0.412683799043069	0.0246616166916782	-0.206634235728268	0.0322775230262931	-0.0975626750582078	-0.0291301203510156	-0.098243416433556	-0.270188928209313	0.0197081783491198	0.362717308003984	-0.25924811886614	-0.531481678171095	-0.457992714063288	-0.592104852922198	-0.0684480801195241	-0.259914700550991	0.274406036751475	-0.62386835731239	0.458988663873459	-0.579902931461053	0.259011866617826
"AAGCTAGAGTCATGCG-1"	-0.440534684342457	-0.327732291144985	0.444191587963947	0.00385767078481601	-0.436079806033386	0.0104128645208014	-0.105459269774461	-0.0631059310795352	-0.138877756743583	0.210627222832641	-0.797374995028767	0.307725227844079	0.0675534775940796	0.0295880312695486	-0.286031051017113	0.182444155077758	-0.633948943495557	-0.119512116827461	-0.561969156228708	-0.0335540593457164	0.220201259734993	-0.149686305296587	-0.171797880310297	0.164553151189217	-0.127038288827582	0.524742801761199	0.00952924486970656	-0.00976220359762564	-0.0155500610217024	-0.31789899947797	-0.590872432102398	-0.183134267594549	0.274187195773885	0.0575004436238084	-0.411046582519419	0.227135734812483	0.198096361437352	0.0995073952829204	0.152497804799837	0.353764515534712	0.148893982981818	-0.362845039176587	-0.246566331773064	-0.183862167383192	-0.254229659770031	-0.657112792043778	0.373036776202792	-0.382625018164367	-0.318544667807169	0.278906593700302
"AAGCTATGTACTGATG-1"	0.15987763947435	1.66725481969108	2.51324857004961	-3.91952520500686	1.58185172524728	-5.21952318702094	0.103977012255121	-0.0846613794973751	-0.259455167775612	-0.194905788110794	0.455898823467761	0.293301132154982	-0.558656909700387	0.362659116606803	0.0183043594854485	-0.443959931274822	0.163558361114469	0.169904774379609	0.486645166975024	-0.373431576025703	0.498954175934769	-0.0370486186404168	0.0956030199830754	-0.037077119785889	0.361470412283615	0.573903801536857	-0.146637208277108	0.0835725598576867	1.82390106398795	-0.457997129073026	0.255989064256697	0.334397524351638	-0.0803855950304681	0.387116346886614	-0.892765068562599	-0.500446732275968	-0.506455065629978	0.0670984277976399	0.143197911422197	-0.243097929473232	0.487844287373327	0.257766851550242	0.349492562897666	0.0033385322597694	0.250589986304688	0.540630595768745	-0.201159106885392	-0.327904484247139	-0.0955363101343487	0.104963665888066
"AAGCTATGTGTGCACG-1"	1.25808694994777	1.02093316136231	-0.32971351815214	-2.12175506293411	-0.559062898529378	2.21292867466329	-1.04798570056366	8.75002845198323	-8.45878311760304	0.950397772731038	2.21398066259502	-3.04730511708739	-0.609135455814608	0.78955729805354	0.417298679154486	-0.366117332643719	-1.12946382155467	-0.88413917337872	-0.185250468502288	0.11665632760806	1.25615464408909	-3.1856979715361	0.77779526899461	0.222444599944293	2.43638347159401	-0.115530181944979	0.704489663381283	-0.712385553803122	2.04063764028439	-0.351909081947664	-0.162659610787368	-0.743524956284615	-0.224146873399442	-0.226442239249627	0.398969666127055	0.34047873343406	1.09778804580555	-0.245322319863878	0.42229392363278	-2.00332962144258	0.157924091993534	-1.32077504043209	0.236649743368886	0.942171749516085	-0.68451225305934	1.12012207432839	-0.354142167657825	-1.2132043119781	0.558200099894618	-1.55505051779278
"AAGCTTGGTGTCCAGG-1"	-0.272358518915718	-0.455900355836261	0.412332829632095	0.419945062934893	-0.0457247024837002	-0.190326716437887	-0.404561352540255	-0.5279410059515	-0.0438650452729853	-0.016820387322786	0.0224127831344184	-0.014201852795148	0.310387631735319	-0.301499961541168	-0.207225026304552	0.119838479710959	-0.0701980259996986	0.35009205221215	0.04125561244888	-0.137605296928426	0.299680345704724	-0.208878185188251	-0.123799666869365	0.244741154730793	0.221292633424632	-0.430392524121189	0.02785543045238	0.0231058165080954	0.280809127792475	-0.521387013770909	-0.00466171451855317	-0.286296403501816	-0.267789041459504	-0.0763631926939771	-0.239050475756259	0.102480671194533	0.344311393575921	-0.234090812664592	-0.00161310191342628	0.378288963453744	0.172121084748106	-0.127274923370106	0.00432646749513319	-0.183677180416952	0.015355189575214	0.169548952803044	0.0188330944060809	-0.173557415572089	0.142749172534339	0.28481506512878
"AAGCTTGGTTTGGGCG-1"	-0.179881696022709	0.154665768192161	-1.23057565950065	-0.355603753915556	-0.676601119283066	-0.175137300179636	-0.36552246701396	-0.973406982384344	-0.860169713983192	-0.311346409649615	-0.427193555066205	0.760517490065326	-0.728317038590372	0.388339759433178	-0.642491714740635	-0.668371425302489	0.372589599952727	-0.940650833927691	0.0915146198614477	0.791886652195879	0.647183307249523	-3.73898058491517e-05	-0.345887752369023	0.568792299873757	-0.184319287564049	-1.27740562211149	0.136363438269163	-1.23414934531803	0.337407470691771	-0.251980288444782	-0.688281292955941	1.03208992779774	1.40832555324376	-0.111042991557737	0.910659776746449	-0.404166791247185	-0.272059770934523	0.263036745295146	-0.630979762660337	-1.16602662686357	-1.32554050007034	0.307159078849327	0.680498346930276	2.01838553826274	0.41640491675765	1.80876803662067	-0.00180906769864258	0.00485498304105653	2.44194307480256	0.429355929923092
"AAGGATGTCAATTGGC-1"	-1.47261254769026	-0.188330748206322	0.118173344088994	0.135989132982846	-0.124516700837706	-0.106893316729756	-0.017128879936566	-0.282079276737369	0.0448548944992894	0.102929880562711	-0.181309051718796	-0.0631066076181273	0.119153488091784	-0.0631499481159676	-0.0576623482983874	0.155435315851786	-0.178070744277449	0.156825509322444	-0.189516489542827	0.163661876979442	-0.0131101620797582	-0.0157688254530189	0.347183216927972	-0.0447576033082537	-0.0632924685021214	-0.350345250159545	0.212773259284667	-0.219658681615759	0.0470371453055234	-0.10583870215642	0.0908000889142793	0.00843354072462963	0.188295163627085	0.258883504606936	-0.117998618925439	-0.0675930662826825	0.112074119043919	-0.079382236297391	-0.0142605801377717	-0.351574293799398	0.30026768417827	-0.219639760549259	-0.148692809442244	-0.250109896407274	-0.218989745296794	-0.161520934142315	-0.0423411472065185	-0.0995624278219727	-0.104778169875822	0.11219290563253
"AAGGATGTCGCTATGG-1"	-0.202293390288282	-0.319832679254878	-0.233072356779477	0.162723606689416	-0.155537804410576	-0.246018651877665	-0.182588374938093	0.439278647701092	-0.0534371113924334	-0.126259299821806	0.158453249362147	0.0860309327919564	-0.37735723012773	-0.0951055875305393	0.0951070520690847	-0.184608759594244	-0.365220273473259	0.180591128512487	-0.393429362989182	-0.233330927874455	0.0448492782242087	0.0875916982849467	-0.038629433906591	-0.268697950801699	0.123854908562183	0.210693708665238	-0.0510090081780041	-0.328371679766093	-0.514597596488912	0.244973013562452	-0.0147981436768659	0.477758756020342	-0.0482926532528508	0.0616631504165585	-0.2295628124716	0.155256655316402	0.677865101061908	0.021973714373696	0.080883658699591	0.286428918246068	0.0254357221086689	0.388820866103695	0.199122611232339	-0.434834950171927	-0.136541601991757	0.056225920587567	0.177033541842088	-0.481035609930907	0.13016073137382	0.676325133865689
"AAGGCCCTCGTGCCTT-1"	1.81270341471904	2.79515622911441	0.850111897436437	1.29383547304825	-0.542157349370196	-0.352739152959387	-0.250480300192277	1.21432827032659	-0.657997893832403	-0.286690703008235	0.289172312217736	0.857564908222229	-1.62856312643173	3.59581694645588	0.641799860438066	0.969788701072733	2.47044814215295	0.909263764521744	-1.2389616684622	-0.449563725424033	-1.88565308605336	0.497273386658899	0.578029901464755	-0.398138587599872	-1.35783105061366	0.731609955781388	0.424145444615216	0.171977663959278	-0.0192962850813885	-1.121168754928	0.504561354154571	1.00267017239466	1.23060427536883	0.840990187139753	1.44788287848777	0.0320107155742628	0.186722402031623	0.578257207524353	-0.0815232268851973	0.225205709000648	-0.173371087459978	-0.0938366587076983	0.614468403738279	0.335264230409687	-0.519960439710969	0.304935765092406	-0.717081083560505	-0.513016327394654	-0.199952153221163	0.0198621575488838
"AAGGTATAGGACAATG-1"	-0.490357449324382	1.26305967190469	1.70040600227431	-1.73317658560534	0.289084275385888	0.608251204600446	-0.161431771301598	-0.287457423252295	-0.435910301508927	0.676822767332191	-0.323271516128593	-0.348634396884356	0.189926081297483	0.114294458509949	-0.340992472321798	0.120488697481715	0.402179099694955	0.523258703092246	-0.30116571502445	-0.0841691450096829	-0.866826977189154	0.287202522472717	0.140540504560441	0.452266496800422	-0.794324829165845	-0.517794909587087	0.100419057309656	-0.0287965326411458	-1.81766555993512	0.00526005238027322	0.35005452207236	-0.899404013574353	0.0344848842810391	-0.885757481008463	0.425105305787991	0.176551073958838	-0.0842755347921761	-0.0489186178783373	-0.0742003437416568	0.729766374264879	-0.27637894889363	0.151871497319702	-0.169374265408828	-0.131901225001624	-0.361503099770533	-0.851368814927145	-0.36619501136581	0.46914346641765	0.264311082282867	-0.216261095425982
"AAGGTATAGGACCTTG-1"	-0.4333251931665	-0.353813033959922	0.227063313645859	0.317433118968449	-0.0350153773233302	-0.0473150638579791	-0.277348061388276	-0.248651229616374	0.0640896226067271	-0.292188087223277	-0.0559801260809709	-0.189803234795961	0.176634574467039	0.226155245949549	0.11493213329274	0.240985553000768	0.250988077005322	0.0308157745580261	0.198517523593951	-0.229286267910398	-0.0504018391193806	0.0742248299422814	-0.0229466940736327	0.00764526517079864	-0.0172558197360945	-0.00818703071998867	0.217084431853147	-0.0294605076442938	-0.0780536309276257	-0.0806840720525468	-0.117502957269395	-0.170982764670012	-0.182629419791768	-0.133717054112203	0.191359212825893	0.154527131336377	0.38754851060425	-0.217080124494036	-0.364602098678067	0.163825512359841	-0.552349962738867	0.313333809732375	0.401148843169942	-0.140748740975893	-0.270710448392017	0.0550912906792006	0.0964609944639762	-0.570046027288349	-0.216760054126221	-0.580209020643794
"AAGGTCAAGAAACTGG-1"	-0.454708219178366	-0.368018169453401	0.305506899169993	0.219036027575364	-0.236274530719189	-0.0186850760590839	-0.275999305620619	-0.283649112350896	0.211240072171273	0.241085610207517	-0.436286341846724	0.13435254517071	-0.0433682956823417	0.100049604145199	-0.123495717461578	-0.131440046873714	-0.178732085674862	-0.263559318843479	-0.214207115005836	0.148443551225919	-0.0774474176920042	0.127578307356515	0.15721203241887	-0.131904884888343	-0.0470500914522852	-0.385561247647836	0.118672687399176	0.0940231410676123	-0.242864714342959	-0.0911424114534207	-0.14222130080016	0.174172124852608	-0.0633069540835619	-0.00886779901114714	-0.236054033109278	-0.166026826842895	0.180353971592261	0.108881994062877	0.0206957051557543	-0.0452285497200704	-0.418692427480768	0.366752743153857	0.0077769070463308	0.312526481781762	-0.211296781850321	-0.265892103579295	0.266250196544907	0.210599472752373	-0.251161846021315	-0.0579486668561634
"AAGGTCAAGTGATTCA-1"	-0.889993545322202	-0.397139971886181	0.32177285462406	0.306961276950839	-0.30127121227141	0.0472241731466174	-0.20024355827984	-0.0707562026856213	-0.0871038570350155	-0.189982705910018	-0.195817041728742	0.0334969846521849	0.154717111343193	-0.0862180535514476	-0.122623372377682	-0.0480507574165921	-0.315815549567339	-0.225130254786989	-0.184212668964069	0.181071709084915	0.170304417292614	0.0120082365001244	0.0847478854770471	0.287906384033008	0.270586447371407	0.0978177705546854	0.0445066437409419	-0.179039113269792	-0.154477996919107	-0.106997575669654	-0.0654819604456559	-0.227498064113565	-0.198431135155395	-0.0624279720180353	-0.00980649321633238	-0.195348257982441	0.0447556673666629	-0.0446500775590717	-0.179072089997188	-0.157444768523699	0.0123786778364083	0.138879900183346	-0.0756812392324395	0.204301639876003	-0.25604191374444	0.0720388519479974	-0.313157456684517	-0.0847217878768767	0.162500360161635	0.0799216928243553
"AAGGTGCAGTCACCAG-1"	0.835134021550036	3.09497934676639	0.593903412696944	-4.13456181798353	5.2300758608112	9.12457145498881	-2.71211811574313	-3.89184516702757	1.87573322023353	-0.172864386189291	1.00313706911069	-0.427723810208865	-0.450562101877504	-0.800072752855096	-0.0337108505173345	-0.989006713790872	0.526586791822564	-0.608840132324578	1.29605492619073	-0.400663382638215	1.77799001304793	-0.139412990276868	-0.40559019562771	-0.266620982971927	1.21600883459672	1.50920264779397	-0.52276401197829	-0.143431914583003	2.95660829463858	-0.559828969854895	0.29663321322036	0.160843488168026	-0.117561842198726	-0.0238794581485529	-2.31938091475659	1.61383786412652	0.162993905215247	-1.41306801518429	-1.35505888013238	-0.671893122730977	1.10821819731886	-0.26159324021092	-0.72917550216439	-0.391046227309912	-0.488917772533833	-0.146380526510611	1.73386007482801	-0.586874954024923	-0.0860231638429945	-1.07383455094317
"AAGTCTATCCCTCAGT-1"	-0.590565029403422	1.43956334479816	-0.424151661258533	-0.142175546007285	-0.451529732865108	0.120731211552042	-0.140319260674146	0.111297136502607	0.410519227313319	0.641197524459231	-0.73407967965114	0.083197836624509	0.48448434873468	-0.00392941555473241	0.119094912345381	-0.271012914702206	-0.661043384222624	-1.7129596116871	-0.594868916821253	0.850734694711561	1.42015050989682	-0.331042736441769	0.159707287451456	0.0530204858940769	0.362942006941695	-0.203300002314108	-0.341983838379209	-0.731412236015615	0.237260389438535	-0.0627704847602671	0.299484611929184	0.516079878322921	0.00360075886327251	0.222075846650092	0.547380152844912	-2.42436848416689	0.276865546117137	-0.357844315658252	-0.740784236975923	-0.83304034531487	0.0825218923844474	-1.23423854589789	-1.32402271217623	0.160313611796137	-0.450143545597217	-0.867173604101905	-1.35664597711837	-1.03674676880178	-0.608437673098213	0.862716372783742
"AAGTCTATCGGGCCAT-1"	0.44802991152282	-0.438801606569735	-0.316264935289856	-0.0343408791507641	0.763319796123214	0.230771605953393	1.91105235448389	-0.751164695130526	0.371104200963316	0.545339772230128	0.0504539328586756	-0.885505996375174	0.309583291904927	-0.149999917679197	-0.299016573987326	-0.10016531874668	-0.731201868937516	-0.049795175599644	-0.398730469570524	0.0639245486749998	0.640680186204987	-0.770339725582581	0.1194591074894	0.294006000776375	0.52884061272016	-0.645982147651129	0.36078579087343	-0.540187379931866	0.728583229267038	-0.458206382732043	0.130339411230481	-0.107746518120081	0.0305993059713474	0.298119466200421	-0.0227996178194242	-0.398394253725744	-0.0941436414152077	-0.722646349776102	-0.0687934664046092	-0.44426037460359	0.307392382060111	-1.20532501399959	-0.352221965837719	0.440409796118727	-0.459675629796759	-0.278988360365316	0.118699978591628	0.721942348275772	0.544668126630574	-0.169469721054291
"AAGTGAAGTAAGCTCA-1"	-0.197644989940591	1.20521687123307	2.69517558005257	-2.34430502567448	-4.71127563792527	2.33809204109686	4.39823291337211	0.176138646342647	1.49760527343848	-2.152220222051	1.34914022270257	1.12758429135026	-0.00296527777988031	-1.3896798335517	0.341732800245138	-0.235896050455747	-0.30289568617299	-0.41907714490676	0.722733321642513	0.64657224726712	-0.0619612843449696	0.343527388411838	0.0605295370857541	0.0351044261712685	0.181722915615951	-0.150541760592791	-0.449130658382109	-0.175272386953228	-0.206205384292426	1.2709407252854	-0.21669747628237	-0.112453829322303	-0.991858774659308	-0.542736086384263	-0.329568683052327	0.477158242254487	-0.274489119341508	0.132559895603983	0.06950180279704	-0.420605091173756	-0.514531328374001	0.721758438653324	0.041033031361869	0.153045250377599	0.700283672189647	1.15143368591943	0.324046006646331	-0.0552325914685822	0.770061953561949	0.449934869787868
"AAGTGAAGTCTATCGT-1"	-2.1452247738954	-0.103598288024231	-0.0670751259918492	0.0833040174604396	0.0554918086933657	0.0194999097454059	0.0068294300158035	-0.0578032913764788	-0.146893484663905	0.215397315756122	0.0299452538428033	-0.123462206008388	0.0416042578154725	0.00354418972202235	0.0844123023965881	0.161213904003416	-0.00249554745159967	-0.00979005366333613	0.0952048741194343	-0.0404925426489212	0.0678172984394034	-0.120322550046676	-0.103133793941986	-0.00173467010667069	-0.171678123883809	-0.060665591187864	0.180341100309321	0.14331373439256	-0.0758380385417925	-0.175609796317349	0.136204360756215	-0.00467957334453596	0.0837330081112834	0.202225417913892	-0.216841443268162	0.0618935799165349	0.0239388539669467	-0.0456389689436001	0.0187616901838639	0.259992189810443	-0.0489679999114925	-0.0806382795009809	-0.255127950608254	0.192349792834396	-0.0206677513594569	-0.0810100032216036	-0.138121433482698	0.00374330136973778	0.206008642113011	-0.0449410397685411
"AAGTGCAAGCAACATC-1"	-1.52760656589826	-0.201700252987119	0.046574010282198	0.00678179630329276	0.100617686776462	-0.0880650570183807	0.0465110712238489	0.0823588364355739	0.2433434386171	0.294878608417312	-0.683070655098504	0.0203431550360734	0.155946050684034	0.000560858007227636	-0.186329535142225	0.400400361340111	-0.262392814313403	-0.480938962016405	-0.290876532161615	-0.0285407667546082	-0.111262366579377	-0.0779355354249239	-0.127520961127075	0.0352769699709437	-0.170457871536031	0.325776263265357	-0.230426944880946	-0.00219937292237033	-0.0963500094504935	0.040226323085616	-0.232224227575408	-0.125627895624136	0.0827390394240036	-0.180941694271772	-0.249138913388122	0.210165101436508	-0.24066077503254	0.0943009537260226	-0.154061298794588	-0.120728776879781	-0.0223466906759301	0.12523852336437	-0.327527538768758	-0.353525309435818	0.20323588891261	0.0814147936015535	0.0488739459599468	-0.0302037359547434	-0.257950805639085	0.467108429880318
"AAGTGCAAGCTACTGG-1"	-1.77303674249705	-0.107081483139765	0.425631747512577	0.182514922439556	-0.433014985597934	-0.0522512629602667	0.0161097020289198	-0.325417481526736	-0.0775246100603979	-0.00224195672107848	-0.0481520383830945	-0.116906275036866	0.137864267149217	-0.0343066955971374	0.0109186767464777	-0.173882960483611	-0.0541283470086764	0.0773312991309153	0.0896997463017856	-0.119349631482515	0.073830995813207	-0.0310197210862428	0.0774898251291024	0.0191280518811809	0.260001208044217	-0.252794195217102	0.13923502648308	0.103888896975993	-0.064127804287716	-0.199116681715152	0.139817361038571	-0.00380517115719432	0.1641770749204	0.146136663274111	0.0145671290953448	-0.163293352722207	0.0112771227181411	-0.0635591880209061	-0.0213420640565492	-0.080262959793852	-0.188111607879275	-0.205436579514092	-0.14875951423288	-0.159185625365334	0.0107837983923324	-0.106275547243319	-0.128934253874862	0.0581737275699854	0.0168210525636327	-0.1123661627956
"AAGTGCAAGCTGAGGG-1"	-1.12193867775934	-0.18634226276044	0.461037983844773	0.26588004478112	-0.420845989246273	0.0462232968198321	0.449331410740866	-1.08808280812577	-0.408202187352612	-0.0849344641900486	0.76544972351221	-0.505433692822088	0.363657752588072	-0.216552709735341	0.262812469331056	-0.385093005953111	0.352428031604986	0.321676839417417	0.0624159826659506	-0.450820639247483	0.273220348555729	0.00977551499174694	0.0647918863345837	0.224305298788331	-0.0220418132925766	-0.64667085562562	0.159411910201567	-0.000546867475052253	0.0402176805629088	-0.130718130428707	0.0801913814890032	0.065534667286937	0.330690376914016	0.217185884822665	0.0337166292038945	-0.0551339062124036	0.265486486425596	-0.35003558003331	-0.0547787106998007	0.177294011998915	-0.454887370055468	-0.0233712617774968	-0.244061189402787	0.195143978160556	-0.340276376706236	-0.332217401249889	-0.216860234096396	0.115084225446998	-0.079335019941372	-0.28754386233405
"AAGTTACGTTCACCAT-1"	-0.86506772387765	-0.238581083555481	0.176756181441168	0.256027297490437	-0.258320875954027	-0.180582506099915	-0.533386897216949	-0.221320446996329	0.0965450648447934	0.300016352758645	-0.363116869487736	-0.114076749194404	0.287774042602054	0.0839943509526769	-0.123465385325845	-0.0702196572687189	-0.643186499964234	0.0049994643026854	0.0853191662251758	0.126467440174183	0.241069820491548	0.062346779976352	-0.118092869291726	-0.200880920372294	0.171324412795335	-0.112036540486543	0.111454870279446	-0.149418649322539	-0.166412136891164	-0.154159025357676	-0.229722834624254	-0.0205981740994283	-0.0484130803692185	0.0476145760934991	-0.229520592812331	0.045690746648183	0.245343006687365	-0.101638408259918	-0.0688801166644967	0.130546560805024	-0.0597752126314694	0.0328033632583608	0.0749170617744861	0.367827962873596	-0.1450481171965	-0.13135433204752	0.333008815558638	0.037986901380001	-0.0492104282849335	0.106334645997466
"AAGTTACGTTCACCCA-1"	0.273736526589418	-0.395516251438956	0.339207911874056	0.580371555259338	-0.0191379111145263	0.207458029217843	0.15264601327683	-0.98172181045099	-0.173966410535525	-0.537662869796476	0.715938978606261	-0.524694202549303	0.229588889964021	-0.316322753901063	-0.12625722628863	-0.614825098814	0.468997638130054	0.0514104640608481	0.647481972878395	-0.0414101776389459	0.18834258731612	-0.192098198102448	0.270999921079307	0.0166631942584704	0.259223693120069	-0.968688863007598	0.355321964128898	0.223646178271753	0.182346109748568	0.205704607624823	0.404358520072642	-0.174805366930988	-0.201395725902364	0.039456853855024	0.402755761558628	-0.818213690821816	-0.138614835341919	-0.243956527851357	-0.239770917653905	0.125583366408511	0.070690468110067	0.283024439178043	0.302318009284838	0.426167121678318	-0.504343726368203	0.849956591174368	0.23932141583066	-0.226231045073713	0.610529259652307	-0.76694390204807
"AAGTTAGCACCTATAG-1"	0.683426764871968	-0.551336390078376	-0.0660802367234199	0.486450591223838	0.281852767721692	0.0119333693679435	-0.682540072409327	-0.0723479484616134	0.00941674245737086	-0.399876671719007	0.603258137550668	0.240477765260557	-0.1312931139608	-0.276814577732451	-0.10288418327036	0.00767844693500749	0.655835500742524	0.331644214706279	0.36595966678137	-0.14917575387783	-0.220675380377994	0.0956703843667974	0.0130592830547304	0.14561332746854	-0.391124458850646	-0.0372884993837013	0.0872197058915694	-0.143291804256676	-0.124446767526186	-0.153541812538184	-0.282226348000453	-0.0789678165983789	-0.313896839858966	0.178589869386115	-0.350872062923565	-0.535422158315004	-0.0105997432285468	-0.0876238077649395	0.109825411064017	-0.152249522578804	0.272940698188953	0.412220832120992	0.232098189820097	0.339818201039176	0.135924082464117	0.0372578526726127	0.587173013468058	0.194957390488216	0.0555658801736597	-0.428416867039158
"AAGTTTGTCCTTAGGG-1"	2.30797698064561	1.52164177449348	-5.80432824508691	-2.6710728969836	-5.42926937988515	-0.905733987205948	-4.73520566698735	-3.85830739482317	0.546259909276586	3.7686735814646	1.36864003633507	-0.0707627720282568	-1.11400588415572	7.38075569989681	3.0300200746427	0.893929523618467	3.04448738225238	-9.19475396576319	7.3020039206436	22.3730313679204	4.61820863473117	-2.83877865964947	5.49242567123888	6.96978553542464	0.391039931935199	5.39303930124362	12.6835733718742	-8.73712024708413	5.88917346701956	-3.42046671262524	-3.28822044598259	2.25131581118271	-1.15809873140445	-17.2290106611704	5.050618914915	-7.778818984831	-10.0647343147227	1.43435939184817	-5.47412841248004	7.42205444138896	-1.32821597924913	-10.1049537621161	-1.94021739098264	-8.62693095655296	-4.57535821170968	4.20617368131448	-10.7945010949912	3.24898907198146	11.1428264272985	5.66136023458573
"AAGTTTGTCTGTGCCT-1"	0.517479095385609	-0.5648238371956	0.334138926203516	0.283701413160371	-0.0570786362740247	0.0724108525485446	-0.798330847933253	0.466485048016276	-0.439040351872442	0.152684667581351	0.222393354845816	0.446608012175375	-0.126151636036116	0.271044947431369	-0.187195520494597	0.14282314021072	0.257651232150004	0.245205619758917	0.459164927816809	0.422612837293883	0.177721975309239	0.351179645675734	0.220831543733123	-0.0462607318019394	-0.1900509414264	0.369740532940469	0.246554003450636	-0.0832306386409362	-0.210369935569002	0.333013115656729	0.0780505562672395	-0.385755783616314	0.205824699970859	-0.0768369319104907	-0.428279069175357	-0.279008131404994	-0.260441020190536	0.713711517519742	0.362666575316186	0.129039467384139	-0.238284078675838	0.21436267728486	0.0370312421397122	0.826623234785868	0.157491290826256	0.333782156343794	0.734244791851023	-0.47314489882348	0.166698104764337	-0.120349042056734
