"LSI_1"	"LSI_2"	"LSI_3"	"LSI_4"	"LSI_5"	"LSI_6"	"LSI_7"	"LSI_8"	"LSI_9"	"LSI_10"	"LSI_11"	"LSI_12"	"LSI_13"	"LSI_14"	"LSI_15"	"LSI_16"	"LSI_17"	"LSI_18"	"LSI_19"	"LSI_20"	"LSI_21"	"LSI_22"	"LSI_23"	"LSI_24"	"LSI_25"	"LSI_26"	"LSI_27"	"LSI_28"	"LSI_29"	"LSI_30"	"LSI_31"	"LSI_32"	"LSI_33"	"LSI_34"	"LSI_35"	"LSI_36"	"LSI_37"	"LSI_38"	"LSI_39"	"LSI_40"	"LSI_41"	"LSI_42"	"LSI_43"	"LSI_44"	"LSI_45"	"LSI_46"	"LSI_47"	"LSI_48"	"LSI_49"	"LSI_50"
"AAACATGCAAATGCCC-1"	0.447843252096945	0.469264636211016	0.122668879732998	0.403420052866869	0.17966752549681	0.282864036561964	0.256687015256824	-0.872256722786609	-0.736548507294137	-0.66333646485458	1.28337870105474	-0.1533372927334	0.339122189795275	-0.288074464975092	0.00473554932013528	-0.149686229161926	-0.150619901724578	0.891067969649421	0.200589759538172	-0.41282382068634	0.557642010230204	-0.188469861796942	0.591718777279373	0.43042858178299	-0.0152150564397757	-0.381188085915261	0.654433489713151	0.205481702825281	0.285841443961767	0.226609913229441	-0.190060611830541	-0.53213750294239	-0.60758496935096	0.336929572967138	-0.279977053905411	0.657475386920424	-0.666737610181808	-0.141940248401559	-0.277824216596885	0.18003717687667	-0.54350838654713	0.151247723789237	-0.50476110454608	-0.696523359450089	0.120999268110904	-0.498388813939749	0.351159966154995	-0.591530709225005	-0.212970279370729	-0.347625523388882
"AAACATGCACAACAAA-1"	-0.915707685862771	-0.542988620174277	1.09701228097474	-1.31366677338197	-2.48037258705118	1.36715217940792	0.516732138646191	0.537897575162539	-0.0562209311140768	0.397618855103173	-0.634217754047917	0.19963287543053	-0.142765600833729	0.563071007665867	0.150996872377526	0.341883515806838	0.177193254750672	-0.317672850408683	0.106739432779803	0.359103131136632	-0.288386783229133	0.0334749690040544	-0.313550122032168	-0.0248841233038205	0.146399188212542	0.0740526658616756	-0.248165600914059	0.168238635211757	-0.572100227087116	-0.368780140076076	-0.542721051065707	0.129156475012028	0.23742566860408	0.0674038975606945	0.0153471867707253	0.112933450485088	0.00170859108272308	-0.406732025077232	0.651248446110212	-0.101543922012656	-0.42642326369996	0.0540682136452279	0.517135377067389	-0.0899928273928495	0.343462427802695	-0.257144994841452	0.536713741292868	-0.178152072978494	-0.48688214443845	-0.0653555205338829
"AAACATGCAGCTAACC-1"	-0.67061744959503	-0.413635148138588	0.651668264460198	-0.467175939090807	-0.828990340412829	0.161791757518868	-1.05464245742466	1.93675046347608	0.264499338711737	-3.71445059670874	0.148605817688014	0.544948175958618	-0.0541822632677208	2.40159815862144	0.041368595124548	0.570803699056809	-0.813333165975016	0.0745172556552457	-1.03102380711011	0.0653457918870394	0.189559864599388	-0.826802475905156	-0.88249526031886	-0.308574997801659	-0.00334518432046563	0.104268559371954	0.684401983565349	0.150004158100153	-0.489450000205703	0.0345632064474111	-0.0700645674854293	-0.143975904224208	-0.00195056409427484	-0.514989143407884	0.368859826187326	-0.284084151046936	0.0322407260480467	-0.494259559904831	-0.107900354829521	0.716037611864731	0.0322944411619281	0.00457341365542222	0.594411946047065	-0.10159754414748	-0.307253483371464	0.429933618777205	0.0220647349429539	0.183055406736062	-0.219535758291208	-0.374510844819378
"AAACCAACACTAAGAA-1"	0.0915054670328957	0.582330479890978	0.213857175539961	0.214795864473012	0.0358628922837539	-0.0036506434928878	-0.385884619607694	-0.00801376506581465	0.392170938346356	0.531729304148323	-0.611634481359537	0.0155821843542493	-0.0670743105721367	0.258231203246969	-0.152067263571615	-0.356830439810165	-0.308184854998222	0.148502112907139	0.0314387475349897	-0.197132024330152	-0.353815217954031	-0.0410221104451633	0.605550796346531	0.557749372739275	0.274769332446599	-0.0924243335572343	0.111626553551476	0.34749340022424	0.0738765354002279	-0.0810728555446368	-0.111602154189253	0.135383984874125	0.335420518340634	0.252745991988203	0.323361732733756	0.56904862947716	-0.285863323195687	-0.267792846109494	0.413520531790984	-0.309965427311341	0.0678950936892798	-0.141927617352259	-0.43092116844754	-0.595993361185203	0.46929695027693	-0.522367309435443	-0.121352374214724	0.197851947979932	-0.100328254940027	0.142887906172758
"AAACCAACATAATCGT-1"	1.14389189284165	-3.92634396598244	0.566435539717754	2.56331490988464	0.883343861149046	-0.416727194017919	-0.14070467289434	1.01687020083821	-0.1821324714346	-0.9357129263462	-3.29330044372363	-2.86423180511464	3.45279857137176	-1.048721678206	-0.591082957508967	0.516877075604104	0.17724233980309	-0.712477536483056	1.74798044561075	0.197116832019589	-0.822462143887896	1.2994787594962	1.03413833017496	1.5622855000392	0.410758779373624	1.26379716411973	-0.930759953385681	-2.4115695451564	-1.4057575204227	0.270445193249587	-0.290928199757366	-3.99114921950128	-1.73207602213013	3.17291003570463	-1.14877816354543	0.405890121160045	0.178977249712624	0.242562875441546	-0.966999017456486	1.53047782633878	0.670174271912702	-0.576333311640284	0.0450534970817396	-1.01891447644117	-0.413327264935122	-0.0628893558650206	-0.53157104689283	-1.34177076512817	-0.421737451779251	0.126349660163968
"AAACCGAAGTGCACGC-1"	0.5275510746411	0.218099025051013	-0.57868373515051	0.123397237678865	-0.85013917817938	-0.732534593536567	-0.674976415248625	0.135441149776263	1.09825541715264	0.908782137867722	1.10815143128898	0.252504631291059	0.466006801281181	-0.133301841530294	0.00919229664743412	-0.337567363167154	0.0970559299700062	0.0683888261592319	-0.42119185677998	-0.255783448969573	0.198038891522674	-0.384266814855664	0.163792613816123	0.101864336840697	-0.380954606165833	0.859569485792643	-0.467033100013456	0.222833741306306	0.445745692603473	-0.288484648397655	0.335486458476984	-0.0575815920694712	-0.322266220280587	0.295385507379508	-0.667288344473444	0.787305048407011	-0.30934129007919	-0.319993346323649	-0.0604620655909877	-0.836601183644379	-0.0677894145736385	0.0433665892331413	0.756026198474988	-0.333548727554427	0.2737723269633	-0.0763573197897594	0.237361659896031	0.885289163576171	-0.711642441795443	0.373266847241218
"AAACCGGCAGCATGAG-1"	-0.900431971782487	0.349491030979793	0.381184263718677	0.346476529574915	-0.289150656648346	-0.219646369270729	-0.257305651330865	-0.489739357143852	0.546600790423784	-0.354542963131429	-0.110905589834467	-0.150516102014724	0.120503114099511	0.518281605961764	-0.222584786054019	-0.331774466267353	0.0898936865225279	-0.168320531899231	-0.0489848540115833	0.174061283203565	0.189586340470008	-0.316604951185795	0.161530902351533	0.184394722172794	-0.360090200405217	-0.131667979220133	0.38004958104832	0.188940576004412	-0.0913827834371051	0.0557682882865874	0.129796868582389	-0.13076338623257	0.0648222227889651	-0.131063940577895	0.103945915296203	0.138275984186165	-0.580686241816857	-0.21859515475029	-0.188783931965873	-0.228543713825638	-0.146790944181283	0.106657485489937	-0.241358316753088	-0.024800641783874	0.418029596231068	-0.322552236287518	-0.105095766064344	-0.147548933160856	-0.261732129911165	0.100465787150618
"AAACCGGCAGTTTGTG-1"	-0.0435092191392832	0.468552105669396	0.237290330947016	0.433547382732748	-0.0819055680816252	-0.241550492296783	-0.128350807559839	-0.607637873494208	-0.0265831610530776	-0.0360657153184792	-0.317196895332637	-0.0383227515480356	0.332687644836861	0.0984239351168991	-0.352972211753663	0.199269356450297	-0.734233272508131	0.134887217358743	0.0606288126981096	-0.24756155137468	0.141277307522213	0.0108783580876889	-0.430072829800027	-0.606906745596125	-0.243091142962973	0.0363825573575206	0.031244580092786	-0.060973667095869	-0.222034388072515	0.334054292844052	0.176278517627413	0.438609118386052	-0.384578330925685	-0.419218416653708	0.235214644453033	-0.0260131162104717	-0.0386665339899344	-0.403150819498734	0.265361699285213	-0.329770794096216	-0.130184589522161	-0.228546570604752	0.170784879356024	-0.0457786017611502	-0.212363291230037	-0.0483729342953678	0.0323238823369862	-0.585659533947137	-0.00655717762810207	-0.187059784059211
"AAACGCGCAGTAGGTG-1"	1.82648930933509	0.392293254264199	-1.22370315312894	-0.183411569859397	-0.485812808258176	-1.05315467295334	-1.0462084056596	0.424715864092562	-0.331579853731633	-0.0238304598730504	0.0375164136343247	0.813816370664063	-0.486678126568959	-0.425573369073184	-0.298972777323297	0.605269027168296	1.08465591756794	-1.13142707377201	0.580959065485069	0.29753664854804	-1.45332868488429	0.794631497132949	0.630250009377463	-0.14212566741058	-0.879650347264847	0.291025868889067	-1.12220401085177	-0.479025810898812	-1.22668111421474	-0.857895164732419	-0.410055351150816	-0.546705461580427	0.991646403428774	-0.0397741748231883	-0.684483041594358	1.09009352496084	-0.499442721168725	-0.281891392320727	1.34432671763537	-0.664462121669682	-0.75308133028371	0.21208161535903	-0.604496603443361	-0.648738752896872	-0.324390870274314	0.223010325067934	0.282866699954166	-0.473257719809788	0.125181393251386	-1.01006068742671
"AAACGCGCATGTTGCA-1"	0.120229950550224	-1.62273209578303	2.82758285490614	-3.91634650365341	1.50422460946516	-4.82301277931015	3.07243201240053	0.0357898680529223	-0.821124447719333	0.96036069018359	0.409705899680695	0.712200110218576	0.0862709526197005	0.478823820406312	0.80821066249879	1.47491996378952	0.246220465706621	-0.0171798815718235	0.420692090595544	-0.092574658395341	0.462001563549638	-0.259809087308303	-0.212677335522382	-0.0831080712114253	0.133777574784871	-0.407487458800245	0.087672837301912	0.543868843221003	-0.51410334775218	-0.0030428050874222	0.00117717873853492	0.0870597069950241	-0.00641675587924438	-0.28910030612714	-0.212996270349902	0.132446692626675	0.316135231302168	-0.156872886787169	-0.305170626164182	-0.200254827965463	0.0532235235963661	-0.0299235450332819	0.177516141371456	-0.0688848575920325	0.0678940432257095	-0.0570427170271888	0.306983526327105	0.682249371961475	0.00714373709104169	0.0663495697501979
"AAACGGATCACGAATC-1"	-0.13867190188135	-0.940800492293933	-3.39096944604441	-1.9913179909766	-0.340930608608124	1.24884230113732	1.78255764174193	-3.11142819199398	0.253009813710955	-2.0791122336585	-3.22260397649923	3.10080072978226	0.489342214073211	0.421662636450509	-1.543204808658	-0.700043152830556	-1.25893388191915	0.132665411112625	0.0985846785810904	1.63708906548279	3.37326410701024	2.66289466868901	0.784856809903077	-2.38954433707806	1.88251717224333	-3.07611385563291	-3.28248796740308	1.47001929959946	-1.35513243484759	-0.58015814427672	-0.838046424327586	1.98043732373126	-1.92545072889794	0.278072796347728	-1.42724685726304	3.50236404434597	-2.8703951173328	0.347592991260321	-0.0722120047130012	3.15199075582178	-2.59844257080564	1.46490974177688	1.51816703978047	-3.32609969117515	1.33455077662677	-0.695488224061761	4.21641312303299	1.32135799506559	-3.88340527438646	-0.704792444523609
"AAACGGATCATTAGTG-1"	0.739955036570051	-3.06056317421001	-0.380357289084601	0.861545327290219	-1.3712001098305	-0.0125680563310986	0.769982433322326	0.699542490436601	-0.389498965388521	0.300101159266274	-1.2146138211737	0.573411166199834	-3.38827898348142	-0.123924618297002	3.08895036019814	-1.71828179318255	-1.41080118933772	1.21839433019931	0.461936399977913	0.555088547298153	-1.42073138288436	-0.47799408717753	2.25734196563666	1.79174415761338	0.426400077730272	-0.647428179792056	0.147352687915705	-1.19480605566545	-0.110972930160415	-2.40368232534134	-0.692324885953833	1.15669546773701	1.51405018658455	0.817725567559401	-0.53434131144763	0.265478091147043	-0.719787290115148	0.854010524612074	-0.549892118247057	-1.55091466411188	0.841439414906573	0.281594866002279	0.500829137397371	1.5752265459025	-1.42107747871097	-0.465027468260289	0.981202797140552	-2.43584092522645	1.09813110681394	-1.02859343327912
"AAACGGATCCCTGACT-1"	-0.69814927912744	0.337195718154975	0.18657357057614	0.0597847956668743	-0.0953344499204469	-0.141410718695553	-0.161978472206197	0.0243166442377121	0.639420499740862	0.499766892963315	-0.46949743005593	-0.0755885035252379	0.0204821100384012	0.2432770345633	0.203286287569008	-0.115944778189981	0.00985931462222349	-0.00947067785809391	-0.122625942827799	0.128938023989408	-0.234456227927762	-0.0419244868596612	-0.333999684325317	0.145799271991717	-0.134375366591793	0.460424101308824	-0.000815774798246126	-0.0488562642991052	-0.114029471566486	-0.18626411339175	-0.253939283324577	0.0397200372289606	-0.190355078299589	0.155910071033873	-0.208680096281427	0.0567963891717142	-0.0281446952786088	-0.254326826465288	-0.27171361749794	-0.145770691005786	0.372500785066986	-0.381580937392382	0.0424562363757071	0.0611910280672394	-0.0776410425089132	-0.298435723927397	-0.0985903028074434	-0.208756414981951	-0.437352634774414	0.370086881642606
"AAACGGATCTAATCTC-1"	1.30488378442068	-3.70101587286248	-1.00007637818697	-0.103543162757802	-1.62189924747205	-1.2394423784659	-0.99260476435547	1.34485721724916	0.907198628176691	0.26745910268862	-1.37345601162266	-1.55245417884973	2.30976966468089	1.9230049617309	-2.09439492011321	-0.66920838391068	-1.33697194859855	-2.72253212127345	6.16784974518756	-0.203401607577553	-2.13479264886648	1.15029809005334	5.25983660845205	3.62276717245298	-3.11384065680344	1.74558066822168	-2.14563630828006	-1.00923772174709	1.44943242291196	5.98605356580661	-4.3313656443266	-4.47018743005161	-0.298070604984512	10.0463266242503	-0.38832820961375	4.37312715992036	-1.12895758876756	1.98076208968484	-5.90890228168347	-0.603222806550686	0.115283242167264	-0.294063362423193	-3.37110258303432	6.56483904019487	-1.8392093530652	-5.25061583480053	4.47436602933342	-2.05802580585414	-1.7360684255039	-1.99987808384591
"AAACGTACAGCATGAG-1"	-0.739298586817538	-1.03336790243817	1.2235929872087	-2.38406069737799	0.671627505576142	-2.52307995509374	1.90486422715278	0.486551369281235	0.00563173076451952	0.610479050960036	-0.60726067258223	0.0276694030565346	0.562083532470728	1.9479431533463	0.649038868117386	0.709720152753674	-0.287793234324545	0.25267908455714	-0.102732584954362	-0.00581036005628621	-0.238666600850241	0.541960111080294	0.0223792848295815	-0.0507519758838679	-0.58426786953097	-0.0763625292958697	-0.112290100697006	0.79224871145795	0.260854668629645	-0.542838773555628	0.587951444910457	-0.0763375984523792	-0.15915306319908	-0.965866528213613	0.12012083474634	0.196923566699195	-0.710004123020346	-0.14716708582349	0.325826707421096	-0.309769009328484	0.147949118598571	-0.0324344562858123	-0.327511022229098	-0.241245588388762	0.25932444714171	0.100123965334473	-0.402342260433144	0.0703271511135425	0.704994538834657	-0.285137286125266
"AAAGCACCACAGGAAT-1"	1.67593740813202	-0.474877620599589	-2.69237517951543	-0.548307034603502	-1.55247114044763	-1.69496368313712	-0.85719543308732	-2.78822297971424	-1.59840160593634	-1.55404912636157	-0.0211961000580664	-5.19391861575465	-0.952033539115779	-2.03384564526319	6.86180589370131	-3.1588385455231	-0.127871430892116	5.10439340779938	-0.77932170142281	-0.930363036124635	-1.89630822545837	-1.01030146135744	-0.617298745660935	-0.0604037685387726	-1.16792067022964	-1.96026224834624	0.28121689995461	-4.47603042186204	-2.32553046170378	-7.64533336483406	-2.21298809604336	4.87438415104782	1.89076030311046	2.87463677260928	-2.3294775592533	-0.106981859348328	0.499866448967619	-3.16125746417628	-0.267989947891516	0.114581921547581	1.6763738648475	-0.129245300135306	0.842938578065871	-2.57257051299109	1.35344238329493	-2.82034289423967	0.082537931900491	-3.45625890129177	3.60320101102824	3.46760212035091
"AAAGCACCATTTAAGC-1"	1.55533042586644	0.650050412016559	-0.787597355217426	0.0560800067167565	0.868445300652151	0.35834625670697	0.628112147564736	0.342958073884479	-0.119699350476196	0.324616459461698	0.368772380323393	0.279546877782872	0.0240740516899717	0.169357885390203	-0.0753239012002537	-0.41853036270846	-0.16468776299627	-0.228343357859015	0.586504838699861	0.05105132574849	-0.473417849978041	-0.0642879350510425	-0.682802983715965	0.432769767162904	0.433157655018726	-0.130339442056481	-0.883032803126942	0.0399558932633649	-0.282719035068784	-0.348479976604933	0.472656409196766	-0.130596575562723	0.828578512391502	0.224870758953043	0.999368221214638	-0.164013958013386	-0.368739144302892	-0.265196947768067	-0.425957176438622	-0.175995651750607	0.797426458010794	-0.507592770817848	0.208772378408163	-0.00581228499113493	0.206566154171429	0.228543753696745	0.536207360904937	-0.0251983919912278	-0.0481500747131176	-0.287748581108903
"AAAGCCCGTAGGTTAT-1"	-1.36743089526342	0.213646887378331	0.173346937234231	0.10879323819338	-0.177353260499914	-0.0501521054509747	0.0279658589525116	-0.0044464820849788	-0.0459297980546791	0.125800497427376	0.152776347923907	-0.0564055809259788	0.0447257264742444	-0.0179197972484363	-0.0238914501823542	0.114904452902031	-0.0125454630582231	-0.0824759210549085	0.0737615179723236	0.174413864220219	-0.409956713656101	-0.0972216618086296	0.142034983587167	0.0932819584807199	-0.169718118653205	0.0911609886146507	0.32281751206446	-0.222024801903921	0.0857632566443651	-0.0838554154754057	-0.12524901791485	-0.25005847927753	-0.195080559921237	0.0334446472917383	0.123260765873296	0.165469159329375	-0.136303134814891	0.248591241647091	-0.534300292436666	-0.0783493684688963	-0.35481694038761	0.155231959245238	-0.29171442149021	-0.156273605736609	0.370353664431724	-0.0219313446765149	0.0962442368464467	-0.00119298146973373	-0.161650910634216	-0.128422471331378
"AAAGCCCGTGGGTACT-1"	0.580579972634369	0.569590620305206	0.0434280010267689	0.237776278364143	0.118115907627049	-0.339719246884966	-0.129017274251226	0.467708718903299	0.305036001802028	0.278510655096317	-0.39040053527923	0.407057333925561	-0.370902440366241	-0.253962910979527	-0.189861650917289	-0.0727506745941423	-0.10933707857934	0.0510451886853587	0.107158945873747	0.260344334665606	-0.0794688680749949	0.195814441195975	-0.132621496462844	0.0374923300012092	-0.0487913817239391	0.757341342884261	0.00565931231082014	-0.298205436181053	-0.190575318707165	-0.210278676446589	-0.0410124344516549	0.520551134374629	0.122584896331698	-0.192277217571813	0.141271853040054	-0.632991026493938	-0.0135370511439127	-0.22990758396491	0.0917709118722138	0.34314388502993	-0.162703367262312	-0.116351194049078	0.0307389629384781	0.0156396549770686	-0.284755180391917	-0.409271778242435	0.272483630333374	-0.0475635545286662	0.151957938398035	0.235682014705503
"AAAGCCCGTTCCAGGG-1"	-1.55264175915217	0.277395136459851	0.235953257855234	0.0801955115105105	-0.198362980371222	-0.0329797952309994	-0.146165212038155	-0.17475489943201	0.120981683479336	0.127383463694857	-0.164012663165212	0.104221672203345	-0.0541840407437932	0.268331215111281	0.120251691259244	-0.162087919153408	-0.073467114163754	-0.299019327861027	-0.12507545109921	0.188218600618942	0.0520029891248262	-0.0615941473291838	-0.17149150525452	-0.0274049855614789	-0.148821380043017	-0.0163304692401864	-0.0624794498927325	-0.0228905483488616	-0.083599954252013	-0.192263073758138	-0.0874454356598134	0.0806648952724165	0.244215810763077	-0.0527709441528526	-0.0208308936659181	-0.0274037165552893	0.0687304978273154	-0.194222868923632	0.0159998658262524	-0.0520559730457476	0.108600822725309	-0.103737224415164	-0.109897503568603	-0.32081730090371	0.174643446864164	-0.103170671144797	0.0249707119067109	0.0330796906722126	0.0862161011462261	-0.00727293339759247
"AAAGCCGCAATAATCC-1"	-1.68162507225809	0.149136501376386	0.189207201125815	0.14877716065126	0.0846268239716842	0.0054054069916106	-0.046136300869436	-0.102190822465968	0.0117972671654173	-0.0889030639269917	-0.145170347827564	-0.0691456419409583	0.128497324584671	0.16299432140327	0.171682886359452	0.153269403478371	0.0107293459966415	-0.156147447039441	-0.11225829043985	-0.1255966023668	0.106623275522577	-0.0801290742204427	-0.168457058891064	-0.17291791553948	-0.0733022692584642	0.0571586064326121	-0.0736428207955005	0.0472370820200131	0.0423990013362735	0.212554114456189	0.102583696006568	-0.0739066565742928	0.391682270057043	0.0334674728742852	0.260992923252294	0.0441485250245142	0.029902003318701	-0.0457944042251261	0.0420375555546113	-0.120672199404895	0.158869771136036	-0.0614289884662747	0.243711619332794	0.0280044436495852	-0.125625469632694	0.0347520235102985	-0.0248059328674568	0.415276599645831	-0.12687804760451	-0.0423120186364878
"AAAGCCGCAGCCTTGG-1"	-1.52108760066367	0.256549141320366	0.0268690052544605	0.0920482852157796	-0.00197412658230545	-0.00895772581752538	-0.010534355945184	0.0256910046836694	0.260433728944289	0.0998890979851731	-0.509138560223397	0.028558031891577	-0.00569454206946381	0.300024416401509	0.154563231327544	-0.203690051265412	-0.165778632779692	-0.27774142248981	-0.277144031607457	0.0660472585932061	-0.113266505153287	-0.035264043716109	0.0674172537981779	-0.0246071879472895	-0.263649971791432	0.078882191804563	0.0191108683133554	0.0845641494425514	-0.101473895883241	-0.243452448380953	-0.203571775656162	-0.0839523292123973	-0.0949221303980584	-0.231697214779314	0.149550917788618	-0.221175622036068	-0.153768186387002	-0.0240434859319687	0.192788746203948	-0.0909580386347275	-0.0940714804707933	0.146653140704188	-0.321644151779936	0.0922391910055139	0.0381356930382956	-0.221805557618152	-0.547669880320198	-0.014521327736009	0.281814499154346	0.0828151053008739
"AAAGCTTGTGAGCAAG-1"	0.225319209980676	-2.414467978939	1.83910797839628	1.80195280722432	-1.23685924908665	0.0717300139478743	0.892674957425513	-0.254496313658112	-0.0400680811984973	-0.0805592216763388	-0.50858519396414	1.07492948030767	-2.53188547025149	-0.0499961094395646	-0.15071927060627	0.157559974868412	-0.166204180188914	0.632427416232	0.0280605135188353	0.267627520676314	0.113221299714598	-0.299100899635485	1.62858905581115	0.388925871215358	0.315984689897521	0.520857219876313	0.616212119552337	-1.01935318396097	0.0693769796272678	0.224690352500163	-0.778763840891845	-0.0502910975890235	0.302536107648645	2.00631071288466	-0.00809074324778835	0.0772399081903772	-0.618028454227337	0.0101302050423667	-0.0425911533016679	0.49505895564944	0.640083839114374	-0.249837625107772	0.717934814975995	0.487916455101047	-0.682619598222676	0.88143587566238	0.0942618489237802	-0.363135554104662	0.0457441399518407	-0.117510755699359
"AAAGGACGTTGAAGCC-1"	0.604113139218595	0.508976087675468	-0.254942037244042	0.256902845948492	0.244781738797038	-0.57633604872482	-0.316029485061306	0.597647501352888	-0.464237596734127	0.228152713600312	-0.260776565547191	-0.0340559601909107	-0.0921465865851426	-0.665982631137461	-0.425276982059078	0.467319582550663	-0.00480798185697222	0.107602052029953	0.279277791814718	0.38051125269701	-0.259674283397023	0.653270825268386	-0.667459654131711	-0.246440869182687	0.317841408289822	0.254510634524358	-0.0793537831134586	0.095259472521582	0.142892010744582	0.534726252801254	1.05668128326608	0.0854141898230641	-0.330792713910087	-0.188516858869027	-0.223563224121205	-0.152220664766014	0.32738162598404	-0.482714142566152	-0.278963285677196	0.235899769834374	0.176433833103953	0.144808125595021	0.196119589347303	-0.353245740042801	-0.042585653757732	0.88052575938979	-0.372076932043521	-0.000275791977777656	-0.58368452280506	0.667853998151314
"AAAGGAGCACCGTTCC-1"	-0.826735799070902	0.362664624809173	0.229923999345467	0.162872873059144	-0.0929181736376865	-0.200237821470078	-0.0715243742082069	-0.253860591172243	-0.0871590295527768	0.0394003163790078	0.115160988417596	0.0713977300228042	-0.0590938015013303	-0.455611264402127	0.0680379419603388	-0.150179219765751	0.0489175850951529	0.217150485112392	0.00168582909281834	0.0152334409806456	-0.0634455968429992	-0.0635448427105724	0.289415668950764	0.139549228877634	-0.077711200544652	-0.125575040555861	-0.0759602064068086	-0.0861920731780264	-0.148881349914547	-0.173648013163731	-0.210625782068269	-0.0288622220895364	0.176404774543638	0.179477195389044	-0.225297886711666	0.0851854726561354	-0.189607455547303	-0.205232423485763	-0.444654031446247	0.206121260397018	-0.0357044803541081	0.0543468697634783	0.145596789497824	-0.0490428289564097	0.0593689415141125	-0.0887299023849685	0.0830833097601317	-0.0103945369232537	-0.240192373255513	0.298195971419592
"AAAGGAGCATGCTCCC-1"	-0.664328982729851	0.34815197387814	0.338860644582265	0.125205625493354	-0.332521964124738	-0.134342647096086	-0.137818363702403	-0.123522328138255	0.599237625478337	-0.284287353178253	-0.358888728050494	-0.179359952392828	0.143290680064025	0.210727120956754	0.327795938645672	-0.103211410685021	-0.184320834658983	-0.0167556925551854	0.00341052119067421	-0.256120649720482	-0.222599206726595	0.232262943523648	0.0137549550372103	0.0960801353489025	0.130790768862542	0.162149878063353	0.0382462823647999	0.132777574795367	-0.0586346759323379	-0.0323309378529619	0.366430723791592	0.107456814752906	0.158910935490018	-0.230430929983123	0.302003315784366	0.377402916834285	-0.434822755293067	0.074101434727781	-0.0259300531793811	0.283637391600101	-0.443644349226241	0.26968874634078	-0.615306961796492	-0.0223335710483089	0.29332915146163	-0.554300629504347	-0.014510264218477	-0.374613661357808	-0.135688449745841	0.0594395972239796
"AAAGGCTCACCAGGTT-1"	0.976394272238323	0.504423642530506	-0.147920707425952	0.268901800748611	-0.207130732516923	-0.440144450564809	-0.61800450799571	0.570818881868965	-0.856316833979013	0.0745020343897898	0.221819386933057	0.28386727956992	-0.0183583214254518	-0.493253865130094	0.382345663166954	0.0802844898954141	0.333106086161356	0.219580817030048	0.157947304540894	-0.369025767617022	0.233451773927565	-0.169379473519788	0.0467125028649342	-0.0400030150094998	0.395413329912934	-0.835660560127655	-0.539141006004769	0.363768963648543	0.307724610532453	-0.120722659101669	0.199441032550795	-0.123277988280149	-0.259957458962596	-0.319696035945314	0.0859555268104767	0.882206415389618	-0.103716974599122	0.310064993156794	-0.251739555670601	-0.132832300689977	-0.540893437289669	0.36928679097631	-0.617213364289385	0.220406203507018	-0.103006104111575	0.311711155531814	-0.105534826503014	0.239260986601411	0.0487774528782333	0.214274794621655
"AAAGGCTCAGCATGTC-1"	0.752514660686041	0.575697791185185	0.378128643055941	0.389570719737768	0.00414637796723623	-0.460980066463968	-0.596333546631377	0.297694543193872	-0.414173290570492	0.236322786677503	-0.331148766053333	-0.143332838518455	-0.0251815848005514	-0.288827448989594	-0.0791577972706426	0.132975330012083	-0.0191645707151989	0.276026128468786	-0.298448504191003	-0.0204267988863333	-0.338477697710059	0.396828485980722	-0.643805739069935	-0.380044612570688	0.2513964773341	-0.47736751179271	0.258567141968457	-0.0748944061669655	0.24191301198382	0.250127705553711	0.0150192153263002	0.257685705552533	0.554032923270426	-0.146782725100793	-0.248888249763655	-0.550825393427289	0.36055222288454	-0.19489507017092	0.0102329614221111	-0.109754996822071	1.09193897217042	-0.346420024976828	0.218502672427944	0.192622580800901	0.320062465195015	0.312491444419179	-0.146256259542106	-0.0993987585363154	0.175625944559718	-0.185154139062621
"AAAGGCTCATCCAGGT-1"	1.60661541583463	0.693761965157574	-0.708736915989184	0.0781078465397776	0.0192894402817714	-0.407384639894997	-0.494956046400524	1.01439540241883	-0.619765756632487	0.469880414332797	-0.0191515407221416	0.715539390112114	0.0026454574911679	-0.366928976072794	-0.274364997628447	0.413602235487691	-0.0374931101333277	0.467125728351368	0.640315393414477	-0.386018636340967	-0.00842826915547703	0.36379704878031	0.778582534565618	0.634134065642954	1.00491646995914	-0.168382645294737	0.408542567281117	-0.294352781320325	-0.079765604576901	-0.394027397421439	-0.0557007135648127	-0.0889409228037653	-0.647509794100526	0.438322816357394	-0.505646263212577	0.354891932353767	-0.656543494643759	0.277700797363567	-0.900782047926302	-0.0717812571283274	-1.36588928671346	0.705893606614962	-0.361837590476303	-0.423202588141112	0.801863047793579	0.42307606133947	-0.375682469559927	-0.658224670610523	-0.60485772063046	0.401780379231549
"AAAGGTTAGGGATGCG-1"	1.40941899138586	-0.390061403822745	-3.5100259937987	-1.83308616903734	0.75493820907565	0.559168158841668	0.745238739235033	2.82937710985755	1.33073211159065	2.20539843394474	-3.71770749620797	0.84058394701627	-0.524229405747055	-1.49618518540854	0.0730656591654591	-1.30633301308012	0.160903314943791	0.772857680806269	1.61707550045619	0.0753833030298885	0.209349461029998	0.652422670242856	1.52266584189344	2.05763820441451	1.13964238043247	1.87244574691246	0.220943563361106	1.13941982354649	0.0557617639334446	-0.722797977670905	-0.570513699976381	0.206374095567185	-0.938627718762092	-0.797047574297239	0.628822326244634	0.0882531047133045	0.583247552823748	1.39777044487143	-1.14500886105575	2.22257414037767	1.42707947678564	-1.27135568050297	4.16216217606666	1.02664346512176	3.3305933236449	-1.83283192810313	-2.13330741767447	1.35013846306255	1.13017066645901	-0.541195958741969
"AAATGGCCACCTCAGG-1"	-1.07396622516396	0.23944317662166	0.36659430486551	0.096157073452201	-0.199739085850231	0.00969585105928179	-0.113128043166467	-0.279602211389377	0.045472497779473	-0.207458410603493	0.18108152023446	-0.0871157601000905	-0.101649246613349	-0.158383508885494	-0.0648707607937182	0.0700361773195984	-0.187890958757585	0.211357976347481	-0.0213384511913662	-0.0352151999096258	0.131451725308461	-0.0203648677668147	0.212257086599891	0.201598529363316	0.1156224216392	-0.181392364988314	-0.00887077312338185	0.1982560514879	-0.0681515337315667	0.174628437483071	-0.191124838580335	-0.222055948698038	-0.174947978484682	0.188230309479004	0.128120938003162	-0.010336544997065	0.014788059513966	0.0423569020045755	0.0014325575359923	-0.0218832503708295	0.287038709476357	0.0719233078374116	-0.0830690683664735	0.0604892503247516	-0.0847724407072677	0.117952369326788	0.103577811612612	0.207986713346813	-0.31998567240757	0.304091407417801
"AACAAGCCATTGTCAG-1"	-0.150614733665429	0.512438373097281	0.577377657336591	0.395054742638239	-0.394539759788254	-0.308807932813797	-0.195018147812504	-0.511362647782496	0.317795120662929	0.308362901022412	-0.59988174413339	-0.169286099389917	0.0592637056690235	0.0948942093323499	-0.0443306119649048	0.115666118438493	-0.0330045148694077	-0.209618998028698	-0.0294943850316925	0.192774879033718	0.263244017290818	-0.499838477028337	-0.239924986277638	0.0225868866178711	-0.0618379955993079	0.0575991430286022	0.00932706782705382	-0.165689688150876	-0.154098203911176	0.153931866529137	0.0102320602527167	0.18260111787549	0.224747667398636	-0.184535681714305	-0.140299950476281	-0.0126737507523373	-0.169669134904657	-0.0486135725198447	-0.307581713326054	-0.221431832514122	0.00456196495566358	-0.330958649046581	-0.0908754171847328	0.195412203675437	0.19057872417605	0.0319868936064522	0.0215217642618841	0.203518364804407	-0.0188622020312464	-0.31185663172345
"AACAGATAGCGCTCAA-1"	-0.939770225897095	0.290549065285885	0.336453127360182	0.325708692503248	-0.121922373590153	0.155335917816247	0.279357800495232	-1.165423311575	-0.178529240146692	-0.0687147331064317	0.608690940141368	-0.577922123008474	0.141658205732624	0.137486501384082	-0.32679822963781	0.114799204114938	-0.0761073602670383	0.235886704694907	-0.501660355335566	-0.0120132421537937	0.670498901397995	-0.449941294492056	0.0111552889860079	-0.060878098611437	-0.0154937746438509	0.00642101129601751	0.329722301296986	-0.391022787289182	-0.155250489118989	0.276491701624004	-0.0723217555637602	-0.375352863827869	0.205327555821045	0.0996484081471659	-0.0606765135070077	0.0154111123946096	-0.172072958416819	-0.0563698334646243	0.097953337512705	0.327653358226768	0.315223924196857	0.201681397468502	0.0680749626270671	-0.0654928927782717	-0.123333620705293	0.0651565330452693	-0.279525497115112	0.136602805287238	0.136247746536548	0.208685290407729
"AACAGATAGCGGATTT-1"	0.258620407262097	0.547536962942675	-0.073612604863535	0.102974676238619	0.252711099455201	0.393622276869555	0.267621663922414	-0.0463405639735641	-0.226206974750225	-0.146767998918564	0.00676545337324884	-0.355510020280093	0.0284699396755559	-0.00763273956310414	-0.380343307019158	-0.178845725885787	-0.390103016771157	0.599428471861758	-0.365096776950015	0.0455969933462334	-0.211928245943758	-0.333152803829675	0.040768649944947	0.258679271570984	-0.354677945865275	-0.488965978687849	0.217415186799192	-0.293017329765459	-0.046977593795713	-0.479061244395894	-0.0897050100445639	-0.0087385966208705	-0.211424416734176	-0.0433777225461344	-0.15263957784697	0.453573391229688	-0.389892624297413	0.884596189516423	-0.240795627956387	-0.0942359064096081	0.0563095435513786	0.841771404383016	0.460711335680204	-0.519882096252983	0.368570946095409	-0.149257701005165	-0.439125035617823	-0.857124364833972	0.110648906270007	0.0344715899843522
"AACAGATAGTCACCAG-1"	0.434480059546217	0.566089745960254	-0.0326800375722236	0.332857416510119	-0.273332983707567	-0.39729998094714	-0.988316913345334	-0.0549443711074529	-0.495512949496742	-0.218274805677748	-0.192510066495725	0.0805195047184415	-0.137604431726241	-0.0367522468430627	-0.382171581036917	0.00130609166256963	0.16757659480459	0.0213632637898849	0.344133512090285	-0.319929797573924	-0.173965575600453	0.15758354510851	-0.528129698415828	-0.814288231360264	-0.272646234738046	-0.370335798823622	-0.473729940658451	0.384935428276714	-0.314701799025231	0.23242996510656	0.277279749629893	0.133345507980444	0.147773422485041	-0.35899568576144	-0.17517161938941	-0.4779970264324	0.673390925758849	0.448867820666441	-0.0678416890312182	-0.49307867425528	0.0344090054480728	-0.170419522018147	0.0419688399885342	-0.0923821587451091	-0.169783115043645	0.217159155713768	-0.038693904604045	0.0541549972392154	0.594761479409012	0.295854504367193
"AACAGCAAGCACTAAC-1"	-0.792951939573503	0.217606635385184	0.174101736500674	-0.0606174659686824	-0.0651907395152212	0.208880356931137	0.305069924586775	-0.375445003411334	0.823531552459018	-0.0158975828563054	-0.721409117715035	0.0565146926189726	-0.277533989663906	0.672949214253789	0.131884288707809	-0.161570932326751	-0.0618073176941084	-0.150157328077538	-0.287845856971025	-0.110085279530208	0.00455221030427439	-0.0888641475339357	0.348450995914409	0.0401401100725362	-0.146409503980133	0.113383809053545	0.493207510289855	0.550206601607041	0.305597895164239	-0.340680111757968	-0.0779668829583519	0.256671233746741	-0.190057948123463	0.0985240691288658	-0.151512155269599	0.336614110632196	-0.711081922278401	-0.30943001434027	0.0188746186528625	-0.0979231931679035	-0.126963547803553	0.643899970781502	-0.208931404295112	-0.55060551005282	-0.0928972012625128	-0.294419307943952	0.0232822430684834	-0.00773475938225049	-0.0508698946884392	0.00535024237534027
"AACAGCAAGCATGTTA-1"	-0.344410571189632	-1.0934309096315	0.783991419622749	-2.52204934345058	-3.5673367527943	4.49545907046151	1.14353696356982	2.72340141166054	-1.55120507157385	2.9822887452821	-0.0677995632448516	-0.329992361748835	2.03004665960228	-0.548983719957118	-1.62628356188289	-0.373524436531774	0.49139977149032	-1.25406199883998	-1.11579186178429	-0.331136620147965	-0.436578022224858	0.395430588334386	-0.23570403218591	0.0644304588461279	0.168384956007065	-0.247374517482947	-0.159849437173835	1.97888903764446	0.523799089892283	-0.654985790281541	0.954667366301147	-1.04881483693158	-1.20385405486567	-2.28155007727294	0.438538074804805	-0.37366022077092	0.290748942505423	1.24164726565358	-0.117436996213224	1.30113200638641	0.241876993397333	-0.318248411709366	-0.804208129311043	0.284787626576648	-0.0142152603191971	0.628927271821582	-1.49858705644454	0.119042521647885	1.04359964681674	-0.312361382481054
"AACAGCAAGGGTGGAT-1"	-1.79430542326467	0.15372029181079	0.100295770589441	0.0465720029059133	-0.0379289062988897	-0.0244128276279426	-0.114387548492819	0.255387687554802	0.675902807129136	-0.132976187646101	-0.446339309806347	0.0255520956578168	-0.00265873567603025	0.223618444045616	-0.0168294804484946	-0.0608403812014456	-0.0836464675273032	-0.131606492796951	-0.141519124428889	0.0911074665828335	-0.163811593941556	-0.034723143504329	0.0889828014719592	0.00503454645375596	-0.0480756027825384	0.360474665922079	0.0584210453427987	-0.0371458802179831	0.295756848954307	-0.34340749762344	0.112021259338832	-0.0299639275941902	-0.181873434546707	-0.231328171496856	-0.064729755874065	0.100538950208963	-0.0905388034394387	-0.0271150306962303	-0.135598759966985	-0.230383886086764	-0.225084994900535	0.0614018748517897	-0.190073971910048	0.0251190464486485	0.369342646786022	0.184437167970469	-0.040600297933794	0.0175239035629229	-0.0690102660863273	0.034432365885968
"AACAGGATCCCATAGG-1"	0.839000963204195	0.653470775395326	-0.157603135456243	0.385559645844597	0.176260171188756	-0.106814303467179	-0.505693627957419	-0.00312669583597725	-0.796350559324145	0.572312066621769	0.315484015944788	-0.143110844176024	-0.0944398891894399	-1.02510163712649	0.304540030876016	0.167226718450667	0.359580420615006	0.260357059741094	0.244026195097916	-0.647605353853426	-0.438798510048205	-0.090313499452263	0.610508114862161	-0.00691618680283753	0.587101799563601	-0.809610785544208	0.0527589338931717	0.15471885574904	0.890712547039186	-0.440261964591119	-0.225434867597304	-0.288426747344034	-0.500179258834731	0.370520673091592	-0.131327358650913	0.740494352305556	-0.445196791013349	0.0905257957655992	-0.025221179479022	0.413042903190945	-0.217068514585664	-0.0840716826771199	-0.186560375635962	-0.94520140684847	1.07665236094592	-0.293514311407848	0.140347658295526	-0.116800677493986	0.360164811018207	-0.137656817166573
"AACAGGATCTGGTCCT-1"	0.452598495296514	0.591282252841936	0.267438582401958	0.357862819217203	-0.063983125327069	-0.292953717301097	-0.285708013036957	0.0468270874711928	0.22925784049437	-0.000492543473251547	-0.432271376391735	0.220285879793033	0.0286458405594563	-0.601492617940146	-0.376939362863754	-0.00767279147262997	0.103538570404942	-0.39235954066637	0.199145405822309	-0.15456200523531	-0.412846314959972	0.143427955904255	0.0314249177089311	-0.494038532451671	0.0649383569087377	0.201620551821402	-0.536063923119042	0.220279068480077	-0.393239565720326	0.242186046465164	0.0355311118233844	0.461977125106855	-0.16628622832576	0.0222853638073709	0.403452114996072	-0.325134046575606	0.243897710236374	0.163759666297211	0.094900316896969	0.175911448780026	0.352252801042239	-0.0501306080473548	0.130667072077858	0.483478638889375	-0.094401149446332	0.289662381860064	-0.359290441964778	0.126066177600087	-0.291284607234705	-0.1511464009528
"AACATAGCAAGGACCA-1"	0.267452091016232	-1.61799586130577	2.02988207337647	-3.74799231975602	1.02501123263269	-3.66770374512418	2.29830549003314	1.21663480083992	-0.659149331087581	0.677959106914563	-0.472679650851168	0.49958748697149	0.746632821690874	0.657557199410101	1.40450297889596	1.54606141741536	-0.476032084202238	0.778412140042231	0.612528842187452	0.458745679178283	0.303931026401058	0.77685896979694	0.299653095676934	0.555440154452557	0.618245970786461	-0.0731885431682106	-0.387258100130874	1.04385928487893	0.909692698300221	0.653930522837443	-0.0587245854638099	0.172883160152163	-0.328514073247527	-0.814941598834255	0.231642244067744	0.508944706114733	0.229878330056307	0.508653251730602	0.417154358906296	0.432602439408391	0.0112589021085847	0.139862103889334	1.03732793593803	-0.682678506594115	0.558217666380931	-0.863568765440464	0.670985104554101	0.510756205648212	0.659267267704371	-0.746047946766558
"AACATAGCAATGAATG-1"	0.224691588676494	0.673095066284924	0.482248107197748	0.451071183128867	-0.115216456893901	-0.277881228313623	-0.488582537480956	-0.36843241948331	0.106384894693058	0.0180423383760665	-0.682907840022828	0.158831074555369	0.157850409451052	0.293762237495734	-0.293223920060401	0.27675418289114	0.257394394704361	-0.0352995645443115	-0.393777873354522	-0.175595081195876	-0.110476723620431	-0.00231853903136163	-0.5338926488475	-0.483119826515047	-0.480297775333356	0.0390746889442114	0.157355589427483	0.235124722083932	0.0298582043991368	0.0159196806828305	-0.00318780692079898	-0.00206549821485371	0.133020939630434	-0.0518501109071981	0.0205958527091427	-0.237553308053763	0.301823751881501	-0.191623753095667	-0.320270422364674	-0.175376020966268	0.545684013117215	0.398728640454667	0.238856623466033	0.860619784915571	0.1198996820368	0.195264245938837	-0.184717991689362	0.38072384974994	0.866347227705339	-0.0509541027242499
"AACATAGCATTGTGTG-1"	0.813364388991816	0.536248836308038	-0.707736821532813	-0.0229231928097224	1.31298647038751	0.797184271450411	1.50766793802392	-0.0676385808581948	0.434459434083039	-0.183073311560917	0.571823743089615	-0.0479555073811055	0.288211514387082	0.610962283671055	-0.0853778065158438	-0.186730757201911	-0.305066669593707	-0.118937859715261	-0.226493965145189	-0.255505903354374	0.251484317250049	-0.123802779992625	-0.0771557069473816	0.831048564577755	-0.0604941283744715	-0.309549950701045	0.129599948343349	-0.397608876390305	-0.0987558246152126	-0.113243715477604	-0.199389861574328	0.881485262037856	0.0848029999254867	-0.282004670882468	0.486079817507754	0.624436948954617	0.246348690724306	0.168200842459178	-0.0151949667846223	-0.241470876514674	0.116863182221374	0.116517559226805	0.241498447748532	-0.604529958891516	0.329447009201958	0.229714664924443	-0.163619874362564	-0.215340576258362	-0.274781221125675	-0.281960685212339
"AACATCATCCTCATGC-1"	0.898308457028274	0.61522236368512	0.00239793268583569	0.413112836573565	0.130375553856758	-0.471601127174781	-0.994296992574988	0.109934400184131	-0.656830103434161	-0.0611316982103188	0.738614869887286	0.0697096184415796	-0.0463209817766774	-0.572679291116652	0.252042467985275	0.101675431836234	0.305066503863567	0.225057508825861	0.323088700602862	-0.0728073317532947	0.164943256233901	0.150348987088173	0.247378570697001	0.184511463734845	0.839067732264878	-0.625398018254262	-0.063856119732133	0.6506240221171	-0.410987711993747	0.130674956733825	-0.255760013682905	-0.113691025422887	0.17311160412143	-0.717558184278575	0.0357419784660571	0.214687432712321	-0.502665023530465	0.463481834633519	-0.270949144627688	0.0807684745695181	0.183682533384568	1.15562288352074	-0.712333791775853	-0.168618303385899	0.400745679530686	-0.0338527695671426	0.446052745873654	-0.486391387571012	-0.112106273616151	-0.360087041594416
"AACATTGTCAGCATTA-1"	0.0339493110909494	0.544606489623118	0.432780829083743	0.252457214291669	-0.429585579057342	-0.451662502687602	-0.383342141078706	-0.101070272117147	-0.0733831504288388	-0.466267903889401	-0.145022447979112	0.159766599251278	-0.285307580967296	0.270993563589629	-0.0224730711760362	-0.217749714402612	0.0380589345394059	0.0351135835069831	-0.337203495820175	-0.020505053932893	0.130692996013682	0.323522037966376	-0.0802095815554265	-0.15749480023637	-0.0746197728374329	0.242626019463267	0.0325484281853481	0.0430012678221589	-0.218735679084068	0.172609305615934	0.614564219204623	-0.193295625044319	0.00672881096537154	0.121208944574022	0.0353682826812854	0.138751376489157	-0.229765609301046	0.174497897011301	0.297283760233029	-0.0374786461660597	0.225415040600127	0.105471620554176	-0.345580137844883	-0.0392301581753936	0.142213190919763	-0.123288505699302	-0.226404849923868	-0.23330947792625	0.3085507410854	0.154824464799637
"AACATTGTCCAGGTTG-1"	-0.743970485473933	-0.178683678287578	0.210785367517506	-0.86044275124015	-1.03869037370011	2.3759440420617	1.51899806975855	0.648047149406189	-0.577178690139903	0.868356412197902	0.0561011476883393	0.0291591716259415	0.335058635816278	0.157331537214459	0.330706668025488	-0.0254501249853534	0.322166763430877	-0.438759187617204	-0.541529393697762	-0.287976431235977	0.28789382096382	0.677320676346479	-0.545836497477138	-0.0107554261718683	-0.296388240862201	0.333567336792788	-0.00604489604047967	-0.0412786109979984	0.364516225739135	0.469143059789935	0.115625316582427	0.169449858318107	-0.078753199695343	0.385672348560838	0.357626873766966	0.0384198666848947	-0.057830612457916	-0.380035531403573	0.401367888645911	0.3091261089139	-0.0124821968660876	-0.203814258067892	-0.27680239233364	0.510599054580596	0.321234256809777	0.0592413111371766	0.42173463493572	-0.19908093145316	-0.0675161583909479	0.81172885109886
"AACCGCTCACCAAAGG-1"	0.72489792393367	0.634867638132279	0.0459495513955343	0.239932795643939	0.0457957373284388	-0.00966822704376545	-0.327106999764581	0.176241505305179	-0.264720267261188	0.450458920880375	0.146604700979842	0.137256011930586	-0.0139871301541315	-0.368116615739303	-0.205878965970316	0.199234224837376	0.149348977776116	0.190438512487847	0.164406963046336	-0.228550747123417	-0.187942750567732	0.321903184375378	-0.0429271773497118	-0.168658969375629	0.392841549997642	0.130947546129396	-0.148216733728689	0.0224036782043104	0.00219972681787571	0.00159544372514254	-0.3725115289717	-0.137536892792361	0.0725058108599923	-0.369184434699098	0.376004287260736	-0.259749294810074	0.350033260090996	0.178419203462833	-0.145110363466546	0.350433998897876	-0.0227365243365804	0.0975166868524874	-0.0811117600747879	0.0265094864628399	-0.285966200182911	0.185438077078055	0.255831603625416	0.395709325838148	-0.328052949931794	0.369124734435017
"AACCGCTCAGCTACGT-1"	-0.383886701884016	0.369852221365979	-0.350656041091072	0.0130617127676142	0.45935244767895	0.164668610374479	0.708359834648311	-0.258240922552205	0.0932313672663956	0.0742068030430576	0.214011529452746	-0.0677032494525998	-0.0471583719631226	0.353454956557971	-0.0331700946982937	0.207400125425049	0.0424487875605628	-0.28157862423119	-0.188745080997597	-0.0820711191477748	0.243739410144229	-0.262845777407871	0.380235355136943	0.248546937461124	0.121861252120748	0.060585941723702	-0.114633092838535	-0.327498743571456	-0.305789176075377	-0.037727772498998	-0.516194682828333	-0.322164736243288	-0.033706533344023	0.365994882516565	0.20951676435542	0.174068170103822	0.273096299319833	0.141529111352283	-0.377661979898674	-0.0551261548842546	0.180115263298322	-0.208563451988211	0.112975194526008	-0.31430776689722	-0.206541294638852	-0.599974734483632	0.322646800978806	0.570230247636847	0.0101188457443153	0.189025914267297
"AACCGCTCAGCTCAAC-1"	-0.259579188040963	-1.30133939850038	2.44605713503346	-3.14411977137633	1.26831684137126	-3.79544371163634	2.5289430575914	-0.305181757963749	-0.354802561778145	0.769322094084096	-0.660457407771272	-0.310240743565933	0.669474092541962	1.05789245072348	0.62101683853693	0.700611289221828	-0.0377459002882185	0.360014808654968	0.243266333633207	0.159866146910189	0.282978859887029	-0.0386027801754586	-0.401660737885393	-0.182190940227013	-0.288181976628657	-0.324995862761148	0.278236863514096	0.574907040544402	-0.163702023635417	0.172992654582204	0.0619012357483499	-0.102157853773119	-0.0741735753189861	-0.347133699356153	0.032511398056443	-0.127370243827414	-0.0663534788237163	-0.430393617275742	0.0634496328513214	0.111138265760975	0.0518096655188512	0.190042112961447	0.22898273624683	0.414494598427377	0.256825726987392	0.246089261215837	0.170490022858921	0.0398804522135835	0.417968662270322	-0.157003894230352
"AACCGCTCATCCAGGT-1"	0.539967206365836	0.522854260141578	0.317375839755707	0.0825997677591031	-0.0125781316911776	-0.343772188337907	-0.182434557797948	0.525658227988445	0.543319124962997	0.12598543038084	-0.672000566945877	0.0015515094692695	0.0750152307614193	-0.3995996400155	-0.0966358316524434	0.139356327283891	0.346997022587743	-0.246156509585941	-0.214321149930439	-0.0411559659042853	-0.176107670862728	0.147963761629454	0.0989426731275672	0.0583690692399494	0.170404417344685	0.283616844447157	-0.209424182688256	0.0640798072856732	-0.202968166960987	-0.261687902627879	-0.175914876539006	0.149330436362261	0.385005806779915	0.0679107648333198	0.309227310298785	0.304474046849078	0.216671940366669	0.421225683798519	-0.106557946806461	-0.203820535514535	0.668978786164743	-0.38288695797342	0.0861816918436931	0.202708428643723	-0.323810387744934	-0.141344570514185	0.0908155034424702	-0.0517702072791146	-0.493415569185312	-0.213654937606045
"AACCTAATCCTACCTA-1"	-1.48087657879114	-0.801478133014107	0.733355897073436	-1.07494104716739	1.20730651289884	-0.0927450524383706	-0.188747957767617	-0.365681429254021	0.468553982560637	-0.679867472302046	0.0773438422242396	-0.141548937641721	-0.492183317067955	-1.24993262972487	-1.44359295798916	-1.94613019516315	0.291746401394015	-0.389086062627166	-0.831101393602183	0.280574011891873	-0.251851776610434	-0.300421725988139	-0.490277413987112	0.0688803303602234	0.0105973195567846	-0.0221642787077703	0.257762189991324	-0.224511105776544	0.0542392056844756	-0.291909636243974	0.174239206156253	0.178157606789607	0.364922568171969	-0.440422497004135	-0.197568156351841	0.177660240465982	-0.113282543989249	0.21891582295871	-0.0691974012056348	0.0247358111769465	-0.229157442674325	-0.244194937410199	-0.382745464664269	-0.117614248641016	-0.138545391550339	-0.0286043019366926	-0.108924840306435	-0.142457793052294	0.033896055977964	0.308087827221701
"AACCTCACAATTGCGC-1"	-0.594308850583414	0.459654622052166	0.401706164986612	0.297228906368056	-0.186148814125073	-0.33573728144881	-0.162519646846236	-0.260781061268159	0.588069931428048	0.174730494273541	-0.791086534382093	0.242713441115742	-0.105386151821481	0.507518457794144	-0.129824059739032	-0.121794943007144	-0.0380019475244706	-0.465952308575527	-0.29103379603499	-0.0468326396667322	0.0773573112255365	-0.0680653502609267	-0.0247387988708457	0.0315002461201478	-0.172201859528834	0.054926452194186	-7.01974241060828e-05	-0.0522081494900695	0.17749755314137	-0.233862621469825	0.208296246168608	-0.20453641244384	-0.256928895142399	-0.198854496231156	0.105937092216941	0.127466630697745	-0.096385598115267	0.107712842324078	-0.0182167689682354	-0.120896936281976	0.221268536606356	-0.103311413175704	-0.31943004312249	0.128307309292999	0.260687319587118	0.416447039860012	-0.305308647223429	-0.259575340557985	-0.0911939951865158	0.270963227488251
"AACCTCCTCCTCCCTC-1"	-0.291957236419996	0.286439621131625	0.249960565641904	0.155199818899971	-0.660117254997266	-0.36912676026686	-0.588951661912392	-0.386020692732136	-0.560910306387032	-0.450552219819972	0.0785721671741955	0.224584341438526	-0.0552261700252177	-0.13728882954527	0.0343460249176067	-0.0212246613305248	-0.29664624976791	0.169931288964996	0.0644168917329757	0.533250458079752	-0.202643614375963	-0.0908512371478835	0.0245511689106954	-0.266775668602198	0.0504683997518728	-0.392094010862881	-0.0655451255204983	0.499177818396731	-0.103861049018744	0.393380328657521	-0.00954164457132207	-0.557916054845995	-0.398603175859608	-0.491933112712135	-0.256242056009271	0.113784921836238	-0.343272946066329	0.376743774968419	-0.13197304260554	-0.00118566942361887	-0.815943772548344	0.310256682074282	-0.501483137204706	-0.477794558386004	0.335949176254473	-0.515145043766718	0.317909262437014	-0.186267872691478	-0.305501612369192	0.152194824230067
"AACCTCCTCCTGGCTT-1"	-1.60188387499127	0.213832219603609	0.0412641971869118	0.0412664761442474	-0.0436636016481507	-0.0192766217934775	-0.080604959260359	-0.103487326288495	0.165772484765126	0.131670527889432	-0.708813363845356	-0.00613855676838034	-0.0920741056717115	0.0308376233402957	0.125439758110529	0.00159511474434504	0.140592004023817	-0.216143304107198	-0.0256256600443578	-0.199353572098497	0.082126359441319	0.147339343686241	-0.123515511246574	0.0453551538287174	-0.0194609155364704	0.25488284791581	-0.0312547605662713	-0.141460514593747	0.0288991859620488	-0.193021446034016	0.00789820632442603	0.145513174833565	-0.0641709319779993	0.0461557660870712	-0.00221336789275663	-0.0556030279760525	0.0447726693270296	-0.101898433784634	0.312854842158237	-0.22495049875597	-0.320366221927337	0.0403255178863979	-0.0697399258719212	0.118148349628972	0.0916649254805117	-0.0777747398363535	-0.0688493708788284	0.303537629612958	-0.037929762108879	-0.0899891891155092
"AACCTTAAGAGGGACT-1"	0.430592703953144	0.575774882390908	-0.266498762840482	0.249691607789112	0.0185770845601381	-0.153475606166665	-0.250061323158608	0.530648330479705	0.419337857966316	0.0286500889437928	-0.172625060716628	0.301951487673952	-0.109653936169341	-0.225508050572454	-0.125101376209347	0.528770019323488	0.724145591850337	0.212090360486458	-0.407617429272799	-0.386864682560565	0.357087171500618	0.560970254746665	-0.044826656285813	0.275004675335495	-0.58661066730484	-0.0178447874166737	0.0646485959597568	-0.0635252847089969	-0.438542990914359	0.0881527442605695	0.346900564355176	-0.274962052281417	0.17421471618792	-0.00839721210789812	0.503267506563526	-0.0875289490221266	0.236878478149021	0.356688432694166	0.127864129339472	-0.0812369059338335	0.302878222427566	0.688083233097915	-0.45511280998713	-0.246981241545874	0.213900240423151	-0.0341888983119812	-0.267739200759295	0.669756294820183	-0.309873836235118	0.627059435762395
"AACCTTAAGCCTCTGT-1"	-0.342271452486186	0.281751163232393	0.819468056748372	0.0560175041557207	-0.511692148637852	0.171238535674273	0.38579541564674	-0.256102759284845	0.898178020465612	-0.12189256174557	-0.824012956255839	-0.235567739967747	-0.158929692855179	0.370857691752595	0.0336800314597255	-0.251450756460948	-0.196849328600092	-0.335582256993746	0.0918679994737142	0.236882228746433	0.0883699489878603	-0.00323898861056018	0.114808487797676	-0.281608592728733	-0.251370166633189	0.276681134074642	0.0548914583640997	0.0342759206480507	-0.211674053783077	-0.102546843769273	-0.172634831992673	0.373180767283939	0.300922895399032	0.223725584234086	0.0802340993466888	-0.268922909520686	-0.240218500601704	-0.0486042477122567	0.469536112209756	-0.224399980525348	0.21271521216044	-0.69594322629012	0.167241723895276	0.34312504496117	-0.602681710713326	0.564468397205533	0.214004658452597	-0.246210145828123	-0.249961593626562	0.145974888448863
"AACCTTAAGCTCAAAC-1"	-0.21460555447594	0.402043403335883	0.843998940939122	0.451824531302257	-0.76809292435054	-0.10804243119068	-0.544256008914648	-0.585174920955439	0.0614057081426471	-0.573158861858424	-0.218001553665837	-0.12337825053258	0.331090201461663	-0.14177233035766	-0.249961789364946	0.306375408403042	-0.0872307705621036	0.217581080556762	0.0102697869956004	0.0399208517594033	0.315069259935839	-0.146550880993702	-0.192481138163766	-0.229565842828479	0.0362733570726525	-0.16579913806042	-0.0364993714686036	-0.0461766907542357	-0.459789793463611	0.450437957013241	-0.000573276623448596	-0.0561458323704795	0.114118559226146	-0.450243183765209	0.00686424073311542	-0.431659988234511	-0.410248592671735	0.0281285915236407	0.205125890054243	-0.045955625156505	0.362884299992391	-0.0988879196261898	0.156933398911438	0.183131782014447	-0.367551293935284	-0.33098083212603	0.279514626556819	-0.071938897414743	0.0871881994867074	0.135515767193112
"AACCTTAAGGCGAAAC-1"	-0.568980218130916	0.343516924728291	0.706981321163659	0.226403519017888	-0.447617057285744	-0.109583867274502	0.0744613322671162	-0.892052256274587	0.0284300175817733	-0.373044871218843	0.0896704381423633	-0.329749914307357	0.0787949521386396	0.166222543788617	-0.132062274709354	-0.110200311491967	-0.492544576433975	0.291346077989864	-0.278158684239662	0.153235110982602	0.144805732693715	-0.581329587471635	-0.201142948232896	-0.12140685391418	0.0967473865808807	-0.042104918409953	-0.0337013167348131	0.125386787301605	-0.0122662079010444	0.469774629646068	-0.208648001763156	-0.0442087042664422	0.164010139499051	-0.0215029282136797	-0.148721748913274	-0.182074940745103	0.160193762978231	0.00469408997562149	-0.43089313799479	0.0957927025589869	0.120956909545238	-0.312018611009782	0.193287891163946	0.0252035158786604	0.288216608396501	-0.0344061810449638	0.124636883887269	-0.0894266787348799	0.185981574352195	0.250892206554008
"AACCTTAAGTGAGGTA-1"	-0.0977097347888846	-0.1309405804937	-1.66394750531624	-0.82350138410556	-0.0104680078238295	-0.267086933886829	0.094256460310543	1.29913332912426	0.960720227358626	0.97084357019495	-2.28004217864222	-0.0035835674944214	0.258956626868614	1.54249579934488	0.438696072104015	-0.526786155496483	-0.566305508656299	-1.21190736209259	0.0598563844200206	0.345644459038811	-0.773457457776191	0.784258942704709	0.0778225756475406	0.622769014143552	0.64210180699114	1.05273957751782	-0.1007089990454	-0.901275099644174	0.155060684814257	-2.17926288455377	0.992940143343059	1.10180124587402	-0.267188541810494	-0.544232833030454	-0.24560332484485	0.939673675915417	0.132684322631786	0.472281587835484	0.252329174907631	-1.47980776502787	-0.243050497951911	-0.494095600309364	0.862624820018664	0.0124265354150427	-1.3588281968934	0.39274964005574	0.275195731123574	-0.454692410632725	-0.170211785056294	-0.985949470084829
"AACCTTGCAACCTGGT-1"	-0.0853838539473666	0.549928978979808	0.307749547652459	0.301348453515934	-0.0321862360299963	0.0164636594715161	0.0535735607182636	-0.215292020706144	0.419744767571093	0.483746136700051	-0.590538921543611	-0.0626235352219127	-0.345186370278995	0.337773942072974	0.0623612359035815	0.0116902262578526	-0.338952453054213	-0.392028207902955	-0.390552603903079	0.312605850785032	-0.125741098364204	-0.169427530533861	-0.115259133751146	-0.00743835058150153	0.060940917461815	0.267774812547948	0.0346315381647824	-0.112732580613655	-0.258241866322895	-0.185242378407678	0.050036104997131	-0.0918848714703766	-0.230130580778212	0.121739124113077	0.0508032912037586	0.136672871719569	-0.204900321818084	-0.099358407226304	0.0377642683957612	-0.273672526724072	-0.0542031929363721	0.193935482438793	0.344398849090264	0.275183875951346	-0.0726912610725119	0.0374805606624788	-0.296350173546683	-0.378749018736746	-0.0322018382415812	0.310588042388187
"AACCTTGCAGCAAGTG-1"	1.29948197561879	0.518722246342824	-0.344755676550421	0.113388495064232	-0.292764246680324	-0.766677441643036	-0.448311094900708	0.273864763697298	-0.200679428660086	0.101004732505935	0.250112525160141	-0.167491117872209	-0.130828490629286	0.120223208239732	0.0524096032595433	0.43366466986692	-0.0702730215257993	-0.512484541236046	0.105177439152259	0.337694132843663	-0.040152126428677	-0.0337336847265674	0.590469356355415	-0.0316300686251189	0.0702456060334146	0.00510534491000787	0.66460620208801	0.269551825266009	-0.512756441724337	-0.471858584202253	0.402407305735562	-0.664158450973297	-0.481591625752284	-0.781700877454527	-0.349552632470878	0.641858713614162	-0.703891659624528	0.262208718514275	-0.535639125708778	-0.132242204186166	-0.520674049292617	0.0539739806008183	0.1433442531679	-0.626210496499215	0.915542731502369	-0.896228426240303	0.485375117588794	-0.415158244552474	0.732659483026869	0.258371243914054
"AACCTTGCATGCTTAG-1"	1.69333444026747	-4.60521858844485	-0.475789778989608	4.41056984571272	1.34443948620699	-1.00473895224918	0.237492976699105	1.47523666086132	-4.12722939677839	1.35364868258103	-2.31040647976227	2.73806792996773	-1.64211469866525	0.786044331003348	-1.07916027565517	-1.3993935398127	-0.479703890878431	1.36282961223567	-2.8348478234152	-0.518157246957408	-0.554182500810634	-0.974222927671823	-1.67637308385854	-0.39539498585371	1.79134310725128	-1.58802236258398	1.68683484618464	1.41122329809883	0.209359094139758	0.793089507025701	1.15411616507985	1.8483204255029	1.56949380223058	-4.52975792458162	-0.441117045639058	0.880775734441455	-2.45334276323134	-1.20754019006913	2.07199652615042	-1.60564923101854	0.145246837162862	-0.769841510736268	0.181183906727903	0.918383418889317	-0.239869964025984	-1.97939123244008	-1.4576334415609	-0.387394942288019	0.0334722914059485	-0.554695793047239
"AACGACAAGAGCCGCT-1"	-0.258230803350151	0.359344986727019	0.0784759971937824	0.104790068079633	0.0768999013434497	0.36875958916382	0.447310464620078	-0.605913558579697	0.12215468185295	-0.806174390854323	-0.135445384276975	-0.113491195855268	0.0910258160858084	0.36483410285756	0.0192437113388414	-0.02911120525528	-0.0471909245015535	0.243333319102497	-0.0695136260433018	0.257362401549449	0.496644914926107	-0.290091155104741	-0.0790939240819068	-0.124930486324516	0.158610100015182	-0.37749293713869	0.274693811110037	0.337869914436107	-0.0829832140035155	0.419055575934585	0.244721481498133	0.161722283669344	-0.163667189696194	0.0639595450654645	-0.112095438389062	0.623812138337276	-0.714175211677608	0.0701174649752204	-0.127257244505049	0.0110568126315901	-0.220827484446042	0.153072848861452	-0.736455800432933	-0.00355365786482848	0.0343665630352492	0.135824199236625	0.105222163325729	-0.318214322105675	-0.248131499485262	0.0392629735212534
"AACGACAAGGATCCGC-1"	-0.937951181979327	0.268652836320194	0.63622085084021	0.234244479988766	-0.515169661928155	0.116829387095953	-0.00125094773844698	-0.962819107816125	-0.21083383459647	-0.564031173246513	0.331405091877346	-0.317751574737208	0.0321951428472695	0.265523934049745	0.0464791548675712	0.00146194163973349	-0.203073543017477	0.499164722803332	-0.184748428997358	0.322423065267702	0.326067427528905	-0.626171234334019	0.129590073979505	0.0626364872309485	-0.189496395099973	-0.433148637901513	0.328278585794548	0.259394300530021	-0.204791624942309	0.567649904657752	-0.117038941727674	-0.125798143042261	-0.0186131235892994	0.0108726255383256	0.119114010752236	0.161793768114219	0.0111852295805261	-0.00382811083462585	-0.280902767976242	0.0509289544309237	-0.180064596999277	-0.210474123902803	0.210195557159349	0.0512259173070452	0.191548691012483	0.0684479940456597	0.169866631749573	0.209588761371422	0.415737016346059	0.377089186759223
"AACGACAAGGCATTAC-1"	0.724003864171996	0.621873673924508	-0.0434617270233882	0.191834779620963	-0.164903455371649	-0.371135239193646	-0.630238640665284	0.0761127388229443	-0.82644607566589	0.417416493994634	0.0738661057669793	0.38147362408625	0.135134125856632	-0.357774913363241	-0.285569216747147	-0.073269637417877	0.0696034884943016	-0.0122537142943699	0.310870760671571	-0.350329504975199	-0.222629908062188	0.0749428857619181	0.84401488158439	-0.0252742931501546	0.0840781991304901	-0.399752352214718	0.344393282523702	-0.071556036678962	0.240492438695675	-0.305141577488415	-0.364841955701085	-0.23494839744713	0.0358831920280327	0.0820595080229459	-0.0684519396262867	-0.120197736665946	0.139339740204068	0.486108883315609	-0.274874129321076	0.538243640302284	-0.305595648404744	-0.174326178066387	-0.764882602922784	-0.261651057192502	-0.716693085895931	-0.846490623921206	0.681283307105057	0.0687611990341979	0.191677670178496	-0.378293603647312
"AACGCCCAGTAACCAC-1"	-1.94405282970531	0.190063075584236	0.100225292029941	0.0606987929154722	-0.0954008205990886	-0.022240350085202	0.0691367232999164	-0.181267838344606	0.0745114078207583	0.0489416357808676	-0.163522446354357	0.0441151710281069	-0.0275158409510499	0.101054247081864	0.208720632388981	-0.10019872304211	-0.0425861983037219	-0.103560846621635	-0.147061404249847	0.0572246164948981	0.0779455023188939	-0.0939092522206221	0.0745613555404099	-0.0996041608471794	0.0994093183539367	-0.119776181467039	0.116172699342804	0.044297212315672	0.0234110968229422	-0.212197408906938	0.000783299185113929	-0.0125384064910149	0.144300713585544	0.0468089491995393	0.0264966943259043	0.183038482418156	0.158687873637316	0.00438753413413959	0.153817557949482	-0.167356199252803	0.0938781078566526	0.0815986968183463	0.0220638803230327	0.0315352315372167	-0.129835953516218	0.0990837379335079	0.116159965955416	0.107642601780117	0.0822018014662075	0.168661316864878
"AACTAGCTCAAACCGT-1"	-1.88968300199745	-0.209039751420135	0.963708158486166	-0.38510627549062	-1.02552398552766	0.75842697219545	0.435132990274864	-0.111610545283635	-0.289517362822429	-0.0384609310115917	-0.0659798879919193	-0.0389300857772082	-0.0584333621447632	0.308313768099213	0.0356807089100123	0.000959527351199831	-0.195594894139259	-0.0951631377594373	-0.123163232156527	0.0845208634560042	0.0862918370808196	-0.0959676561984854	0.101113813734664	-0.0271920813551412	-0.0960452490654015	0.037157229764763	0.0750080661928113	0.044370013171514	-0.130576556396913	0.194839002587826	-0.0687042077411977	-0.153628726574382	0.163596735527865	0.037344009686794	0.0072083806916291	-0.173170388469764	-0.0855949625586062	0.126449928211191	-0.140890079425426	-0.0242683297995791	0.00114336513115259	-0.0121400173560564	0.0621863534903344	-0.16334266477084	-0.12632482193906	0.0833644112405482	0.231142982238683	0.0802733754248598	0.0600150860127846	-0.15884855562238
"AACTAGCTCTTTGACT-1"	0.979934617293188	-0.772099680919143	-0.297840646748969	0.411397367361477	-0.241211368724478	-0.122802470602254	-0.131060817346012	-0.289500637659864	1.27539632353602	0.011588128382788	1.16209134911399	0.127090848026588	0.149117207861596	-0.43659926780142	0.00296497197073697	-0.0837252564530246	-0.328645007503075	0.687868046411906	0.453486321631931	-0.864195118443546	0.247755911597964	-0.319930023157565	0.0053183632438785	-0.844238036791322	0.364584208161042	-0.642836084448216	-0.200203284870789	0.613044965835002	0.657988070911162	-0.425354105165872	1.63396120783002	0.86588682411753	-0.612610335893445	-0.563492492426111	-0.366691072906967	0.68598213170934	-0.729802719814778	0.398791077556656	-0.488545385030639	-0.525570142930393	-1.57204132628381	0.278947219653175	-0.133227268978219	0.0461506987788896	0.957192913922013	-0.535980887667545	0.275064002741921	0.655034083054539	-0.642023060469912	0.534737003220963
"AACTAGTGTACAATGT-1"	0.0433718590268477	0.614721513392692	0.464883798887051	0.470973786318607	-0.301972629961889	-0.439707661698023	-0.275751855959019	-0.789858845203468	-0.02350052581929	-0.239003886994447	0.122642890461646	0.0058490370236398	-0.32642970258266	-0.0321569372229919	-0.0350748985482967	-0.326901737635269	0.0872773760241301	0.198151509116379	-0.21787009743126	0.0997753463430763	-0.0107011237179212	-0.27963759164332	0.00441546186547258	-0.0379773959531447	-0.438222778983496	-0.267831329656857	0.159885595047844	-0.151394851167048	-0.099167802895271	0.102565701049712	0.0787921832451142	-0.352575335837453	-0.039095590916881	-0.0765341441612544	-0.166487075771615	0.666673411705133	-0.682259772089976	0.147750621762532	-0.21735664895937	-0.139326511708451	-0.305144448236478	-0.167976737711093	-0.163402158241089	-0.420702554611594	0.414692625557336	0.0100609519067381	-0.279123151106041	-0.247042819958551	0.0355492890505697	0.0860345844973094
"AACTAGTGTTTAACCC-1"	0.841501791434096	0.322630680166372	-0.938933334748525	-0.534960499337356	1.13383428941818	1.41285914544295	1.63998994562136	0.128371568948593	0.226687051539673	-0.321115454040488	0.637272480727274	0.605103160922854	-0.421771565227262	0.456210299560525	0.849617648934417	-0.29312251241935	-0.194854901349361	-0.411212718326948	-0.493948753701169	-0.496129627982567	0.128764489904504	0.0709383498172892	0.474056375868524	0.853258487549586	-0.217615720498168	-0.357912994417007	0.582898571671359	-0.600876471154598	-0.327275503625522	-0.0850336407486556	-0.91206444206597	0.052101460702807	-0.281115869792066	0.288859224668421	0.0351300277943266	0.988895871337948	-0.557346175258505	0.302137151823306	-0.684101024969656	0.0330291789800966	-0.63623099238887	0.330403501705063	-0.250397194150834	-0.0727783270484463	0.444525442904792	0.648042500634524	0.0831949552104814	-0.0105713248222155	-0.336323444880487	0.758592470669271
"AACTCACAGCCTGTTC-1"	-0.206469912318446	0.408664262553965	0.594384268554673	0.406728832207964	-0.194748439113464	-0.0355873136364557	-0.313677939291686	-0.874101047297387	-0.308962666683022	-0.564761239098379	0.132648685852439	-0.566784607515488	0.320986082631606	-0.194839446935602	-0.394935095655763	-0.140774482400142	-0.359400747763702	0.204220955691747	-0.00992931164411496	-0.055282330363916	0.74463723914589	-0.214271175062549	0.0947619495368189	-0.486512406843844	0.0500896041879143	-0.374169482746847	0.0183497950902144	-0.0240516100319532	-0.573108414299011	0.784013232931906	-0.348528681290449	-0.802057984766384	0.00998905922373324	-0.351945946465494	0.117563402224533	0.496925750354694	-0.607422586070461	0.216549718270964	-0.242213683504634	0.203116486411762	-0.0537828936742187	0.172919889891887	-0.132199444931513	-0.0520908920973927	0.00952247805146236	-0.529355351665681	-0.0671448846135726	-0.154715451494789	0.0976086539221137	0.476172894929894
"AACTCACAGGATCCGC-1"	-0.546473473057979	-0.229993870787474	0.756483359951064	-0.543129757607238	-0.986775967319314	-0.189016480239245	-0.879631033812019	2.27190209280524	0.5985101692702	-3.29238788696993	0.0474443709142667	-0.190413977831352	-0.0141250906167614	1.39912103178944	0.532118787804645	0.253527973480966	-0.485822968426893	-0.822326130493038	-0.673499722077585	-0.0126006207648729	0.301765549927773	-0.228659507642042	-0.470836961902738	-0.334703956904368	0.111954438380083	0.157961692141294	-0.121047479303814	-0.19631977310168	0.136556506106388	0.15079758328518	-0.146191963965919	-0.05918308680339	0.311323937707727	0.00217161689268981	0.308264804311484	-0.00954613190558941	0.328952353621488	-0.0976734409647114	0.210562761930064	0.453928553712187	-0.00647450490610573	-0.128841355551575	0.0731000125667295	0.188041169178716	-0.188174166912027	0.386678745740149	0.0167189295135657	0.293336831478026	0.0522578156017267	0.196444444883919
"AACTCACAGTAACCCG-1"	0.329391773866146	0.344075545640809	-0.633386292854305	0.0934840156370764	0.416167826280913	0.60937069499184	0.548757385070992	-0.93041515719901	-0.661109328134792	-0.774681953390941	0.83464300457506	-0.647639422194213	-0.277098202117824	0.194840028976833	-0.189406580000097	0.0755150951826012	0.727324883234836	0.105694892399962	-0.430151401080254	-0.115875502311273	0.718519359480011	0.213930472296853	-0.221266039530224	0.375526419042513	0.592497412081005	0.269941068006945	-0.113974222889081	0.446959645584917	0.864068353951829	0.0383376807280822	-0.0315630288436261	-0.434956763526337	-0.196314924533758	0.445980764460596	0.138018257097066	-0.320178460195208	0.853624120795031	-0.537250091255176	-0.260096749307176	0.466220176719348	0.424969752176714	0.105329723388393	0.317341930837278	0.853273588413424	-0.253538533399906	0.81470808858751	1.25032571937422	0.0493915399614886	-0.178692273065584	-0.00294237760395745
"AACTTAGTCAAGTGTC-1"	0.622474522301117	0.511081628752103	-0.0112212194151024	0.181375809249763	0.0404376871473098	-0.433862771666955	-0.294076327294581	0.280836400550439	-0.242758861329477	0.0783760123205868	0.070154490217155	0.296154224601206	0.20061255336479	-0.580865633557559	-0.0758120748021253	0.00438479781439131	-0.467389406960507	0.41773765087754	0.422051309563584	0.342297256849204	-0.23224491775192	0.193372737174948	-0.673137621634975	-0.264645098034222	0.42850553619722	-0.296067399380496	-0.0871226112751608	0.296467761768292	0.224202024004025	-0.154908900992938	0.0644471218863107	-0.579508437980249	0.451204954303266	-0.666727655340486	0.0507535173023956	-0.89450378844343	0.0292575512756883	0.386911240327278	-0.24633224323282	-0.337170320576762	0.406575073846308	-0.459960768370231	-0.24091260806704	0.489085353254806	-0.320420409176708	-0.196241950781645	-0.583514680751813	-0.64926756043005	-0.433715992689581	-0.620317520320296
"AACTTAGTCATTGTCT-1"	-1.27403695650762	0.235704748789442	0.154162506156331	0.0933091301275935	-0.188747977378689	0.0622612002234228	0.143831788786122	0.0252370452116968	0.345609870754432	-0.00301069896631178	-0.338178893370764	0.152006634979925	-0.0790226227741165	0.238798822471723	0.0970402841195774	0.205295166312609	0.101634136526832	-0.111591985143302	-0.347836102168724	0.119320777668851	0.00261626693521197	0.133604899254941	-0.04732660094332	-0.0125505730942962	-0.0119800804940102	0.397406015537303	-0.247453739391101	0.0152191095523753	0.198464186262246	0.064937758315625	-0.075046182047515	0.188640871369213	-0.0674611766995525	0.0240760187838845	0.124992695588557	0.0935266393948309	0.132199870926846	0.00201661788410904	-0.114329453653734	-0.274096753074313	-0.265139629460689	-0.0419206479911255	-0.182788433210503	-0.0732457546143845	0.0408538651176228	-0.0272147765857329	-0.115364444226035	-0.0329854754972739	0.17916340859923	-0.1389745110476
"AACTTAGTCTAAGTCA-1"	-1.12943878445214	0.223872221891159	0.286542355636803	-0.027299704308734	0.0342180055285659	0.671380333874955	0.907710729949185	-0.818037853379561	0.102217283579539	-0.608560937760532	0.219793703166328	-0.288718667843443	-0.110030127969966	0.494122601372452	0.037622976872994	-0.128368814601122	-0.058349041833778	-0.223248840786804	-0.4641657870362	-0.0644036267094231	0.333246797993717	-0.224691437186519	-0.0512027549861698	-0.136087315006151	-0.282152481339535	-0.0796812776045544	0.55495706579841	0.0431117768409823	0.0470580792102698	0.37931061935249	-0.0778077364436172	-0.0261253049137842	0.0669076636229462	0.378459926878912	-0.0168664284551018	0.152803089961625	-0.518241505109134	-0.0411784856205617	0.137784015175464	0.00879770587470393	-0.218221909792201	0.0275199597758704	0.325702102524916	-0.146006692554559	-0.096865723649881	-0.237303973199398	0.0445469778714241	-0.016710760108264	-0.100115354804467	-0.157268478490451
"AAGACATAGAAAGGAA-1"	0.442574009315874	0.411631373172277	-0.44984916903322	0.0822136525043434	0.78430865599831	1.05772509411593	0.958850562136183	-0.664254783716847	0.177339209194061	0.0980613927912082	0.558666141620966	-0.372631416403876	-0.000870483924181143	0.0523452174268996	-0.821324745285594	-0.0866246755070849	0.224923573102436	-0.284025780014391	-0.449150883316399	0.110050913613567	0.210158034142717	0.113830108215459	-0.321687847252914	-0.347999783951715	0.410114272232765	-0.0589380894410523	0.324794104928798	-0.170092152875419	-0.746942728340367	-0.0263699393203183	-0.743393826736514	0.570968502362008	-0.0718280473824276	0.324830493027814	-0.0990623103345065	-0.497189350313549	-0.0263418402217268	0.0288735611175111	-0.348167396405423	0.267302766213457	0.149154903951228	-0.347802656483375	0.924994245828267	-0.217678259161283	-0.164493484238992	0.405025729988661	0.653041066383423	0.55081426182582	0.241875812705132	0.654873920735424
"AAGACATAGCGAAGTA-1"	0.692041093607465	0.491099421051859	-0.232927058108825	0.174528830109753	0.0636363215529421	-0.237024917594154	-0.524622716133805	0.344021366345361	0.293000428791919	0.425131381606446	-0.269223646458326	0.359887371570555	-0.0260509402363731	0.431229293350835	-0.424472395701867	0.0859955946000924	-0.263955301486625	-0.14501380000627	-0.0150575202880412	0.0687819342526419	-0.269595578767943	0.482249942825019	-0.243611697085195	0.307155339763021	-0.123644662019503	0.268782436093992	-0.579939277920753	-0.109433932784253	-0.487918293632447	-0.760488684848266	0.112292829587851	0.462949188494845	0.227473246108767	0.00946107537511519	0.0284824256015494	-0.373658026950848	0.264314336139712	-0.422715950095689	0.58515226233165	-0.10267218215918	0.0478024004007433	0.170433045001455	0.676292079852104	0.608421240299338	-0.065094751974688	1.15134084062087	0.116407967776893	-0.0498123933918965	-0.397396978776748	0.312686487497112
"AAGACATAGGATTGAG-1"	0.861136311450695	-3.38998599285497	0.22659597329509	3.45307439531202	1.43263075637249	-0.430061374466177	0.761453813003794	0.679913211539006	-1.79482916114399	-0.658202472813529	-3.19920054762917	-2.88917244501047	4.72757308915887	-0.678780595016269	-0.778650211359516	0.869368860791063	0.80134841830621	-0.0784978938321073	0.841729985609822	0.71925333526881	-0.650069893914544	0.566270616026675	-0.618388273236247	0.382984101713262	0.417172355223578	0.672633657385957	-0.114627505827772	-1.17995882855837	-0.959650225836408	0.655148578493277	0.441683638238063	-1.98299731558861	-0.908931631491014	1.81512640765444	-0.275093858858108	0.273371066254659	-1.28159514959933	-1.44979349752694	0.874522651825225	-0.494142251990297	-0.0960916773946449	-0.707259654895381	-0.0897115159430688	-0.682307974052277	-0.0821901784948917	0.879192232556912	-0.951315792784273	-0.803579293977775	0.202464920033124	0.53406227550273
"AAGCAAGTCAAACCGT-1"	-0.129612325860454	0.462340629724283	-0.305624839464583	0.215304967245233	0.534176585996827	0.578272384578593	0.819957222169407	-0.467946869339	-0.151212974064269	-0.369701236446501	0.45941095660954	-0.271056012526759	0.397286759778538	0.600764755849218	0.0693522200014701	-0.113609995149862	-0.319451726270388	-0.309698769324162	-0.0631097439903547	0.00238459977937169	0.352553845438905	0.0682879587257397	-0.572721690539242	-0.218088718136148	0.052404863764869	0.449616631830613	0.487071858017122	-0.0838802118948693	-0.285800655050188	0.0981692866873873	-0.0752010387656311	-0.042445724805486	0.357812114867674	-0.0669661398032585	0.387002979960412	-0.470921291914164	0.264221974708658	0.17521950996784	-0.256778634176379	-0.577985516303347	0.112395676510691	-0.115790563075577	0.606039479102483	0.44514069898893	-1.11581750336973	0.365880083835629	0.0345074697095633	-0.466514188833933	0.612799221303118	0.0622999740537986
"AAGCAAGTCACAAGCT-1"	-1.3711611378551	-0.371624141642309	1.48858076260059	-0.768725248939863	-2.20527338542997	1.5119885405927	1.09945575613708	-0.519030215540094	-0.469752725854036	0.268338280975837	0.0224436984810054	-0.20728911111907	0.373178672299567	0.474262890744581	0.311423123859493	0.0267215100210805	-0.071446641026783	0.107587347877793	-0.421051623871789	-0.0699300705884252	-0.0204194441527794	-0.420692348156602	-0.313549939696021	0.0797499044327744	-0.0507243126231164	-0.123030936046186	0.132748213378669	-0.03487033576318	-0.117560661771514	0.219521516701125	-0.0221621258491412	-0.0657557038084975	0.239100161117084	0.178752826004596	0.249722709354022	-0.0387501779493817	-0.194397284023649	-0.0702574416675644	0.168190128180682	-0.127497407905725	0.081629320462989	-0.176786244010612	0.214709372867828	-0.0444714725148956	0.0252588516405665	0.24532366183648	0.157319160020619	-0.0253358571463244	0.152985856716872	0.208323002236351
"AAGCATGAGGTGCTGC-1"	-0.226882789195792	-1.22070851969975	2.57843284090715	-3.13097583282672	0.805579120110965	-3.49855026260893	2.59029276513357	-0.15115033264099	-0.147524802613968	0.818627228627279	-0.576497331213255	0.454221646762712	0.542351786338226	0.567832122119114	0.721665741790531	0.927955715856075	-0.270412267921365	0.0467438919849984	0.0380203391428151	-0.126726927015736	-0.0867846794655299	0.311303476416639	0.286803088722409	-0.528124570062346	-0.0708747136104208	-0.0187377014657968	0.405448197030272	0.166153474902632	0.66676195636175	0.17011888399131	0.109280243495832	0.0044845421002017	-0.390800987684296	-0.133535814450118	0.181599700987072	0.689851835021991	0.188597401525069	-0.700228282575591	-0.148136459670498	-0.300269576493554	-0.197930976815174	0.179643515462116	0.22213248453472	-0.148714229606183	0.184026903948358	0.302982845694997	-0.0422729519375038	-0.0669404389709651	0.0933645303841258	0.425955989045436
"AAGCCACGTGAGAAAC-1"	-1.60209654269795	0.18031908264698	0.302430226548385	0.0533482242597908	-0.27133795984226	0.0869441375568963	-0.0708412773546768	-0.0945619793108022	0.209722191964419	-0.0748549859269365	-0.346509687222934	0.0981822093145606	-0.0555696776420726	0.156275005622057	0.167180154929939	0.0458708810425942	0.142882604592556	-0.0409115899618666	0.0249528409822847	-0.0946606300139335	0.0150088732617072	-0.215439936594158	-0.0822571082101641	-0.0969653938410513	-0.0151177727782446	-0.014819108998414	0.173191891002274	-0.14624166015825	0.0261682304306513	0.0593501760757719	0.0989827953861907	0.111009709842409	0.181396666119921	-0.128618491667392	0.0821271188146186	0.225604133631283	0.00118146710671702	0.181697149752976	-0.294176699303144	-0.221422628966484	-0.245947583251991	0.032489963935984	-0.187290442082813	-0.179945327186482	-0.00732019953697466	0.0747962273434715	0.301727822349049	-0.141218911782608	0.0424639125748825	-0.220666908626618
"AAGCCACGTTATTGCC-1"	-0.214555219147315	0.376290296091973	0.0845936152661473	0.172800169154861	-0.0225394822297034	-0.318676605683004	-0.221497195503796	0.294393463997657	0.0124780370556187	-0.0609664312234006	-0.0941065828055441	0.20439282867475	0.00816892569609416	0.180938361907931	0.804165752273177	0.047814292814843	0.26755683674725	-0.2905137657327	0.0994347319424148	-0.229638653072532	0.236567773573164	0.126718866441126	0.499602146750759	0.324676740308	0.299330075389034	0.000852483314042885	0.0947979768300055	-0.0342048499108724	0.752055758056448	-0.352955071438057	-0.0272657968257476	-0.374094377301166	-0.686706311511761	-0.0580575227725835	-0.00579226770904952	1.3101636801142	-0.824001733999435	0.384073133648495	-0.479912902381746	-0.295937922092061	-1.47091390031737	-0.0779217852050596	-0.30967720133929	-0.400580692143619	1.4821130740119	-0.157961964389698	-0.233587589619051	-0.513329922255578	-0.567779960531817	0.103368289766964
"AAGCCTCCAAGGGTTG-1"	1.60398054808834	0.769171441312207	-0.358374264125034	0.333187120928406	0.295657282629146	-0.611817198107393	-0.990865181184006	0.745523345577231	-0.522000831525219	0.368867354883329	0.138329103134192	-0.0296068195736464	0.0611815044176786	-0.50958114834497	-0.382381627911106	0.073522033620828	0.0679603595383939	0.547816999701681	0.732343534924559	-0.0481283454757413	-0.200409416495862	0.843702538152691	-0.0673303013225471	0.0799031455017781	-0.0522625110614931	-0.672048543263266	-0.071879690001541	0.144664328751165	-0.398387457828115	-0.292385028663974	0.258895310801805	-0.184825843219093	-0.199073533606369	-0.77267642045074	-0.483572361846618	0.431059497633137	0.929901688334894	0.00647404321260291	-0.305686153164233	0.212092213477964	0.0411812521073194	0.12776734494227	-0.459683170293804	0.710971354360255	0.342340185086282	-0.196270296555204	0.0485341300133482	0.00502401230342691	0.43101446307135	0.371245026378126
"AAGCCTCCAGCTAATT-1"	-0.337241036352909	0.460998622864718	0.422981470499077	0.344116119206069	-0.253070312967567	-0.313668109854221	-0.18669043254293	-0.310260966342994	0.579349657284515	-0.0157360258634803	-0.866678874261484	0.193696332212063	0.0421585985999281	0.596662388745765	0.0352664513612005	-0.334580978170976	-0.312621160475028	-0.216775352717533	-0.0568648272863572	0.128462597696684	-0.071071216556876	0.0935093390784706	-0.343534334034049	-0.0180037667588093	-0.231861741358508	0.504766880913214	0.0113038845304019	-0.0936925735761775	0.236417722858873	0.0563726558180142	-0.137228568517528	0.294123237103686	0.0683667306310711	-0.312075318325895	0.309963017034151	-0.275312956431574	-0.124642192666943	-0.12568063031407	0.232168951181387	-0.202364278567167	-0.166830982268652	0.02877917353128	0.0764618294075397	0.267631843926805	0.0084877693035502	0.322555980955255	0.183396591210902	0.0162444845345709	-0.368504242832786	0.260255369672988
"AAGCCTGTCTTGACCC-1"	0.733959679606767	0.602993122359162	-0.490588952649428	0.0686649740491355	1.13961111070049	1.08786640387347	1.08074610817561	0.00901433603663667	-0.302859052111014	0.276513331748982	0.758831135136193	-0.204523526846252	-0.71561373486716	0.113599454821069	0.311335330909423	0.173717273594018	0.478660256896744	-0.417416769440982	0.189675962945501	0.231641433095926	0.449802582785411	0.165974626534245	-0.0176581214620962	-0.404619858684411	-0.343142760731973	0.392359822839316	-0.171174507085196	-0.444734664274639	-0.289840921002588	0.541382060113983	-0.376783169050313	-0.384781454816882	0.192315519045721	-0.0793119728512077	0.369545961684523	0.0701643201774002	0.433838259751111	-0.154837469447159	0.375927895195719	-0.302996709645206	0.23371463872748	-0.617071062785058	1.54322127208845	-0.271023690505142	-1.37363866303703	0.689661547007309	-0.913261753373231	0.120818806971823	-0.339535385964981	0.128112913947415
"AAGCCTTAGGAGCATA-1"	0.164309574477647	0.463204661447427	0.556159018649211	0.310211764825225	-0.36796880339471	-0.247026653811067	-0.0552977008477934	-0.553004090922089	-0.190301161348509	-0.0713068728446278	-0.0321544747171435	-0.369757769133677	-0.103563931648605	-0.333053590480378	0.210396201375436	0.483378502803941	-0.390879951316234	0.290999533583216	0.0182608570575237	0.127648146399523	0.381029340711807	0.221232525395959	0.390652904012617	0.263514839427599	0.333098005311167	0.0709322489393159	-0.127245912337236	-0.295836679942334	0.279663906432321	0.890600795569741	-0.352639445697372	-0.569045923222476	-0.0952675344231534	0.181383402217827	0.180040629537833	0.084473478661517	-0.259033503623457	0.0834508280342802	-0.384457986753193	0.06384899095207	0.118755513360549	0.0709990942058827	-0.190927367560429	-0.411830731639543	-0.00999035470667142	-0.332202644713461	-0.581063415889427	0.165568020695755	-0.132912890683174	-0.0315160811440021
"AAGCCTTAGTAGCGGG-1"	0.0221948681044749	0.348934947367513	0.0286938057380633	0.0784719030749971	-0.0831643014232551	-0.239483637187923	-0.371185721066434	0.389407329133359	0.37554536735536	-0.40242847937905	-0.595503478183676	0.0202282019239792	-0.00419828642064016	-0.163283230985727	0.0837615548747857	0.0758359198330772	0.181055186676352	0.0823826146385617	0.111039291731488	0.503224963768212	0.154621405967647	0.403536661148097	-0.153820316280939	-0.133271269230666	-0.377342780449136	0.628075983275289	0.0194975486365236	0.0679103961719517	-0.203487189366679	-0.390816845221874	-0.0538211425466865	0.160220694202365	0.334694905860697	-0.181911538178298	0.150218389979806	-0.296381879689435	0.165939165009064	-0.3009047257983	0.478861136624626	-0.528537088413824	0.0880283183720324	-0.0724093738706999	-0.0525722756143573	-0.0714941092490831	-0.503852611930675	-0.325383606715209	-0.241923148031435	0.399873831711425	-0.0828427059386913	-0.223403601543047
"AAGCCTTAGTTTGGGT-1"	-1.52435005191752	0.0501118786315844	-0.0185394577422346	-0.00109658558406557	-0.302185295576197	-0.11758462060994	-0.123634433411266	-0.492511337345182	0.506549239522046	0.00538114203366156	-0.106136418348242	0.0568780427489286	0.0949722636276807	0.420705433991334	-0.0184219112901269	-0.0306050935188246	-0.429032190716286	0.0284207731717259	-0.0272070054604954	-0.134636613265758	0.178937429435869	-0.320730053116633	-0.0608786222119163	0.373852650855004	0.164340779815689	-0.330706064934134	-0.427874771331742	0.112811809146065	-0.28285654695032	0.315907831356089	0.241101571600761	0.324187894197038	0.306214003152996	0.0631670232346409	0.120824332105939	0.0325871866221802	0.265874217430457	-0.09628757423279	0.267751974027569	0.0989111980039768	0.114157942282824	0.0105609525790817	0.0976100547684109	0.230686497665784	0.193413575566591	-0.181473102965997	-0.019506041515457	0.0996253287228056	0.031158886330166	-0.0237811562705897
"AAGCGCTGTCATAAGT-1"	1.84393199507641	-1.92232762244986	-5.72276791371125	-2.83091331941183	-5.30206893042526	-2.63573350303468	-1.59895684778939	-4.13972339665009	1.5628985327235	-1.6205495709048	4.97766359823803	5.11910527069493	10.2982223602546	-5.84737254472805	-6.71699615118045	-3.46585274643376	-14.101417909203	-6.84038481628148	7.07380435226067	5.76184390069997	17.7275755370335	-0.91202496654017	8.8979105471054	1.77637343105218	21.845906953566	20.9406687415245	23.9435802894321	5.08472180229561	-3.02502629455487	-10.7452249556226	1.17220735551166	0.482819488125293	9.81411776047358	-5.08751494174081	6.72084396027272	5.58738396358282	9.31131361657033	4.93762051266307	0.147935067611128	-8.25444268868387	2.93534476840296	0.262421123204918	-1.51648677164513	1.20129642880972	-2.22540871405448	-4.49029968485562	-2.70771312439421	0.122291534402075	1.60365244147573	-2.69313839372103
"AAGCGCTGTGTTTGTC-1"	0.929017141149222	0.598821450935574	-0.170868885325468	0.357262970275906	0.109785401387439	-0.344757117383277	-0.484885404863692	0.525164101872039	-0.549673808231964	0.349670650326253	-0.0408979551760079	0.330377180561639	0.087062747079722	-0.576376692935477	-0.333972713903707	0.120470425762321	-0.200602528002524	0.225598035863908	0.640896603087583	-0.349093338672947	0.0829147997495673	0.156071580987498	0.240279283186198	-0.0826387971504033	0.830290028762909	-0.167139257783218	0.0380021788869396	-0.303237760941228	0.545302824233222	-0.458811922715939	0.472484254512431	-0.188690854137374	-0.0744987795293873	-0.414010344780433	-0.122039640816954	0.585880398328498	0.113808105311114	0.218312057472232	0.0367951522800777	0.267806282513328	-0.118048926512863	0.711547784379914	-0.0913539436754277	0.485794784311825	0.208861245980996	-0.475554628462075	0.0729715408077727	0.0988189693393859	-0.14402591494589	-0.0102007819440982
"AAGCGCTGTTTATCTG-1"	2.56838372770136	0.81255850903454	-0.947801951263247	0.33690170350005	0.55022096536579	-1.05348521319608	-0.879679717459721	1.24144673330237	-1.43319474427763	0.696196238901113	0.200250236748572	0.175596773085767	0.0347734237556481	-0.933880276969963	0.0321168113728947	0.503540027492073	0.255015304761749	0.511484921700384	1.05281707383822	-0.569658806781575	-0.318711731819923	0.17617334756673	0.0302226624519056	-0.142181980259186	0.387779842011854	0.172599213388385	-1.02625902590606	-0.0764760303290317	0.193316966304095	-0.166339553943408	0.283087897759592	0.323509238341195	0.340415248320431	-0.0504904827230291	0.236479106428636	-0.682373158681321	2.01839132179174	-0.455675733678744	-0.439941442775019	0.0118059814082032	0.709379925527541	-0.296623174643089	-0.00852785162277182	0.20193296101647	-0.664937917622005	0.161335448361625	0.25799655472447	0.163657561205082	0.386055564417215	0.0108019198460069
"AAGCGTTTCATTGTCT-1"	-0.754956873943593	0.344938686105237	0.631258737712856	0.172828035992163	-0.455942460035146	-0.0287691879711869	-0.209829560281337	-0.361796268446107	0.434662780427627	-0.368369406981642	-0.444841935358216	0.0255742945331931	0.395756061271403	0.291754225141287	0.141381319202198	-0.101528479575498	-0.487917848820966	-0.388130067120944	-0.0744834715588078	0.133237255521379	0.178848760735013	-0.180365835092802	0.338434829690884	0.119376398881641	-0.201073055482413	0.0805750101668656	0.130928166021073	-0.234517083928399	0.104938015372575	0.203790198952087	0.0204519240929684	-0.0314471701087335	0.463139237502185	0.0345923345677585	0.0894132677735004	-0.377277127678872	-0.28374704355734	0.0723918499540518	0.304304895567472	-0.200775684216852	-0.168143675886179	0.00470870546807818	0.218275741126541	-0.200796497867725	0.183545671688075	0.292134700019068	0.257640738522581	0.178580768915729	0.066016833295684	0.263562429771582
"AAGCGTTTCCGCATGA-1"	0.943100874183605	0.656954757996388	-0.320732883865721	-0.0201933385870615	0.32183941033963	0.00131204590796807	-0.531819679635532	1.22037083192003	-0.0804742098678937	0.247908511921692	0.223919001820461	0.400544327329957	-0.168009092101556	-0.881088345260288	0.0859885122516477	0.12365806592034	-0.263958738304605	-0.385210021783136	0.279720409281676	-0.178075414373048	0.137172169751679	-0.0236463121657166	0.527083538533243	0.302694478693402	0.415784696709295	-0.258150814700358	-0.580216349081791	-0.150451441259001	-0.269256911989286	-0.401319921249538	-0.108074900986011	-0.37346367647403	-1.00394774280001	-0.696667526494502	-0.301763096361793	0.59314150185437	-1.10183844472067	-0.152334912578347	-0.866370917926339	0.0398226419952259	-0.555556524976901	1.14122543978783	-1.45810169543943	-1.10046418029982	0.721021538520207	-0.253816229300462	0.103516632659712	-0.286984314806448	-0.234530329331787	-0.249370645402972
"AAGCGTTTCCTAATGA-1"	-0.77985352901544	0.280593207865229	-0.0655479044860314	-0.219075876046286	0.170029865253275	0.0292346266376406	0.134264600193567	0.882858419129331	1.4828714641073	0.602794584037497	-1.0113173263118	0.179295660997204	-0.240203957219331	0.64164478657935	0.18833704531364	-0.50697013570684	0.447908280929176	-1.01906948755716	-0.112675324928109	0.0983086383420023	-0.312779285910772	0.553836218432006	0.438576774862405	0.78688340057004	0.0229473080469379	0.988277416078273	-0.0406542182122847	-0.58768796026643	-0.0862227459938806	-0.800838822946137	0.175392495457231	0.139069652838062	-0.00470894712832112	-0.0996723365000932	0.515659331620941	0.498564231951094	-0.657609368161958	-0.0589461202990944	0.0727017774804988	-0.473662052045299	-0.940701202195259	0.0143246825508828	-0.512870219533673	-0.542067711674863	0.32971077295262	-0.158697779391554	-0.163970061832858	-0.309859907372634	-0.420809436182568	0.0842309997026744
"AAGCTAGAGCGATAGA-1"	1.1342833266922	0.592808763033472	-0.632170685438052	0.178466467757783	1.30974482569604	0.879970454835985	0.39121781357195	0.50635066354096	-0.710386315707061	0.16068793349613	0.953492866283315	-0.761609106734039	-0.0745465980186354	-0.539838906951509	0.000786197347573648	0.33472328620865	0.563836200517555	0.350719355316964	0.0578262676705296	-0.171490466353629	0.509573969531974	0.229006882359749	-0.788045718391228	-0.0577484183620755	0.119181819184645	-0.416653457002702	0.325935765528273	0.0297645056688471	0.294545072460243	0.287395652051279	0.449328832209866	-0.14544718914688	0.272137724504006	0.239816704256723	-0.76194903398139	0.821783252268923	-0.0591496297753039	-0.415709456672455	-0.371463536444532	0.0490624655648853	-0.0230133267038514	-0.569534882134685	0.15677929668524	0.19020048818028	-0.626062541397557	0.103569455745121	-0.238501514393043	-0.136276980893195	-0.322106540290137	-0.160945353075177
"AAGCTAGAGCTCATAA-1"	0.932190303760325	0.576681818915296	-0.170070266208683	0.282610544378967	0.0589133717063414	-0.248881027295886	-0.591030053535447	0.479310923490505	-0.376281527227013	-0.11363708441832	0.37748479482934	0.0103440400629537	-0.149607446666688	-1.04725274877393	0.170697359122438	-0.000612785853006403	0.794944439761174	0.668318004662536	0.649977983088542	-0.201457042327411	-0.16831168118125	0.083920997886659	0.684765953026607	0.000107756882537771	0.472054685397444	-0.48806825358803	-0.0722287995786191	0.615862460929802	-0.0853667161849732	-0.317529825521442	0.219758696669318	0.00711469650393574	-0.11246948469658	0.0784332071321988	0.750273288666966	-0.266063860842942	-0.164743186372045	0.532709806081958	-0.43305756543807	0.324442064082698	-0.114344702309989	0.518688557897852	0.445544043675209	0.0920910015183556	0.0214769511668268	-0.560880608126429	0.661695773395714	-0.275062198453461	-0.686671793199301	-0.305018713476842
"AAGCTAGAGTCATGCG-1"	-0.399631955471725	0.350553880547879	0.451983906785515	0.0217804747487447	-0.417446283058611	-0.0189376336327949	-0.0402783527266038	-0.0830780166393642	0.548401882172624	-0.294078944782031	-0.814933257015428	0.195920228205446	-0.0333972468974109	0.636134593586106	0.431063528618791	-0.283351111273886	0.0806898294925266	-0.221594353611866	-0.266743077048568	0.0904878765755886	0.116277675101726	-0.234356589876957	-0.00454557822639551	0.000834847690561206	-0.238705717797934	0.471615598826779	0.0237056576686773	0.0095883917909611	0.133033810794848	-0.616229708154604	0.311415415340395	0.336423626544453	0.044642902446775	0.145435419867024	-0.383724433051665	0.0901638265712519	-0.841971097714364	0.396555878541779	-0.213295873199786	-0.46140227071848	-0.109600583271888	0.416782983290321	-0.381101381631659	-0.38046917033646	0.362053058512928	0.250318886132094	0.127599064320024	-0.47577017186644	0.175392460222406	-0.112832066600475
"AAGCTATGTACTGATG-1"	0.20363589355935	-1.54686853368724	2.54803862233738	-3.64810412032378	1.14864950222317	-4.21882971804389	3.01956560307511	0.229518739936012	-0.801112136916738	0.412025449262442	0.213442185256165	0.483123408433862	0.179741123874141	0.839181284409047	1.31061779761803	1.55758071299712	0.204025967622377	0.0355630407789059	0.735919105813102	0.223405952985153	-0.354842670888494	-0.132466743955455	0.174049564081391	-0.124578412454989	0.107404935345035	0.0899298807381981	0.00341894394941978	0.430810672973978	0.413863826835584	0.453303968492968	0.119441081364943	0.316856804128175	-0.510347141562451	0.086422914535104	0.156074704080302	-0.267683089966083	0.757794689217236	-0.227089031058369	-0.220532218422971	0.202160393211071	-0.0504802314738886	0.321676010717192	0.367068435073405	0.164382520526543	0.583538126619903	-0.34589704835576	-0.201481535152376	-0.431043050144933	-0.216258526535276	-0.208124580032587
"AAGCTATGTCAGGAAG-1"	-0.415864388633933	0.332345325060154	-0.253217473915419	0.0146152271260191	0.61297604494944	0.493759601792523	0.573728355310665	0.166823791935632	-0.0385162336344009	-0.519966001117006	0.0926398002232942	0.13163663051392	-0.126780034373008	0.182622527315919	0.422529017275515	-0.254111758720231	-0.11421229816296	0.439842867814712	-0.337311974751453	0.127090640851693	0.169661262203581	-0.558636612057711	-0.139381162255692	0.625400941242787	-0.046428922600325	0.342074548371851	0.387554646237337	0.0501868700581728	-0.250514814676492	-0.0723096892240919	0.24863520062678	-0.058220691254809	0.230618007018251	-0.340807684389087	0.292950061087507	0.157484994489466	-0.0211400770118401	0.104331029940786	-0.517018217929925	-0.376193926874609	0.175091155755742	0.35310421709915	-0.291705396794805	0.0433862003698628	0.397452636239299	0.0531250340121263	0.244820928247165	-0.108846554782344	-0.057053310142972	-0.133607041114802
"AAGCTATGTGTGCACG-1"	1.2925095053964	-0.906195245198945	-0.225097298302934	-1.97386696211671	-0.636983922668523	0.438014160677134	-2.57191310495828	7.48686234379566	-1.54229428918831	-9.37230410222173	2.70266712103485	0.636849967678038	0.291829562480327	4.21057096666695	1.70967231723119	1.736468842972	-0.912612005385506	-0.81956150172759	-1.23285742193306	0.0498087141928571	1.35583739726933	-0.382213327124827	-0.720448138913639	-0.855065275301563	1.44368922874355	-0.0449344076246701	0.702859308108483	0.0163819994115966	-0.715285068220524	0.99362162138958	-0.246089158842252	0.81251758742861	0.934866061529866	-0.392931250650024	-0.879904640773717	0.785872764939474	1.02349369960941	-0.497676813809139	0.0198742863425426	1.47513218192729	0.92668049176614	-1.38277235264433	0.900095248062049	-0.709933974550811	-1.10142357772525	-0.390865057640213	-0.745604262981139	0.872644130072194	0.0625028058108953	-1.96121625444499
"AAGCTCCCAACAGGAT-1"	-1.08748632114245	0.336977353256328	0.375123449626753	0.285758513345766	-0.358402285686706	-0.204850988638618	-0.0424283684532329	-0.575494929830243	-0.0663633053817025	0.0563221073918071	-0.377211547873977	-0.332970210316686	-0.0763714965263999	0.016394161626607	0.0143703916560801	-0.15599176705581	-0.254546177110657	-0.266986698278868	-0.183831582357002	-0.203223255585067	0.207321121395478	-0.146869093134011	-0.151564803461724	0.147672994308738	-0.144439359022949	0.00553965651516939	0.106642468933309	0.308274556883697	0.0356939949821703	-0.0338127716556185	-0.0739314247822013	-0.290513125922627	0.0048853930612507	-0.182231261730878	-0.0119956305770855	-0.251643129434608	-0.113064730286043	0.178417737120468	-0.118447587315962	-0.0825688994392629	0.156608237494866	0.00563773788153278	0.171113953895459	-0.10375654519969	0.0049500218704453	0.0509608023489579	0.264035320813455	-0.194570370490574	-0.243706254188017	-0.145104132822084
"AAGCTTGGTGTCCAGG-1"	-0.233480387231989	0.486176614433936	0.423253974694422	0.437639978632185	-0.0224846445416073	-0.307266476253335	-0.018764356162603	-0.639651542956293	0.0887045329443345	-0.0196638216031178	-0.100543747665589	-0.128288923804649	0.188461400575445	0.131502389866493	0.0858097065618588	-0.00730169090226664	-0.416511248386308	0.357556646338599	-0.351781571826233	-0.10877177341077	-0.0307824698495646	-0.123401375797591	-0.421794010277922	-0.185928513926758	-0.41918680846469	0.0684262428305668	0.352409133939687	0.0310378730123332	-0.0288090718388407	0.103851638682013	0.0190459728681757	-0.0103435887279937	0.0761982726388765	-0.142241191110709	0.096551196781413	-0.186989634720813	-0.08025896392239	-0.123664020467125	-0.377101952238298	-0.000275723627381262	0.0197472417684359	-0.249688188343402	-0.369174464069041	-0.255860077609542	0.201942704551696	-0.202288776313591	-0.173190698375257	-0.1618164492317	0.299124268314206	0.114389380582288
