"PC_1"	"PC_2"	"PC_3"	"PC_4"	"PC_5"	"PC_6"	"PC_7"	"PC_8"	"PC_9"	"PC_10"	"PC_11"	"PC_12"	"PC_13"	"PC_14"	"PC_15"	"PC_16"	"PC_17"	"PC_18"	"PC_19"	"PC_20"	"PC_21"	"PC_22"	"PC_23"	"PC_24"	"PC_25"	"PC_26"	"PC_27"	"PC_28"	"PC_29"	"PC_30"	"PC_31"	"PC_32"	"PC_33"	"PC_34"	"PC_35"	"PC_36"	"PC_37"	"PC_38"	"PC_39"	"PC_40"	"PC_41"	"PC_42"	"PC_43"	"PC_44"	"PC_45"	"PC_46"	"PC_47"	"PC_48"	"PC_49"	"PC_50"
"AAACATGCAAATGCCC-1"	-8.78437411106814	-2.46490890110274	-3.34731524577324	1.15325095532244	-0.946826629155963	-5.63480083959366	2.8556920691674	-2.00028873104892	1.10064239743732	12.9279319833811	-8.90664003606886	7.46533268271723	-4.96643445903929	-2.16000267958716	-0.482184810712092	1.36185743644331	0.211381721209194	3.55148751578384	0.526711682823591	-0.500150709631271	-1.44825207694816	5.14837462039038	3.67297849199874	-0.592717035945092	2.09569069866855	-0.366526910144133	3.31959284040996	2.88889531227299	-0.993794500425665	-0.53961123473969	-0.597069906247535	1.71273531268214	-0.664640111413727	0.747218604881867	-0.833691850456738	-0.0050756902373974	1.91148429527829	1.27290639437955	1.27470870347371	0.426517963865651	-1.72054938051493	-0.0423044817114616	0.323267546857008	0.702681234645631	2.38313806079689	-0.161542124724207	-2.12512907840781	1.81769210243685	-1.10308108523298	-0.629842976262992
"AAACATGCACAACAAA-1"	10.371000665288	1.7336054241099	35.7381749034945	5.9555763381991	1.46982447609623	0.592215513437826	-3.31557634835259	39.4565192942037	7.78077462895916	2.38149607037976	-0.650134876779414	6.96067193296685	15.3408690687862	3.09961292718436	3.54640606782446	4.57769012444306	0.986752348216921	1.89902333778222	5.347365304454	4.52090465752164	-1.49685864759879	2.94776378204171	1.05076827713437	2.39208817134545	-2.70188795090593	-4.65782584584726	2.33725998129682	-0.299019958585244	-1.89380331718688	-4.5104990871485	-5.76617820601705	-0.54839518834319	-1.47346717908042	8.76033668410336	-3.79788164019853	-0.58986864473067	-5.25440030523708	-7.36636986507338	3.38437708632504	-11.822934003789	0.54616194994184	-4.25807639107685	15.5758639744995	-7.24703182908943	-2.2495083609	5.46647280126919	-1.99005039220578	-4.71365286015547	-1.3209065248301	-2.57342270867276
"AAACCAACATAATCGT-1"	35.7885410855705	37.4961254335641	-13.0854232019436	12.230193727206	0.713913000423324	3.80985697852124	3.2387000272053	0.437194026868891	0.12303271829997	0.414912525650764	3.69317982087796	-2.11235512687801	1.63480251881525	-9.93760682428502	15.8340282596572	-2.62210173695899	0.582727595555893	-2.31423168243292	-6.38052101768861	2.56851547363125	1.58901299090163	6.89351114427789	-0.449328953736128	-2.17717261432369	4.23328948088941	12.2667762393661	3.86273066481367	-9.46554230455757	1.82823516309392	3.59498170208119	-1.13627957646804	4.78259034451657	3.12913572458212	5.13819907350849	5.98541044862953	2.11068285716331	0.102838589437704	8.66907451431589	3.96207204836346	-6.68544262783667	9.83057133307262	4.30512846157826	-0.249757586736157	1.28582596949933	1.54726706263572	-1.3937259427279	-0.497077624950007	-2.90982903658997	1.88676947864045	4.36228960871962
"AAACCGAAGTGCACGC-1"	-5.63530758102029	-0.650653697160353	1.11238139333886	0.0694236648111686	-0.805683248147894	1.61246706162799	-0.123868072296361	0.860557322654843	-0.569793341019078	-3.04950721326315	1.91750296642754	0.942451008880873	-1.23435511656495	0.804602315612914	-0.191229313682486	-0.140824939977503	-0.737125153354183	0.982446112789213	-0.290707188430528	0.366810242194914	0.170855467658285	-0.282177658541893	-0.113427211394792	-1.11912695133485	-0.214538187525521	1.88172486373106	1.95729774692561	0.27542102049006	0.393254093269051	-0.00603194749215393	-1.52517438184695	-0.0628761697952006	0.222735236682002	0.117962214494832	1.22378684570327	-0.17564895634829	0.36085224770476	1.20162142648564	0.269599485213727	0.0876225731998087	-0.510395489740563	-0.747958479064062	1.06863397823042	0.202457750575654	1.1673825075567	-1.50044277591479	0.78160958881009	-0.85224340507123	0.503600622438833	0.846328789629987
"AAACCGGCAGTTTGTG-1"	-9.55350488520308	-0.441050139010566	-3.08919454573445	-0.307333205869095	-1.03297719685765	2.96077091417635	1.00358631541182	-0.616885939954519	1.99833141339679	11.3218761327586	2.24681399089539	-7.135862886055	4.49821146297768	4.86711812588578	-1.27432622564462	-0.95316454249842	1.11308410173137	-2.89439334341294	-3.18659782162102	-1.565811451542	1.58817384499166	-2.63346961921741	-1.45948301272212	0.433244011229892	-0.146002448504231	0.59923132940324	0.156261002840502	0.490175455980829	-1.69696544106201	0.679038633657877	1.54594363409317	0.431986416614581	0.998652873425866	-1.10196246834289	-0.532377115313879	0.652922491443676	0.0667248515560162	1.0678610451778	-0.557455562102109	0.0341961441209906	-1.91446193820877	-0.521949055474568	0.0665110256594835	0.0449544746104089	0.683510069179909	1.21312445024297	1.27565926007731	0.683884761193208	0.810649964660824	2.09637204164954
"AAACGCGCAGTAGGTG-1"	-8.0219179191435	-2.2246893727218	-0.750433182108525	0.374191543122325	0.212420939722945	3.72500149374587	0.331889548016638	0.117481966028237	-0.0678740804816493	-1.00792880205991	-1.21448712774445	2.10892226508924	-1.01513561992573	-1.01184335017471	0.23494953005738	-1.01776792251664	0.23022903289762	0.84179712530733	1.1230901721868	-0.00198350876151027	1.03598302954035	0.284425356342859	1.68740090021878	-0.531036505460895	1.0059287603933	-0.455474956399998	-1.26066881239411	-0.313155385343418	2.23383683317733	0.86323796594515	-0.59858497406296	0.8554219340275	0.345118708838806	0.12435744567271	2.23782555502273	-0.838856234187806	-0.145192490537	-0.0190096356251613	-0.684763215322597	0.496459426102157	0.201620784179878	-0.000143252730599961	1.14659757369371	0.0822207809888396	1.26183787143319	-0.87904383930499	0.0458007068664572	-0.818277686104477	1.06666541812097	1.28624956830399
"AAACGGATCATTAGTG-1"	22.0525899117439	22.7514800345236	-6.68845684507905	9.72356762842357	-3.43778733916087	6.32533870052302	0.224019007015182	-1.66894565267766	0.147094008638019	-7.78216895905623	-7.68699555143405	0.230841381880935	0.0544233327177935	0.825570366333197	-1.98864588205569	-1.273129339311	3.34971882340579	-3.37745133231322	-7.96827464921513	-2.25618365554513	1.50716498276987	4.10106013156523	2.64603190811347	1.56835002505662	0.832940895665752	-3.39764299704091	-10.626454862727	1.49904618677433	-3.06413745916588	5.85510972362411	4.82688075083823	-2.98098098158511	-3.67824588311071	4.27818096963699	-3.19455868341815	-0.174356453134405	7.20972964117742	1.68969741803663	2.04042482281898	-1.07953193263209	-8.2859191374062	2.2940906740656	4.41129753001778	-5.14067912634603	-4.94035919477589	-1.16808712342653	-3.06632200791148	0.452070801638477	0.172967003673259	7.21113392426966
"AAACGGATCCCTGACT-1"	-6.46268343182004	-1.74780778021018	-0.1020297822543	0.490646977625275	-0.758950500684947	3.67675778411806	0.658384530320883	-0.886574289651023	-0.597172945756081	-0.813408717272847	0.23324552146592	1.80241879080756	0.200197559168886	-0.14072497073285	0.363284644436599	0.257773336033125	1.46422134332858	1.25252766407895	-0.24781857701753	1.00654432144219	-0.278647293877068	0.677614518589593	0.191745467967126	-1.02717820905332	0.665836987408287	0.1613778345117	-0.323322112194365	1.6848682587508	-0.0551553026430565	1.55005708731715	-0.448460414093764	0.675613971696366	1.13733287164908	-0.334330064927436	-0.0673326266850038	0.0971973502507721	-0.449518804348075	-0.39882631117013	-0.257919831904896	0.133523997346596	2.70387178980764	-0.359816896537955	0.337995754359157	0.0568253655229307	-0.38060524784964	-1.25840390639608	-0.0953495891817663	0.0434251852573598	1.51516379892962	-0.184135221727234
"AAACGTACAGCATGAG-1"	56.5084211165675	-58.7708730487285	-15.5940544530974	22.9831245771167	5.0716021728139	2.53739083092638	-0.0140818564497894	2.06698505610773	1.63274205207284	0.703705261084777	1.27426424825986	1.07280407782511	1.96994176422212	0.476884249770285	2.44821309194238	-1.6530422171606	0.267963757950075	-0.249462677505621	-2.81439162789915	-2.61472929206237	-4.17994621123839	-4.92647391102953	0.720327091391737	-0.944478051569268	-0.345358565409102	-1.55311450075054	-0.983423833112731	2.11958242609424	1.86619586836616	-3.48527508605905	-0.180398643555199	-2.8927674687121	-5.34942689639024	2.66831849672105	3.43034312292056	-0.168348357956415	2.36289825872791	2.78858662331021	-1.34985387800349	3.12970327790737	-2.08283716177776	6.48565780321667	6.60438878213732	3.23189433991799	-2.91736159652414	-0.66565231929627	-1.39143039493967	1.69652749248121	2.7458006542876	0.24115613061927
"AAAGCACCACAGGAAT-1"	-7.51163958460151	-0.19165335198789	-1.56286690624177	2.17608631139634	-0.481966814114292	4.15090604643464	1.11716813665887	-1.80942746531207	0.292404869094494	1.79702315429104	1.37196094700176	0.279355304324725	-0.683937556677467	3.12049106153085	-4.19168851148951	-2.24789939300674	0.612254815310373	-1.94422516664	0.189920245902125	-4.75441942264058	0.111369317853215	-0.820193374659014	-0.810168586311799	-0.811982658349303	0.543745813432172	3.85525300543642	4.20932240594564	-1.12983866018255	-1.98923580039196	-0.364527674985558	-0.0513538601040466	-0.522670231812272	1.027375892954	0.135812138221819	0.887571352103259	-1.1602740123508	-0.0718554489130494	1.3821584640876	1.00931248115896	-0.741080568739828	-0.738606390545797	-0.430333202612481	0.74570900703276	-1.88128039961714	0.0312346401987496	2.16483780847231	-1.51835698576417	-1.87055079682961	-1.55187767373345	-0.483114151410204
"AAAGCACCATTTAAGC-1"	-5.76368912875427	-0.778546824384691	-1.99706680203074	1.2494454297367	-3.48105407559291	-13.6688017972374	-1.16998209666195	-1.29486688549698	0.266463256147867	-1.58939277417769	1.03695325299836	-1.71066019868647	0.797332911984718	-0.996552248170694	-0.457957800166438	-1.01550349938033	-0.122324623997517	-1.47568038417716	0.384635879760747	-0.331958224478113	0.584417706160937	-1.2154798603439	0.342110394300677	0.404824083083419	-0.749289675744289	-2.26285451398674	-4.22542592108472	-1.92610659236827	1.96391187665375	0.977170802482893	1.317282194269	-0.124098237393924	-1.05033786722402	-0.0435491413555607	0.0273433312325148	-0.402053340826456	-0.586198206287921	-1.84280735285054	1.00256441922447	-1.2035177382238	3.12043360909007	1.51530160278581	-1.64269955888559	1.25636609648883	0.968165839519777	0.855013297082933	-0.183487954058316	0.942415618620021	-0.519748186264777	-1.38699272094274
"AAAGCCCGTAGGTTAT-1"	-3.08668212344021	-1.94539171040767	-0.239208593199804	0.708636537586362	0.241152602441913	1.78235539871861	-0.767369962827004	0.291571695221668	-0.477167371986227	-3.14929288776498	-1.53347564406798	3.4547066111195	-1.09599201092357	-1.89031616379982	-0.780816480471924	-0.864229288505195	0.682802514909189	1.0785917168252	-0.554428491110535	-1.13128202672261	-0.715108349874777	1.27911695694233	-0.0204590028520745	-0.0297427436428944	-0.287224009227993	-0.356986390966825	-0.688536873225227	0.450625465610892	-0.555292781055997	-0.597051211434739	0.181561817824194	0.702040922602136	0.236449936848345	0.0816458616122802	0.39468455339667	-0.064813552458076	-1.19583517849869	0.0590470157742332	0.382721324098134	0.238032597358713	-1.28663667968087	-0.0423934068557071	0.121168634167026	-0.658558518517177	0.471498375914621	0.0634674426863207	-0.998647707966194	0.417054685792808	0.714019298877876	-1.36055880304023
"AAAGCCCGTGGGTACT-1"	-6.09009168344113	-1.32535791817101	0.256295170269523	-0.324807447670048	0.110572119795913	3.75045831867207	-1.30012551347725	0.0491027549272271	-0.392260133259681	-2.36693858636081	1.34989403027278	-1.32822741759446	0.81330534891265	0.795323048256422	-0.995215240008031	-0.0485575476888623	0.533370594373246	-0.0786395010270994	0.199781362332334	0.00119759213105181	0.0157797185435821	0.686391762193049	0.0735142820099671	0.506732311202943	0.955163817011797	0.328872400366037	-0.0765207921352472	1.02748629220201	-0.602124884608786	-0.837970044123172	-0.0765732244480835	-0.225294270260997	0.500400096598934	0.44341987155793	1.61526877858391	0.3774154725788	-0.199410979756501	-0.551585278688414	0.159621844271356	-0.573599615589976	-0.0347360920796492	0.391467212174474	-0.237538766995443	-0.227908787882378	0.659504713486434	-0.568099281103717	0.363639867603341	0.841983406804849	0.0767433835889495	-0.189796291693516
"AAAGCCCGTTCCAGGG-1"	-5.55468770371245	-1.11423923629584	-0.231434144879815	-0.162667402955146	0.246081990414334	4.38551845489655	1.0725982347567	0.992400094631277	0.336127362092037	-2.04936602135175	-1.60955078409672	3.69697732813698	-1.38310373605303	-0.384197362948391	1.35408531942447	-0.254293273761695	0.771565155922558	-0.457601941549145	1.11860412103235	-0.385887394567447	0.634072180649173	-0.244167936651034	-0.0981576738639844	-1.36780009092705	1.31209911175035	-0.0525645681703336	0.749863571997252	2.72295600207413	0.15026436353812	-0.899615996352842	-0.654826820555003	-0.874794540808862	-0.214856925205431	-0.86496541215595	-1.31756240652423	0.384992511584655	-1.59002424866395	0.161341333135015	1.30930670440318	-0.151401559705309	-0.191491600044796	-0.2324973235812	-0.292347765429541	1.07646227556883	0.148098665028375	0.845025591392192	-0.111288936307352	0.296819107382872	0.656470967302717	-2.21637494168484
"AAAGCCGCAATAATCC-1"	-6.03340955955636	-0.408227455850672	-0.534207797466278	1.14188553697997	-0.782065630799441	3.35760089018489	-0.917494709344352	-0.0653109046210575	-0.0445945730119074	-1.64777273539678	2.64018939848141	-1.93222435193969	0.68735061426691	-0.273372965883046	1.1368598795878	-1.10208095887143	1.15862646982498	0.545752202935317	-0.0898892344349899	-0.702650525319595	0.483197982007509	0.40075650454907	-0.54327440806278	0.0182742100877038	-0.441286929016569	0.460870374290744	-0.0028941206268849	0.771968397902191	0.000817541856600161	-0.933676066092123	0.609145277397175	-0.825908016062947	-0.600064349033004	-1.15703682256928	-1.20496321942214	0.610363622127033	2.52605682713348	-0.351769473249851	0.0430489606397585	-0.711231032503005	-1.21445067361237	1.51358732142248	0.705084453670796	-1.06490211957621	-0.661904430586556	0.368918536110458	1.51590172344242	0.243898321702884	-1.55900759405358	-0.310846168745141
"AAAGCTTGTGAGCAAG-1"	10.0100855717183	11.379701303784	-2.75401730546998	6.51859618101196	-1.9374878495592	2.90691972697799	-0.783163939366662	2.18984658673804	-2.75862224490601	-7.33457691436091	1.39576654046669	1.02703260921874	-0.0556352525480643	-3.82417347317389	-0.425678725792587	-3.75999908987025	-0.440928600703549	1.54370635750732	1.84531432257204	2.49383128405028	-1.92168676358666	0.453593723373524	6.7442024272787	4.29179484671555	0.182532706765933	-2.8557996640001	-2.73063138108649	5.13519122120697	-3.10746217160801	5.91366980765446	4.009520345408	2.41148526029567	1.72998445446741	2.34625768107482	-2.22765392935803	5.30329738402216	-2.76204787269923	-2.67285930960197	-0.740481908542013	-2.65351306223749	-0.114487517434402	3.81373255224698	-1.3992811324628	-0.852846267826574	2.69308857486861	-4.60792470572734	-1.25256247876098	0.12332220762865	-0.248891896344729	4.60772691092711
"AAAGGACGTTGAAGCC-1"	-6.95755871518897	-0.737932172464143	-1.00746700440529	0.458362008824491	0.161164756314555	4.05214140017834	0.810409986489179	0.306407972993174	0.50633526915223	-1.09480507186215	0.631590070853112	-0.585628059099238	0.504594599097888	-0.24005301036059	1.80616298205273	-0.2384101197395	-0.118012726753431	0.136432425752173	-0.434286794174979	0.0440304887183713	0.655456880822522	0.0135589012239438	-1.05143772643193	-0.00425984665986753	0.418905228235942	0.409489717529774	-1.38169418439587	-0.96454254827363	0.688070436984494	-0.56834805158753	0.259531510833636	0.207384084919352	0.245321186635586	0.455270807841306	-0.75012170152517	-1.81699991675196	-0.549078120582082	0.765138740623812	0.556681432179056	0.450202787208003	0.209739474537369	-1.31035085432901	-2.03446713631756	-0.421421551149772	-1.63731733669215	0.360819464209244	0.769648841392401	-0.743842033250145	-0.470040896564754	-0.711547316907109
"AAAGGAGCACCGTTCC-1"	-4.29401639966335	-1.12661842518725	1.39712939159641	-0.589109190166737	0.0406862903976525	2.83698498676584	-0.275325326643783	-0.0190183513497782	-0.178088060792663	-3.91214596604946	0.831725248647196	0.250540868526416	-0.45098856321782	-0.633607254510976	0.531984200580312	-0.691065765727671	-0.616734567982024	1.74967602863666	0.540967264305493	0.648269762000473	0.0954682015376772	1.35787944932257	-0.0131264157083357	-0.98310007086481	0.309537568356415	-0.89930825232456	0.418971254042956	0.723690801632085	0.606466239877591	-0.391788926397301	-0.0511631252389257	-1.22689155639345	-0.373296954358646	0.261797847364834	-1.29013696649871	0.137268660724616	0.858009767627369	0.0801868009328033	-0.45555586410503	0.0786132071830821	-0.134105575149898	0.318361934901781	-0.949569126589441	0.298070184846891	-0.563631014203112	0.101165296360041	0.0498325212068561	0.38753486429377	-0.306317098806609	-0.0726794784214112
"AAAGGAGCATGCTCCC-1"	-2.77817658096623	-0.577886836301505	0.487499185164938	0.171712053247158	0.435795866382696	3.13078883714984	-0.701570691626475	1.61217007246091	0.0440579394371952	-2.28230989682634	1.2753062893929	0.940990826897456	-1.61598298799323	-0.938042597753962	-0.157888615791051	0.321634009184845	0.349105604455907	-0.075604544775016	-0.035634428422724	0.667613842967051	-1.48868060277633	-1.51792801621813	0.515958702433457	0.789606338903723	0.0953359717784267	-0.633379956726282	0.739114777089072	-0.831727261201104	-0.133464322356569	-1.56417253591898	0.289206969904097	-0.225330430322923	-0.0106340951659107	1.29922561717902	1.09609002701645	0.705250969063415	-0.50254619847726	1.10325107503845	-0.236653764080941	-1.44784906542886	1.44591527260177	0.407220670912354	0.37869924717007	0.203832967465935	-1.49294971377084	0.571770415786326	0.448150893024977	-0.444812182907737	-0.715749317397675	0.0792901172832329
"AAAGGCTCACCAGGTT-1"	-6.98254527479878	-1.07630854899376	-0.135174139701563	-0.896819767717748	0.768308493065323	3.57187385320283	0.415148636320728	-0.325750040594066	-0.382202928134648	-0.740141700772241	-1.54024698228663	1.97090353786857	-1.28933041578327	-0.549067287806243	1.75156456943422	0.419603029172097	1.65069531067664	0.00363903019685511	-0.10660623138961	-0.131942767799031	-0.426494501882425	-0.475147403012753	-0.823906450199905	-0.50066960381497	-0.793181906102465	-0.537430157712367	0.604100928127466	-1.32476232960338	-1.37649687949135	-0.516539733928629	0.366311650695988	-0.29976354448747	-1.92393730699308	0.743463093292318	-0.260565519485838	-0.539466693236557	1.6380383793451	0.649537403229066	-0.903980538451753	1.21848970169541	0.476332743299187	-0.615153969984727	-0.709098784526198	0.307996709609556	1.00986433932023	0.67318728310676	0.0116604050640526	0.955309719376982	-1.21583231311306	0.44118963502799
"AAAGGCTCATCCAGGT-1"	-6.15970897362857	-0.798544634482558	-0.418936642339952	0.397968610829774	0.201598794453112	3.51095202337575	0.402199670002865	0.451231794388743	0.335326007341432	-0.913724181763144	-1.24313117488368	0.883966358608925	-0.729695867074091	-0.143844653400986	1.9989386323707	-0.510373455010563	0.633567038951509	1.26507673973983	0.618950124516141	-0.550247119355744	0.804722731648954	-0.825019552078351	-0.038307172827126	0.898527577958159	0.163969188828004	0.667319479898697	-0.175807846585057	-0.315756282839129	-0.969283661533276	-0.21185211600948	1.53713213015278	0.949539156778271	-0.820606142278706	-0.410616358854157	-0.989592817513651	0.549470112935396	0.46897312384812	0.263310343243835	0.44207520107787	-1.10280735572326	0.796683855349811	-1.4425650393545	-0.678611245357122	-0.403102850783426	-1.05493788345124	0.247824718213536	0.552066561907447	1.01150380150902	-0.104987815118934	-0.407475007534049
"AAAGGTTAGGGATGCG-1"	-6.27109832809077	0.0735998711498243	-0.854419151952216	0.901830366919515	-2.94276704736983	-12.205102679801	0.784735931855521	-0.865687238544759	0.677613137659724	2.31591585066823	-3.64034670977042	1.94024899438315	-0.708373437100867	-0.920151872729596	-0.852075391937243	-1.29199533450487	1.2183896394014	-3.4230308504296	-2.42687497646325	-1.97455333631488	-2.08572710602766	-1.95847424325291	-0.29947650257884	1.07195505429827	1.48724621874076	-0.492555318855246	3.49871142465462	-0.952628180238259	-1.77484619898027	-0.325300826166017	0.352831551257754	1.0376397659837	3.14737203201967	1.60685940301631	-1.30117511495748	-0.919936635644177	1.1409810817218	0.640872794915657	2.42923409914309	2.13607991981039	-2.26062816962563	-2.21268105191356	2.94785012905831	1.37733888794539	-0.393025649270308	0.193652029604399	-0.921576236061169	-1.31649445855535	2.03455905632158	1.486437429461
"AAATGGCCACCTCAGG-1"	-4.76107644308623	-0.678556550017538	-1.21937602210061	0.168881029528773	1.12858675712285	3.82742821219073	0.17517005267755	0.67680367511984	0.578674579645729	-0.671402584195396	1.45920654691238	-1.98104687421733	1.68816073804298	2.09315743009038	0.0941971424742239	0.305358397856494	0.152040266635486	0.328832982056222	0.948549433148563	-1.39288494856822	1.26963518769058	0.48757888122362	-1.62679503739587	-1.00598514031896	0.82122101573403	-0.4823056844987	-1.58821616619994	-0.424202222576146	0.727543501297579	-2.04458404825419	2.0731275074725	-0.0967363198021789	1.9272767053465	-0.504562486905367	-2.30186757143214	-1.47472732652376	0.551861042095369	0.0225708700762209	1.97550010072915	-0.156923649594451	1.34265177156241	-0.0866713544507067	-1.7255073668323	-0.906603936262232	0.351699401312661	-0.335075596818741	-1.96105602588224	1.35830236594019	-0.853992199477855	2.08679407043513
"AACAAGCCATTGTCAG-1"	-9.26247083101651	-1.23321436759106	-2.39748984033787	0.884319238956771	-0.286167310302446	2.94158771977202	1.43579677835673	-1.1911863237828	0.597555896484139	5.93131121121841	1.85363919891474	-5.53615732938285	4.15300681130393	1.93082336062141	-2.41643988581254	-1.43215226535304	-0.429038863995281	-3.06592489477003	-2.91122741774975	-0.734264030996047	0.791779668358172	-1.68800269551437	0.190273582407596	2.02228733251709	-1.82713246557458	1.21010678130178	-1.3877845216634	-2.13958332789357	-3.53218191554627	1.25386698160363	1.19230107472768	-1.73699873433344	-2.11369707108308	0.0475616490560494	-0.806559173015268	-0.314475609994482	1.24258515291931	0.493591516377662	-0.699391109831671	-1.29360424953072	-0.239280852902923	2.30087278682997	-0.111615929276329	-1.2115588869488	-0.029301202368369	-1.47874975543996	0.996912230727589	1.90682996864092	0.662838846879771	0.238319657151022
"AACAGATAGCGCTCAA-1"	-5.65826530106176	0.286026253781246	-0.704566798827248	-0.842565966734998	-0.875490286448594	-0.510715477245715	0.256530568437923	-0.627067716143535	0.926319233801582	2.31214981446323	-0.341694962717025	-1.60461727554821	0.756125596340178	-0.544287278908427	-1.39180485602525	0.141612676808951	-0.495453320041226	1.99460429919473	0.648582139345425	1.18815532439437	0.581185883086991	3.94758341658615	2.21659222660888	0.848800763683754	1.40179586745826	1.67514035329592	2.13372188132867	0.724070339881331	-0.568337038853025	-0.59991102139939	0.68526133170976	-2.09907601332848	-0.906794052197306	1.03701034957463	0.30517315807431	2.38055105614116	1.99441878152717	-0.159686019324557	-0.889502857041464	0.082016553299401	-0.230769006243733	0.465717124245479	-0.709896851266675	-2.50518752578968	-3.23953673756327	-1.84738150189903	-0.055958800156321	-0.253012864772533	0.747701094869389	1.38215498684632
"AACAGATAGCGGATTT-1"	-0.309390688535023	1.93934666123651	1.79604153667543	2.64115527448102	-4.55369526796559	-19.6693873877755	-1.48851858432863	-0.293790951282005	-0.941185524851629	-7.67581712565113	2.17786143287313	0.682903784410478	-0.892066560344383	-1.88131657318872	1.3054956685835	-0.653356131683546	1.21995626257138	-1.43374255662056	-1.36011653184859	-3.92259599965036	-1.99558577814434	-2.85254017680999	-1.34489828238936	0.86465338011913	0.472110082106461	2.25617892303127	-2.57539789638664	-0.0567282894706149	0.628693672081514	1.31457876648958	-0.18738804084304	-0.754715436467976	2.73024632318526	1.52949616179555	2.50045735781832	1.54508295578268	0.650147970680526	-3.8719767003537	0.544662740867468	-0.620629243303412	-0.0848563434528478	-0.561141350135005	1.15214521727478	3.22466777241243	0.0480145258886473	-3.64721356449925	-0.162132309599422	-0.266337040419272	-0.850429396767855	0.016875935725504
"AACAGATAGTCACCAG-1"	-5.58283963691733	-0.502059723660564	-0.558137235228388	-0.280245834659846	0.115246141342245	3.56202513853902	-0.395087001936186	-0.384771033560776	0.726015357190795	-2.2112412663164	0.720903375075664	-0.318860421224435	1.05148714991209	-0.322282651125623	1.18213776698175	-1.50091927546824	1.11798139446168	-0.67920622791618	0.569975933754376	0.362730801316317	0.094550537979397	-1.1726446594499	-1.0728522834914	-0.709013499968728	0.107967255581713	0.309487675549635	-1.20591588832384	0.711406551235697	-0.872499138194789	-2.24922762094424	1.66084049791713	-2.4959763885001	-0.800809729584134	-0.404334767761975	-1.05628863709598	-0.49837995577201	1.41972398506098	-1.07782946879428	0.837456187385114	-0.908193640198116	-0.408075642151401	0.822239045039179	-1.38912421228258	-1.31957103631071	0.183257838337618	0.495571681027132	-0.87635564236041	0.672080750550495	-0.0608591076899001	1.10942281780197
"AACAGCAAGCACTAAC-1"	-7.73118009564229	-1.15707325731568	-0.951027363507096	-1.08856992452317	0.884579435915686	2.97603241371002	2.11153571329424	1.33984780085843	0.585695101576282	0.425001917616491	-3.46279485423988	3.8202360969353	-1.36435906894231	-0.792935071702296	-0.947313342629144	-0.785577033508843	0.306078697526416	1.6100517216878	-0.290688839766699	-0.403658185053345	-1.105997262169	-0.0430920211975096	0.234183316406434	0.318138434998594	-1.16717653504909	-1.1766238732377	-1.45600485991813	-0.882301322364873	-1.10356437758151	-0.478226316974052	-0.013999161875591	-3.28318520047213	0.455981756315921	-0.521316170479227	0.094474839060893	-0.833599372353968	0.132882016296067	0.419410990831166	0.0951790273686022	-0.148127876713048	-2.17912416465982	0.695735098126539	1.55151984284881	1.54861344454055	1.11765013272399	1.09867060118807	1.28592505323652	-1.71264049545354	-1.07174915807036	-1.10426402200955
"AACAGCAAGGGTGGAT-1"	-5.17166346141096	-1.20530804494986	-0.562593374368356	0.652013424837702	0.673588060147555	3.71499130826489	0.592371987766003	0.82245710031067	-0.598660042953782	-2.00586858608953	-2.30348175211088	3.23004326623424	-1.9966280946506	-0.276307400878548	0.22651636160838	0.491177949554927	-0.95698889696929	2.12761034336997	0.883568428310271	-0.313500864970131	0.398810070813049	1.28252821711135	-0.43742338818324	0.941450114480506	-1.03368615606372	0.243058085411302	-1.0058830769677	-2.03153596305726	-0.187507143410071	1.48639905023364	0.283233887174928	-0.533183786264281	-1.07087647285322	0.560891911104669	-0.240011680816688	-0.528024018442176	-0.432088190090932	0.0137889021165853	0.503743986209957	-1.0784910920194	0.69697824013888	-0.43511474399426	-0.26356125967851	-0.262962273364255	-0.726544943188009	-0.662346572007895	1.31606507609379	1.37991973657234	0.359703432241677	-0.404673239911737
"AACAGGATCCCATAGG-1"	-2.40004835959743	-0.706532051291843	1.60520787868831	0.221848143245678	0.43922630026036	1.2476402188716	-0.102979514663946	-0.0024687980328861	-0.664424534331168	-4.68437346327244	2.8760518135794	1.68679496593321	-0.607646808257359	-1.06835398011652	-0.165335379611506	-0.676123903616551	-1.05065151162898	0.918369056494387	-0.259145091478667	-0.661281616534991	-1.04891985175303	-1.13296938643673	0.135077441282834	0.0872139226674306	0.829454855259349	-0.0610503025134298	-1.344952812504	-1.01620197486375	0.747200804989285	0.540566051243304	1.04817021857837	-1.27203672538392	-0.588309618916094	-0.358892706648796	-0.235760061475245	0.189306009357299	1.11048507675207	-0.592678641812012	0.0881787437532511	-1.26513116522443	-0.391236956624223	0.297126342915004	-0.0982606890288908	0.29821827766379	0.248664527156682	0.83841010506716	-1.35456669353259	-0.962404940970713	0.966595677392912	-1.56698970675299
"AACAGGATCTGGTCCT-1"	-3.65822767124672	-0.568587574151429	0.872196303963771	0.589788789095954	-0.421718288401083	3.27834377483104	-0.676611528974789	0.0591973987334828	-0.474990131638811	-4.50521950455902	2.15479863142889	-0.349025672258187	1.23815558622432	-0.623850450997101	0.303829367068599	-0.952144043205968	-0.101109550881488	0.998050772928274	0.375042316316799	-0.0486533481013106	-0.391076771369	0.48926348139546	-0.435013994322148	-2.06144547309258	0.0698700612197113	-0.717989159849144	0.2029670838278	0.353733335608693	-0.682449254698957	-0.561499251227284	1.40421801780247	-0.20937689403267	-0.420723239523339	-0.459104972044588	1.08028539717203	0.795974324483245	-0.310506044351633	-0.480491593629506	-0.653608826367582	0.0231159425126099	0.0453229321635451	0.00160040305681721	-0.0219517862605952	-0.273756337322876	-1.72953848106153	0.373957126541536	-0.890120777947893	-1.39428065773242	1.22400538512292	0.0779100135636836
"AACATAGCAAGGACCA-1"	70.3022777651649	-69.1465888359591	-18.6530123555121	25.9937739913717	6.2133570202546	3.32578230714736	-5.06236922875258	-0.295552425056727	0.204339042526737	4.88006207969791	-2.4469232958597	-1.70057042789004	1.40533023722861	0.0459207843633371	-0.0928074891498716	1.25268267479235	-1.4158637755241	-5.6708512174207	-1.5652846172571	1.08087733594079	8.00378392595008	-4.51888699320975	3.05960660860058	-3.9134548306837	0.327390744605235	0.837764509663527	-3.60695570677359	-3.41462863169216	2.16642340109262	1.55326960417058	-4.98795102524667	-2.89783476392716	-3.03132430585265	-2.48042391422444	2.2515514807584	2.11525163150462	-2.5850057001576	0.970827262660898	7.34453772105151	-7.31159598605002	5.31550062943709	-6.19933764354441	0.139289155879951	-0.151344196466699	-2.48841581782218	-3.45138608313996	-5.02044788884359	-1.69257534219951	-1.60288583363827	-2.03313265388317
"AACATAGCATTGTGTG-1"	-6.75696492459829	-1.39942040895278	-1.64418264563555	1.22480853467004	-3.18527102777561	-12.6589449094129	-0.276369983484865	-0.975194644347908	0.393955510942567	3.15763444303791	0.0128885455824004	0.477036621587454	0.675045719551001	-0.457613509360605	-0.126151016168786	1.31813813535178	1.94190065116774	-2.1790848208427	-1.93168297070809	-0.0281618183727692	-1.3007532531922	-1.3647797175163	-0.982611342735407	0.303751076923136	-0.28834196792142	0.269607855601953	1.84918607292125	1.60406393706731	-2.62813924973045	-0.679436123121948	-1.25364386300651	-0.0474767152127388	0.0669973409581907	2.085344249787	0.429457692540301	0.44088338995842	-0.334301146675261	0.585615576594903	0.510021472598867	-0.435870026669995	0.756943700104321	-1.15873895967087	-1.84821618863112	-1.14677653332729	-0.729334133932188	-0.6852840826384	-1.1944444333532	0.618507796481948	0.248237624847915	-0.231253424494849
"AACATCATCCTCATGC-1"	-9.96828201863116	-1.18277146348385	-2.00150418267374	-0.947448264651575	1.26986321362901	3.08315033651631	0.48238368843826	-1.43716506581121	0.172285607838436	7.62903368490026	-6.07625485242537	5.39099178760182	-2.01753296090002	-0.388989232741427	0.620994896562354	0.421414746611157	0.887519335680197	0.0400410195131229	-1.54660145676822	-0.448519930314112	0.418725344461535	-2.1590802734689	-0.610863887523927	-0.380538626952352	0.126156908991015	0.505746644229091	1.10393937827337	3.74447251153175	-0.430170496239166	0.332096838805994	0.592074682765868	-0.450956536957679	1.78040913386731	-1.75778629358673	-1.97820172443177	1.00265068279765	0.597294688207907	-1.17778010068961	1.21312401281983	0.707405014377215	0.709443862496938	-0.757453091238699	-0.821033797674973	-0.65121619163791	0.421549398967798	1.02244245069357	0.894338597366407	-0.439740621388674	-2.86456811264661	-1.18674019950216
"AACATTGTCAGCATTA-1"	-6.77862507197682	-0.642587513726375	-0.170879829664873	0.234165513944518	0.713740913916818	3.97599538904061	-0.0431418110447184	0.390870054679418	0.210228634728768	-3.11770174297886	-0.679809912318934	1.04786811122833	-1.56435147321621	-0.270287926365608	0.586080607803465	-0.693654970802983	-0.762164219349408	-0.248375425242313	0.454387862383423	-0.107503940096618	0.957558294146548	0.193664567825782	-0.42388629127442	0.0549255088746662	1.73268469400371	2.25702041379706	-0.0413110750906952	1.68290337908426	0.195979991130287	0.109835846561744	-0.789923321546301	-0.887435723727594	0.123368224343564	-0.368163060380476	0.333207257888193	1.3999622966551	-0.879671616803615	0.220869039919752	0.231619362360266	1.30665716916856	-0.368963530658088	-2.16822517691765	-0.56384926705054	0.379154546436602	-1.46444377922103	-0.442523050158984	-0.877513462452777	1.21091508082202	-1.57637786452152	-0.518595622235388
"AACATTGTCCAGGTTG-1"	7.6687646960271	2.90836570563688	3.97503481847508	1.33912889733952	-3.12947746036105	-14.2084099911806	-2.46294627420059	0.137820535684679	-2.29669833565274	-3.94046438388848	-0.398129568794133	1.53511461902843	-1.82215246562815	2.45544892092341	-3.43451578881103	-0.388547683408338	2.80952661687847	-1.75941642323978	-0.430736192821985	-1.11235519874755	-2.06236385022403	-4.56850231919168	0.0357354429896502	3.177867309031	0.450209620058616	0.0366497423225686	-0.96537869648991	1.23346685337758	1.62577735933579	3.32926048956949	0.213947749941652	-0.0458675545752179	-0.72827359862096	-2.24651833645584	-2.9174265202089	-0.894971457471548	4.38578989551263	0.410838970364653	-0.306988866863039	3.84278629404671	-2.65652552723142	0.500045303888234	-3.44788116468578	-0.184526799650395	-2.30979942501223	-4.19051217146487	1.91484724610136	-2.136134911151	-3.91418114242803	0.321567351580651
"AACCGCTCACCAAAGG-1"	-7.20130507858808	-1.40322200342384	-0.357432696652406	1.06496184762703	0.605760101050044	3.8316587731955	0.175013550600353	0.331539983147387	-0.181515040569663	-2.68630550591004	2.21093754729012	-2.29247564312916	-0.587266087382419	-0.0618312598590941	-0.773808992147874	-0.515882150641717	0.562168567584653	-0.00149441016004472	0.320086777812715	-0.998920347829281	-0.555718424615466	-0.705623626514147	-0.469012781735368	-0.0948400594135426	0.230183870158242	0.461963400138629	1.34475760029686	0.507054142296692	-0.877020039596216	-0.454486580046951	-1.8395864349127	0.0877121021317094	-1.48715885323345	1.29967562401965	0.182249563096431	0.864802399496636	0.155822316540299	0.531529631119876	0.632368640536851	1.78722347202935	-1.4224352468852	-1.01563899472062	-0.413189243983866	0.399206705645099	-0.0489474556609064	0.608366853060952	-0.0743760737667842	-0.0208399771233131	0.0976202905699705	0.543796042773746
"AACCGCTCAGCTCAAC-1"	48.0899362601688	-48.4565271876423	-12.5255561611762	14.8803842446355	4.80039150838148	3.03318804145873	-3.48533902070311	0.176252246485512	-0.715587802694568	-0.950540185122088	0.851217839260552	-0.538120812611794	0.240112497429538	2.44038132694369	-0.969647661993727	-1.44567223001405	2.33599465066371	5.80330505984906	-5.9136773347902	-1.64503536711938	-9.70923298279033	2.14020926545191	1.23249845956569	0.714408830012285	-7.41957707393334	-3.6343217156698	2.15520648007527	0.734000196414148	-5.35564067138369	-1.35327999940551	0.152260708739063	5.86072913078467	0.22159400063228	-4.19318216554569	0.0553362269568526	-3.72856779741747	1.74477013130218	-1.21581681716873	-6.89842992923936	1.07817940786799	1.67257658811941	-0.466260009447585	0.0320674412826865	0.587649753456998	0.687854516085838	2.89958560358726	1.24398684910265	0.718359656202338	-1.882688618772	3.25095726323818
"AACCGCTCATCCAGGT-1"	-7.14168379719107	-1.55281309965542	-0.111891824246595	0.55567186508607	0.265661574917578	4.27081047853737	0.890491799723964	0.709567750039345	-1.32462265431623	-2.25822202844963	1.90400443732717	-0.0104441295319675	0.135763899822503	-0.0768816381624256	-1.30106694426321	1.15003615081741	0.729422464080371	0.139420246150176	-0.0174551881948698	-0.221200223244248	-0.417334253444258	-0.343664585125039	-0.246400894404093	-0.790832064305513	-0.161876894360306	-0.751050409914238	-0.0360756460044763	-0.569254707332011	1.71014763787924	-0.52276556456499	-0.801875308899862	0.167616271789996	-0.0716849904370507	-0.448498859659484	-0.352337110043369	-0.393296426636291	0.166990395705308	0.100713297410906	-0.226265796442644	-0.827766259477757	0.0169087960102696	0.228120314841567	-0.510473749336372	-0.439147001470389	-0.141374079537673	2.05171505774772	-0.304384586759389	0.607452398457937	0.319771100793997	0.612155607928107
"AACCTAATCCTACCTA-1"	8.40275330128851	-0.208217519840244	-2.56328841033116	-3.51612543719891	-2.18128751903721	-12.0920235792575	0.858640358200594	-0.308718420882353	-0.507805197317137	1.35463705215465	1.50429360140046	0.559449759250959	-3.02643765723211	-1.68445574071762	0.120666389978718	-2.21528083592856	0.227287725462879	-2.46217054277671	1.29836099278674	-0.697124059555035	-1.09039243259625	-0.722976517413519	-1.21963295519023	1.3376655105994	1.19577313799138	-1.87192759407137	0.398023810492097	2.8467582399369	-2.56076074644564	-0.373836363974851	-0.31505309665343	-0.545995311006075	-3.66728683370396	-3.39001592772619	-0.318348876327782	3.55321314218667	1.64765330453865	-1.67489769599353	-0.634766976877175	0.880631077230853	-1.16651975255695	-1.03418576736281	-3.23714589153981	4.32698030932078	-1.97699576818411	1.75390861422623	2.878402144368	1.39842741470252	2.75485120478697	-0.146446257717055
"AACCTCCTCCTCCCTC-1"	-7.10027700179879	-2.25261456053267	0.147024411967157	-0.307868011883821	1.21560002349958	3.7180310549743	-0.677945633956566	0.871707041862612	-0.921749581527785	-4.73927634483026	-0.411366856699473	2.49896195256418	-1.35197631097203	-1.65136411527735	0.217144242658441	-0.572370944445357	-0.633426044827788	1.56600766377435	1.30494820325599	-0.0707599182600026	0.11982380594586	1.12836115017584	-0.78451100238034	-1.04099209554344	-0.382014373199203	-1.27934943949534	-2.2556927448829	0.0417626721646819	1.19725188075106	-0.288555196257519	0.242289829336677	-0.71677247264828	0.0590167474049403	-0.870626134620162	-0.00811305337501874	-0.182996219203047	-0.894853030530952	-0.109853655230667	-0.840774942423153	-0.152531567980673	-2.4391744571199	0.234465193889212	0.461113773997769	1.31499852204273	-1.22887138730214	0.147015366171243	-0.815447983921472	0.965430460930782	-1.33837362619007	-0.632473657782493
"AACCTCCTCCTGGCTT-1"	-6.81748570570594	-1.78886961344264	0.217885343445998	0.217792885793646	-0.0382351177119544	3.50429999845365	-0.850747770937728	-0.238289369292636	-1.02773104540818	-2.39159208591789	1.9259484710911	-0.0741290719369464	-0.335351740684979	0.679276852602964	-0.184165749940595	0.480112365740444	-0.0404712505392604	0.0537986744567552	0.00709302929626793	-0.436067973120638	-0.0790159646064496	0.260450820527959	-1.18477213903351	0.854062613552244	-0.0661710040437033	-0.774017292285002	-1.0405867303166	-0.797630236168651	1.32503964280548	-0.94387144502667	-0.770554062487526	0.534594052195993	0.416967403208825	-0.0660381180321227	0.870227367884202	-1.04727224724943	0.25476800422002	-0.934287322629418	-0.704012228805538	1.52320586658667	0.648027631333382	-0.40193111992833	0.525850282241583	0.536411368737973	-1.38887868238569	0.508833764998195	-0.629526202390189	-0.189669530439923	0.00511031543809435	0.369878267794912
"AACCTTAAGAGGGACT-1"	-4.80818480007397	-1.21097106862874	0.312083906807408	-0.75873143268325	0.151637354931777	2.66906174898724	-0.19072567303829	1.4455111412062	0.202371562679695	-2.21737495581495	1.16575062076776	0.42459131471274	1.21814995099972	0.405592748167042	0.48838974458913	0.0217668853319524	0.729686812976982	1.09500130689854	0.940027178956925	-0.187140171668935	-0.494125187040732	-1.01980433816858	0.126646140843476	-1.4526999409352	1.34848376975315	0.416062961773363	0.754227163845823	1.44279923348223	0.699929251919805	1.88916029946965	1.29458426843829	-0.837993448976421	-1.03844223363321	-0.373895539002933	0.26691889878961	0.339792934547865	-0.448314431576338	-0.632331271804697	0.129055955021874	-0.694904410923147	-0.788262996672245	1.15930487147143	-0.00534836625204471	1.4435683429275	-0.603753608386292	-1.07355573541646	-1.57645825282214	-3.08134376903928	-1.01589681946455	-2.25736696031674
"AACCTTAAGCCTCTGT-1"	-5.93200940515305	-0.800371583413649	-0.79586127305853	1.13138458157987	-0.51124061702217	4.25438637108387	0.284127956477253	-0.391581668935471	-1.94336153146916	-0.896383693260025	2.86884016028461	-3.17776855282516	1.78927762897371	1.10160901093009	-1.85293459386796	-0.700482633957085	0.169428376212938	0.089167954511137	-1.65244757219977	0.684755509790563	-1.03535923153953	0.186758020559844	0.0151686898288815	-1.15356643321629	2.01868012484061	1.10998682406201	2.06701964926727	0.681016062347273	-0.0754931029725111	1.40093910950586	-0.739574427178636	-1.18826501177826	0.935994814117818	-0.319376225607546	-1.93110299454144	-0.593772667795569	-1.30183469139249	-0.954698314848998	0.986609360171289	-0.226783177644735	-2.74002632907506	-0.0381531767418695	-0.7496838273232	-1.963967438715	-0.619042042691899	-0.12442298392822	1.44564954953452	0.642718188638068	1.5881196779063	-0.0304433021742953
"AACCTTAAGCTCAAAC-1"	-9.39881538301973	-2.24628835363291	-1.50487829448939	0.303353421991627	-0.82040360331475	3.55811865185543	0.905930041857412	-0.0985185381816556	-0.22581624166043	2.99547722560067	-0.477630005478034	1.2645212884066	-0.131684068474192	1.12169409835152	0.0970368929454722	0.72652725755349	0.142084713297894	-0.169979434815313	-1.22886780955459	-0.289240359927391	-0.597271533204503	-1.88867917162647	-0.618909269924936	-2.42817889076006	1.05189105217859	1.29582294486037	2.7667171280364	1.43477968950299	-2.11388087451159	-0.507329035279929	-0.164628061755598	-0.413306213601255	-0.630433715545704	0.302750983424196	2.02295730974664	1.45177773900926	-0.51795259758219	1.25923651611198	0.396719757813799	-0.54463693703621	-2.81479732901468	0.578253770406117	-0.23297591855141	0.298015249650679	-0.150649641544792	-0.445796506470745	-0.160081880049369	-0.700852383523983	-0.969212899637838	0.509480775107233
"AACCTTAAGTGAGGTA-1"	-5.06348976533262	-0.800304308972954	-0.391590608939059	1.17291935482189	-0.334295135247455	2.33821646560987	0.0563281054149638	0.732184002492937	0.0496445598667443	-3.74807452117317	1.83400826825564	-0.453046896544849	0.248321021994366	-0.456433007475503	1.29697541545348	-0.125315660791131	0.201552512288961	0.155219896469968	-0.150353857093115	1.64715290440797	1.16552346170255	0.480127786103876	0.24357726720404	1.01294432496422	-0.309555100359335	0.827953580501334	-0.660207530507622	0.75307431493568	-0.787283578710066	0.14925666173506	-1.43303971328904	-0.444202843929254	0.614914253793576	0.682684883049307	-0.112363111708742	0.730083897064563	0.0273233527375404	0.347617328158983	-0.901876783650627	0.682143369746791	1.03604102166747	0.281432404682106	-1.69225994525269	0.902180126900028	-0.299659744161212	0.270396267734033	1.18898715148644	0.263702595664985	-0.233388751475658	-0.780871931931797
"AACCTTGCAGCAAGTG-1"	-7.45398471921939	-1.1270145170259	-0.790761827985498	-0.314870005111535	0.405458401929818	3.95785442699833	0.617888274952541	0.546152600936131	-0.0334507169591258	-1.15830229435734	-1.72010965688026	4.07157937137689	-2.04331598435303	-0.706671066962506	0.728981022070458	0.992360480260903	-0.329122909556979	0.641889350834393	0.712443838877865	-1.4229641756399	-0.773521121601782	1.36350781519472	-0.888410408573623	0.457687647457708	0.573316463529193	-0.95129013453156	-0.692382165808051	0.87058995544328	1.70621549105784	0.575028716593872	-0.800157369538682	1.41950028282281	1.19238462915024	-1.14467419527237	0.733147640907205	-0.349231505122885	-1.04154813142239	-0.895170561496606	0.936488189779306	-0.0149907662300412	-1.10630026408557	-1.7207029382124	-1.74369744609777	-0.125200227187733	0.778260353080892	1.50174497778651	-0.169099536464157	-0.63935935013823	0.526804024965365	-0.211698325825186
"AACCTTGCATGCTTAG-1"	41.430599781429	45.126415344044	-13.1112430277362	22.2704232013405	-1.26817393868492	9.68933498462897	-3.09694852948213	-1.14243474716421	2.24916263208471	-0.500981280430195	-3.71343734479963	-5.7722257686153	5.68008030721319	-10.3153081443775	2.46312425624743	-7.92457430505346	1.31667399744776	8.27538831589914	11.0359815127102	2.74270177924746	-4.38689390444479	5.27445249086861	14.0045605438912	1.94984158465345	15.2259657230788	-0.0721148312420215	0.19567661053309	6.27474243883023	5.64259672298701	-4.42775230551412	7.84641999028794	7.72061566074483	-1.49105432561978	7.23345479365837	-10.9337977682733	-6.43168797453173	5.84353868572307	-9.33323148221324	16.7210604711446	1.25517908523654	0.963434289365659	-1.29117043031246	-7.80943175261364	3.91198390164289	15.3413974159347	-4.71291196587802	-2.7267870794958	-15.6362700528916	0.58925741524675	1.92578662203093
"AACGACAAGGATCCGC-1"	-9.60361749235792	-2.10868379762967	-1.79265053158311	0.606474408126833	-0.712735570067484	3.42812374783333	1.50424233642037	-0.38308245941459	0.865449297727435	5.45410016157841	-4.99921220969904	3.38291482044979	-0.988769970317269	1.78628221916406	-0.553125232714384	-1.50494507086138	2.78734651433313	-1.18197811406032	-1.21096161638991	-1.69492264854619	1.54343827272243	-1.32527156744477	1.07268798756214	0.629726209584522	-1.09839654464611	-0.197591328244754	0.288216046512945	-2.60707638969888	-2.45573997762431	1.69997733654082	-0.611983161045566	0.176194170824868	-2.44237687091963	1.41598143519923	-1.61947532163908	-0.146528517168211	2.05644352482216	-0.0827498648822104	-0.266236517233975	-3.38228764542151	1.42259958301639	-0.869851533007527	-3.53969428058752	0.0942399624693513	-0.663638041447456	-0.451087200557683	0.7772412219121	0.751811828114207	1.6155369988567	0.091212814733222
"AACGACAAGGCATTAC-1"	-5.67103754732502	-0.918138574650695	0.449787441529593	-0.221041877459656	1.02825003861508	3.88172631251944	-0.743024492619465	0.90535632810811	0.0849752825500265	-3.4605407289081	0.394700128453227	0.759311687411095	0.214281810351623	-0.913058208901521	0.136078387776497	-0.108250720549223	-0.175097551791273	1.71827069177078	-0.482891361573917	-1.58965736792657	-0.448189631068177	0.427513039340853	-1.20367169006959	-0.293161657678164	-0.102519239330059	0.341876520022652	-1.25156232878193	-0.245187053938977	1.0078718216343	-1.03383136701149	-1.24348475376568	-0.254150341350275	-0.0676731978110877	1.30579213009028	-0.658169662412377	-1.11456335721542	0.49506604452883	0.381232340386333	-0.517501419973867	-0.633537579599963	0.647200435766308	0.936457787498348	-0.711445983682665	-0.49959523525816	-0.468364161959544	-0.708730790784658	1.13144366253556	0.564743701052581	-0.0204141064670312	-0.164951823703286
"AACGCCCAGTAACCAC-1"	-9.35109677271888	-2.01957149480735	-0.804909646731588	0.694416382957658	-0.594510083132367	2.50197790129821	0.53260196103748	-0.228094606152749	0.471264109426278	2.84177550510692	-2.65669209027755	0.159935218390347	-0.165322420781772	-0.240324304515725	-0.945685396281984	0.0209469168643493	-0.37162259066056	-1.17186732813339	0.787226179216709	-1.41984011067966	1.52879448390184	-0.629488667011563	2.74897965056684	1.21603396667065	0.172406623419186	0.174848742282073	-2.78131837977328	-1.21034641057429	2.44559860638597	1.61775501632963	-3.17522029123613	0.621074880606892	0.897526467252637	-1.45313690101088	1.39192668162254	1.47231694720942	-1.40309980053209	-1.50236137176484	0.320137919854619	-2.74810727985822	-0.2666456933107	-2.99933942914834	-2.5459840877748	-0.756786494618893	0.652954865477664	-0.0813627674017076	1.23283890175544	0.878015930165646	1.53578588724434	-0.404504979389469
"AACTAGCTCAAACCGT-1"	23.3512174582797	1.93955425348756	62.1468777582965	9.51377863618126	2.69430676745424	-9.78699568610207	-7.28612321279051	67.8066340929939	11.1522705200249	7.13189536496733	-1.7147426624953	12.4865469648899	25.0438140151587	6.07745709708352	-0.0859906149755831	2.09716862201178	-0.979605482181911	-3.20878907993419	-2.90776938681006	-5.29597852763749	1.49909814618076	-0.538388723305414	4.20347363850802	-6.48751772256505	3.11200208816026	3.34810121858916	-4.72984002619596	6.68803636234664	5.78088496982556	-0.525150938739938	8.93470663838259	2.32519379768707	-1.07292151685152	-6.79378928391805	0.299867097993019	4.11250821469791	-0.0502827002415984	0.65600652679104	3.14301533484314	3.58411104739351	3.56267267811232	1.64223251250051	-2.26542912544515	6.14504978515855	8.3099471488351	-14.899159946373	-1.27448909349505	-2.4043237247902	-2.29527463835192	1.20723239820192
"AACTAGCTCTTTGACT-1"	-6.40083043093316	0.193658832596781	-1.74486015503087	-1.27748827892948	1.31372958779937	3.59314977271482	2.06373870533489	-0.759775851187839	0.49311773044152	2.80893278237751	-5.75363580562407	7.30061529023206	-4.17149613965667	-1.61820395519585	0.723876092890649	1.4470506620095	-1.15941611921117	-1.01974851557481	-0.795104813343029	-0.0468204743621806	-0.561191571129495	0.0204025102890332	0.329434861148967	1.08272035225609	0.559631827546197	1.69154080856275	1.86114539327096	-2.48835159500665	-1.50526455860166	1.6544316411736	1.11427222240634	0.691176474674864	-1.14175537688385	-1.08984695149218	-1.56171987032075	1.13167998172583	0.185583515470503	-2.71556115248169	-0.431544400100515	-0.0954194198647811	0.409663717010446	-0.0320568490888366	1.75789321432581	-1.12326212442168	0.570346544716601	0.384002104107361	-0.310168573279818	0.116103493775788	-0.0430139398142596	-0.0258538319093184
"AACTAGTGTACAATGT-1"	-3.52675607525093	-1.39998812057508	0.482716459745423	0.874495135288909	1.35819867060649	2.61057454689789	0.180247196848206	1.37576745770407	0.927534118486057	-3.74172805620166	0.532722625861532	1.26667775142457	-2.4679078690212	-0.77803579971395	-1.50682224164955	-0.686128582616823	-0.0683501867615314	1.99220281770894	0.938599318423781	-0.04029052293298	-0.782140851437533	0.292252611584066	0.0423066293320124	0.58036836273822	-0.0341174790304938	-0.301089182471745	-0.121302479910247	-1.67267812925606	-1.47400879848722	0.693464191509319	-0.367250634081153	-0.795330331844823	-0.0305666898179995	0.507036853295566	-0.137282308206157	-1.39449653215312	-0.564420735777491	-0.390893064316889	-0.366944742311404	0.131285344873447	-1.57604008716194	-0.938585601538289	0.226034129477629	0.671744585963831	0.774075735473586	0.441294467685096	0.648314809941079	0.239544304009524	0.88016107540551	0.990792787136167
"AACTAGTGTTTAACCC-1"	-5.21262087714386	0.220237681538772	-0.0801260721249811	0.796957118476592	-4.70670892985542	-19.5200937546571	-0.645358128762634	-2.42397486613571	-0.297661674053539	1.03533647793231	-1.60710872435085	0.71421105159908	0.137314684151887	-1.95586476132252	-1.1511852135271	0.318394440720096	0.510522197508496	0.110598133653392	0.34924228292949	0.723457096526085	-0.841988921316941	-0.300742260388055	1.67841567128858	-1.82319731500318	1.24348283581608	-0.985786796120701	0.653183944790188	0.350129237960346	-0.150021556223728	0.902374474082208	0.238750751621122	-0.856805666855432	-0.161721585647878	-0.260215510068353	0.233581546522397	-0.0318698822539116	0.52374907245239	1.33369788588672	-0.161004793515156	-0.277668088432031	0.892133501552439	1.60727764304924	2.57348552313751	-1.07616941236565	-0.187917546291708	0.348275812325611	-0.823072437790834	-3.59209564091218	0.405036534793029	0.819868960202755
"AACTCACAGGATCCGC-1"	22.2159565794022	7.86973911788839	-7.62939438615494	-37.0089654934904	52.4632483662489	-5.34859082678563	-16.2614396891723	-1.95074594116731	-1.09391995574514	6.49601994735503	-2.46011395053041	-1.61774984717041	0.38822948898968	1.09141349018824	-4.04995556009188	-3.28269339362471	-0.122687817592433	0.513902184186208	-2.38113314823238	5.46648811601909	-2.8115304620695	-2.30485341989525	-5.4497872172618	2.89445762525068	6.6351648813518	-1.9150761710507	11.5915019687912	-2.54054056143934	4.75964039255793	3.29488065088387	4.17402137788431	-7.619149787934	6.24009174677508	-2.28654868300692	1.05734525327157	13.035533510513	5.02253799903704	-5.41781994729756	-5.27710226790709	-2.94013757509795	-3.19250544695843	4.82891442736876	1.38666255119897	0.0453152889942036	0.0296195596466054	-2.89598695113746	0.42046054413879	0.1829404772502	1.36116611276053	-2.16754022781803
"AACTTAGTCAAGTGTC-1"	-4.63237113984406	-2.3172506195967	0.170075479006657	0.732980441028511	-0.374373701853398	3.12822901101335	-0.213355385657626	0.586798521725534	-0.0793739467388411	-3.4341710351147	2.68626887657443	-0.652987006976943	1.55838167403142	0.00880007998415829	0.20279944295027	-0.750548775766542	0.356910318951889	1.06790945200133	-0.340384722175569	0.294896048732964	0.251305610329675	-0.133331377926774	-1.19278194404998	0.220500145690966	0.303729172350046	1.28867800070859	0.363971531745015	-0.118010682029703	1.04557224327671	-0.736782916105293	1.10137783624088	-1.06492143972212	0.980254691746929	-1.04102733536447	0.217574655031337	-0.313994719130616	-0.58605382960359	0.514974822369622	-0.62078911004771	0.895693623347039	-0.796702918516493	-0.594697711387252	0.420939671759054	-0.0780730791947054	-0.12549634702201	-0.973643209197582	0.784864386975976	-0.427648472516511	-0.868921626733616	-0.0430045849526328
"AACTTAGTCATTGTCT-1"	-6.53506696370305	-1.08617140266678	0.174991329156229	0.229210967464242	0.081607144270939	1.4515281703673	0.220057083642136	0.607481527358058	-0.130766466218329	-3.07767548027186	1.21283968025768	-0.373164063604813	-0.278497463927301	-0.567338292472014	-0.339178179810129	0.463102046411664	0.940385609263839	-0.909598478861309	0.0530884046852705	-0.622808089578552	-0.616288857625092	0.248257318141377	-0.610093183674429	0.380296643128044	-0.433024973507091	0.416809725145686	-1.36202389215847	-0.581251793721034	0.196656946015345	-0.827611007309955	0.392279315137751	-0.246254264446077	0.391313676821521	0.58513043281388	-1.47539986432666	-0.471017910204308	0.632178038574236	-0.194953902052994	-0.960707005182157	-0.729584948331108	-0.199052858539844	0.0494806594631709	-1.32385903156577	-0.480916574007681	-0.0490256266278097	-0.447431539498361	-1.23129549115763	0.707651245656488	0.315823435909465	0.134211035513071
"AACTTAGTCTAAGTCA-1"	-3.82529708756231	1.06278170807544	0.587706019200244	1.26406821034754	-2.70425053904942	-20.4916130277138	-1.18244259606759	-4.09544407796741	-1.00000211011695	3.33531045898415	-0.526705510366123	-2.01968104886262	1.51146470862679	0.911269453213856	-2.84076464418247	-2.084221862503	-0.95943702115122	-0.489104905244913	2.05534907072873	-1.30923176754653	0.232595455193608	4.21092045230368	0.425570532524746	0.362300784480044	1.98228585225082	0.157900155686456	-0.832983858707564	-1.07174161353016	3.03533145556277	-0.0287638507725168	-2.2388553680401	1.57662588092084	0.980644417407916	-1.13466260402228	0.319805064188514	0.821705012110212	-0.309885589146275	-0.997382239968632	1.22208159663314	-0.913833369731782	-0.424866661811283	-3.56448724660017	0.340364319020762	-1.65462314615221	2.08790768991981	0.625111822390413	1.09423228518751	1.77421654020528	-0.174831675988261	-0.741576194424483
"AAGACATAGAAAGGAA-1"	-6.83022752153769	-1.02340313076219	-1.04334248539308	0.873666426039041	-3.00889738385039	-14.4359339095419	-0.57206849586188	-1.75942123227385	0.363111051229725	1.06855826224404	-0.876156899318021	-1.42799299113397	0.127693859246375	0.646917266579535	-0.240529420452879	-1.28452762172007	0.149912915785902	-1.16899653389533	-0.601864271491549	-0.335688483034573	1.20965325711396	-1.21672855352053	-0.654014992045202	1.02329141965744	-1.73585424181648	0.434270501397574	-0.924167660371428	-0.473196329164988	0.88692495967046	1.83610338516496	-1.33781373768795	-0.232495771500429	0.641292756142071	-1.54514041863907	0.118476054034614	0.301017110179428	-1.64087539298033	-0.0412609708931055	0.524705194352861	-0.68100257396794	-0.210713404400689	-0.575126820687394	-1.65580231036944	-1.20909705688789	-0.741024840609777	0.135495846997241	0.559867193307852	-0.428698793076065	0.735084241105849	1.07944403484515
"AAGACATAGCGAAGTA-1"	-5.99487108835911	-0.548702245496299	-0.353409367503034	0.639559133364093	-1.07991981087861	4.33435863113852	0.757794176345984	1.2115135594417	-1.32679438857786	-2.59602997382589	0.204112168295182	-0.327610183109955	0.930691253814269	-0.00563520420693644	0.450644643078168	-0.756323441898764	-0.130907674403022	0.659537178269	0.259544854512732	0.422297912085019	-0.912533529129629	-1.53228005856548	-0.817868544488017	0.855782474096804	-0.74106579474731	-0.663257285018375	0.111434528252376	0.13362949806448	-0.173732469441081	-0.613799440143449	-1.05136791487585	-1.29220242808154	-0.856669004721732	-1.71508098367094	0.785678774852022	0.545616182416683	-0.549900633702667	-0.423719587444945	1.00540633632667	-2.04119980719008	0.101581886385037	-1.38973555226978	-2.1540636493388	-1.56079124352112	-0.534548565314932	-1.22671017541504	1.1140278140918	0.542695783588577	0.104323891563098	-0.17306913873187
"AAGACATAGGATTGAG-1"	49.881787405282	46.2449176518698	-18.2913868108667	15.6361660095157	2.00666891918541	-2.1398726054114	2.31824307774152	0.703284401346192	1.78073730685358	18.3484494900917	17.9167935881589	2.04973969920329	1.35369624258481	-20.9737350563094	23.1309034036026	-11.1877168392087	2.49189894476775	-1.6255040269545	-0.220048482006191	0.246709363176513	-1.38999329054779	3.05276704405862	-0.0310034840277375	-11.5102066857898	9.15363316539577	-3.84290792029638	3.96569151172598	3.49574096447739	-1.52105590860124	-10.0833766913882	-10.2979543759246	-3.34523281740778	1.21920800176558	-11.4599550717238	7.85841035106378	-5.16927946870661	-5.43407652971172	4.61224039004086	-10.2868256056927	-11.139847915563	7.47019955946435	-12.0554200460747	-0.215472506517995	-3.43453190623914	1.37222328780539	-8.74019806022439	2.49798267487558	9.28765953351956	-3.78802602275838	-5.42306548443816
"AAGCAAGTCAAACCGT-1"	-5.18971054632737	0.829383829273598	-1.61741005041862	2.33833121456554	-2.91745956243691	-17.6011004286428	-0.492321974968358	-2.06809929000312	0.54500923738758	0.297622220231715	-0.193061974057358	-2.79716790525855	1.23600980571845	0.621062842445055	-0.103403262531278	0.81382667852082	-0.516904915224582	0.918110999696519	-0.668554052990549	0.889644363968361	0.758875888376958	1.98185581763006	-1.03385661654385	-0.992362240351409	1.16828764577206	0.453668479588445	3.40894655070128	1.76322475923773	0.883704086635475	0.00882607635953675	0.292697037749641	-0.61135813845113	-0.70245594609296	0.311981996782438	1.28472628557767	-0.0921301316319233	-0.63547359445701	1.1055724903914	1.96859027891877	-0.0988340562585029	0.998699124214077	0.633835801190985	-0.332620731000186	-1.20787458197864	-0.665596675812596	0.62705415840832	-1.84050181554785	-0.399997230855515	-1.52787242144003	0.239835420071663
"AAGCATGAGGTGCTGC-1"	57.1379213475477	-54.6575580450335	-15.6097899527748	19.3902241379838	5.46907187620534	3.19595934920386	-2.31993742368277	0.950152505053305	0.893021578230831	4.31711586924608	0.0121318909094468	-3.04872325441147	0.887305168076911	0.395316305263474	-3.05006156443517	-1.75821974789636	4.57961220972467	9.91451675199462	-9.49049651483004	0.244364306533199	-10.9943003843419	-2.71851503938095	-4.29943337873948	-6.9191987565092	-7.51933525436411	-2.52411604725615	1.03884518096168	-4.62743035760391	0.906714169422389	-4.29326718676649	3.93654304780886	6.23503531280658	4.86979223478558	-0.405875125598697	2.32663238455863	-4.66391792411083	4.66146735381827	0.532960832296982	8.75064549270415	-0.0202873092350484	2.53089271974523	-4.77016962671724	1.3866864558783	3.74720221917333	-6.4156266850296	-5.76144269523508	-4.35101044138559	2.87383304986405	-2.6316493492225	-0.130443534212238
"AAGCCACGTGAGAAAC-1"	-4.38839464444325	-0.732800164649593	0.153335892183638	0.21705479294002	-0.0419149610012947	3.14098799838424	0.387015180327704	1.77116746475306	0.268240669641085	-2.27146692620648	-0.347133515856234	0.32577469177594	-0.609556115282612	-0.349919824699674	1.87800351419472	0.422123456196595	-0.33866928077845	0.551859183697052	0.189468268248646	0.0289710938829691	0.0146861655806063	0.552242197465534	-0.0371272157998433	0.363398898939038	-0.149012389284431	-0.148021405523201	-0.812391210063654	0.467438985131099	0.221101655190613	-0.127616041086663	0.215329139435688	-0.598013664295923	-0.28135255513453	-0.643619550568087	-1.07448256556162	-1.35068743952175	0.139878976829746	-1.0439613090539	1.32122387753078	0.472375535531457	-0.325299506878898	0.34907759136617	-0.0401123672361807	0.860109695674792	-0.369235117323571	0.681954654646776	-0.0162982008273242	-0.238588049435865	-0.529588054886706	-1.52589560732997
"AAGCCACGTTATTGCC-1"	-5.18206375929576	-1.81495741553868	-0.216360144575951	-1.63714309556184	1.8161232469851	3.58341183176844	0.791324605833589	-0.349267933620655	-0.812137490711505	0.404211220140605	-4.1473974964683	6.59929722260748	-3.70726058267389	-0.930163435103033	1.80759774289916	-0.632305351792472	0.0537002757603972	2.1012305674853	1.65515996472984	0.484015763122136	-0.951800333909609	-0.903184450535025	-1.0924479192123	-1.02583225813101	1.19539364123894	-1.59066546310839	-1.78188329106575	0.014940853836065	0.552869054543111	-0.0414772297268049	-1.05682781572765	0.0810554165374479	-0.569307728024714	2.07885983207123	0.50171908531885	-0.114445586674668	-1.00203814082035	1.59230411468344	0.343459231018354	-1.64622227184543	1.67080089163731	0.180704421057915	0.866935085905739	1.87749384053293	1.69569597526379	-0.546790946389124	0.757074734240305	-1.14814043852419	-0.183038923617427	-1.05539149440513
"AAGCCTCCAAGGGTTG-1"	-8.16312030689549	-1.77489462133424	-0.851277164063443	-1.04730049475853	1.43832132820406	3.99554662083229	-0.0815272737502183	-0.118597192491916	-0.43482963769087	-1.18159603984607	-1.56343527804382	2.75734636184305	-1.59857263976838	-0.420028739135843	0.62726060841459	-0.763911681598146	-0.267245158890352	0.496648888907412	-0.769885151425373	0.847388952558445	0.525590272323329	-0.601349625966645	-0.513697179164109	-0.67209183019171	1.30167769705847	-0.312661476550639	1.37218543763972	0.0748580388661593	0.148112653721095	1.59674201565596	0.284548314724788	-0.80415082012409	-0.425414140228958	-1.40099562754438	0.39382220695406	0.903299410586789	-1.96155185971313	0.00594132046642913	-0.250654718812035	0.585412887514206	-0.986896221017968	-0.0633919102860207	1.33451691903773	-1.04143501947639	0.0998518578000713	-1.54618886098002	0.152298826150962	0.624864737261754	0.66080440700045	0.901985302968475
"AAGCCTCCAGCTAATT-1"	-8.36849918519235	-1.65774588292008	-1.24767369750618	0.129563337434431	-1.51520602743026	3.81404664884242	1.04285276157139	-0.695865544326042	0.766487320753048	3.16751003768587	1.34341202491816	-3.78414562693429	2.29304106773393	-0.0530000154499595	-1.50541872981531	0.900310645100165	0.618781404436732	-2.08283226806849	-1.31137770012348	-1.0628869039941	-1.5147180122561	-0.955391686462445	-1.07368645375422	1.50596645702405	-0.676430694003532	-0.414327052103781	1.16984332216906	-0.892191607337434	-1.15928954541636	0.00303612379095648	0.937250327089477	0.632496032844551	1.25608672189367	-0.428603082654169	-0.456970159475693	0.361274009744515	0.623542442217245	1.56367965810158	0.306661599434005	0.530751245938827	0.109864852738558	1.94828687598009	0.681736559506979	1.33705794160613	1.24696236682145	-0.625002919220994	-0.26077570140055	0.440808504020349	-0.243662380864859	-0.428595268646281
"AAGCCTGTCTTGACCC-1"	-3.18778850748987	1.22918295942091	-1.27099823558083	2.74522580530617	-3.11072915020933	-19.197095373954	-1.03605922083487	-2.47762481873123	0.554048304739667	-0.283905658614223	1.51679224096795	-2.9339450641217	1.39255206308907	-1.18229798850036	-1.23774189442911	-0.891319066823769	-0.653109711476967	0.930436450863621	1.16396674480739	-0.375879922147141	1.83624002738466	4.93146914198561	-0.599950206500294	-2.15891379035847	0.123041609634662	-0.0369648730472004	1.75010307924969	1.48607002229517	1.50712528767403	-2.07986061336096	2.18793498795804	-1.93789440742637	-2.40572256620517	-2.22474789277029	-0.0882922984906875	-0.0380062872169847	-0.565891250630811	1.71257843581625	0.0530743772952166	0.739042466880331	-0.158273125914089	0.674334833132499	-1.31427999486784	-0.441635853777504	-0.918949766812077	0.817517237253642	0.264176360526549	1.59472624298217	-0.686323735677716	-1.30976822486761
"AAGCCTTAGGAGCATA-1"	-9.30352804888099	-1.65299727477307	-0.180043421167608	-0.673780498059458	-0.254427476058066	3.36676119018943	0.70345949823159	-0.270030348881869	-0.32885888266028	3.18803472551805	-0.497638466582449	-1.9724955050579	0.614190374018541	1.65162208348014	-0.242658486499711	-0.245864784081542	0.222885045960237	-1.53921788338219	0.425206283718138	0.0880283775570832	0.354300959188863	-1.05653215308342	0.867137968236338	1.52738875366765	-1.19369695086416	-0.227268868669099	0.38802515575401	0.566305686952534	1.30290364207366	0.343022991611328	-2.16109516562463	0.949112124791367	1.33179252954135	-0.472260127357717	1.25018052324926	0.611180842160401	-2.00311225252289	-0.507982836721692	1.0634636825254	0.903837475732995	-0.212437637111099	0.537010747241284	0.140076576295007	0.548102709775571	0.888503035070227	-1.0718477272663	1.52367853646294	0.491902894280716	0.749760632771588	0.398924106655088
"AAGCCTTAGTAGCGGG-1"	-5.19271957417053	-1.27014614411595	1.1919035333289	-0.424245666321476	-0.27154786424311	3.51094481795497	-0.125905450822954	0.392715341769548	-0.16333077879681	-4.20765993484169	0.904705075251601	0.814083692317312	0.427103973034326	0.358132961471348	0.759714613496594	-0.422058610754846	0.200861059742751	1.04393869214816	1.02047679001162	-0.433318622044032	0.0621784821461573	-0.817297835805541	-0.673660708301826	-0.110783272617155	0.247078327846784	-0.682942162898642	-1.17798213561071	-2.06509768388117	-0.918200824211946	0.608553980523112	0.721925590848134	-1.77645121532834	-1.6202155642757	0.390593193257655	-0.17387425282479	-0.470719580952502	-0.491118589115524	0.121192284823311	-0.21131892152522	0.225238980294983	-1.1063887843277	0.15653973767279	-0.530889855899454	0.838794208399744	0.0381825299063652	-0.0400196383209734	0.650774397899207	0.558865715179822	-0.56640295998025	-0.848741967162735
"AAGCCTTAGTTTGGGT-1"	-4.47535381157798	1.2587202099629	-0.916649203864354	0.203208151476575	-0.0327698074770859	1.83775050328812	-1.34827904168103	-0.056670551555036	0.250471881665419	-3.15740110155898	1.90794410647918	-1.05056364002624	-0.265315807332322	0.230060709387139	0.351481997187308	0.413004356861148	0.524339227077286	0.336231506583822	-0.181283237048603	-0.462051369409533	0.354231945333332	0.707602221557264	-0.191798709254297	-0.262762723084681	1.01727248117657	-0.02349610050063	1.1734876203701	0.809651624004934	-0.632232920923403	0.67776923095763	-1.30315261529667	-0.418035310172702	-0.859545786848623	1.18921399756928	0.330110819120127	-0.417912220429178	0.319665042564678	0.066981616792568	-0.970498631440605	0.7375394381766	-1.23258448677772	-0.0793756793586103	1.09516744704445	0.0740096559924309	-1.79281145051339	1.08833448022344	-0.648579745798748	-1.04034941026671	-0.325462886769591	1.11963949592982
"AAGCGCTGTCATAAGT-1"	-5.19429462257721	-0.316263210409606	1.40193060403934	-0.245397424083372	-1.12681940217275	-4.98079323884259	1.27552543887165	0.059033455896339	0.720058522545612	-3.57722349534393	-1.42324467836164	3.17491220507236	-3.32805145825555	-2.20162595149924	0.260145551129782	-0.430286076801787	-1.52343196590176	2.04612408011773	1.05135216139412	-1.46592134185882	0.65130064962021	0.815213543052942	0.159112922961286	-0.701835518513621	0.339699268428676	1.01581610504014	-3.23221229014686	-1.14941256645448	0.959010621536801	0.400778875282295	1.66429473115845	-0.76753815374788	0.359738620538228	1.50622070069322	-0.813401943712054	0.601613072800744	-0.543388709620476	0.56462770361412	0.197883609778121	1.60031349312418	0.593441315817487	1.22286230689013	0.0192144818559556	-0.851079427520366	-1.91614057262484	0.780593670289549	-2.33019345694976	-1.30919941713459	-1.77145788886381	0.318561561325154
"AAGCGCTGTGTTTGTC-1"	-5.83531677276597	-1.19320036745308	0.131439779445475	-0.229765190538947	-0.278955396218819	3.50258972573092	-0.159179616159337	0.69194595112114	-0.474009754956037	-2.09198934140651	-0.347875004210552	1.53079349674491	-1.74942169482717	-1.16940670870463	0.917927221240133	-0.498563818366163	-0.876156646589693	1.23966899538083	-0.144675686226604	-0.0736722919304174	-0.163950091310483	-0.515627078341378	-0.948041939350508	-1.14053471541376	-0.00103682256218549	0.922769968850483	1.32507964835632	-0.77049700686073	-2.05533331811789	-0.248323600555505	-0.842993303161076	-1.0399002173376	-0.83071148346764	1.83471044753112	-0.164879572852173	0.472902969167983	-0.783859325064133	0.239602087053624	-1.07273382866338	-0.846134914102198	0.753580553539712	-0.129726462553869	0.414204370419572	0.84188023948696	-0.354304098526124	-0.0672508434109823	0.149618501355067	-0.372152573807033	0.217839645279906	-0.691484677857199
"AAGCGCTGTTTATCTG-1"	-8.15353803775471	-0.598472302608279	-0.357348896482883	0.0593893466943705	0.112999955917018	4.23549837513511	-0.288561983885801	0.707552564191414	-0.725536272343985	-1.74797480245946	1.63796238437588	-1.67422710383392	1.55683621354876	0.550980454654901	-0.569278502667755	-0.495088165924987	-0.199833137441805	0.442632262761621	0.138942788361981	-0.273414841838163	0.258040989455109	0.112818863529265	-1.0352740785895	-0.6255040634845	0.2751296450205	0.833203361068498	-0.499381291459714	-0.261894705746959	2.12448625187119	0.603324547122327	0.607497451360649	-0.353775309694032	0.461643621679981	-0.241775501688895	1.38602768654373	0.280792391849691	-0.287722302287434	-0.557719606626208	0.18385797509539	-1.64585847706028	-0.528787442422712	0.546570985335855	-1.39941200201176	-0.0920731686593413	-0.556529347514175	0.382189702191324	1.04101475188481	-1.63824580481271	0.0163698467556329	-0.393335768261057
"AAGCGTTTCATTGTCT-1"	-10.1619829804721	-2.4826496382674	-2.32591935405231	1.46258466376898	-0.25564131836862	3.69387507086781	0.852252095076894	-0.941297266080587	-0.980414706878021	6.90227907834462	-1.92383219709914	-1.6467267982239	1.2654470653133	0.719937227380265	-0.0997908093890416	1.19736176933997	0.0702536821918888	-2.50427956021026	-1.36409650240898	-1.7094146201639	0.72676793530148	1.25635231095894	0.959505704492776	1.26611862332746	-2.78967738066179	-0.201904892842451	-2.15287625508724	-0.526268674574999	-0.980328755077746	1.46592321694806	1.09382829875481	0.398785434477226	0.0721347769302551	1.14243259773939	-0.492870504739819	-1.97313536713157	0.295430818467812	-1.09518156264013	-0.706680862773377	-1.38670558637279	0.126188076994899	1.47977336845701	-1.61776657995978	1.21805085406691	1.4579940648921	-0.329668631186969	-0.128666096117237	-1.16038049205441	1.14008090231059	0.238741504935949
"AAGCGTTTCCGCATGA-1"	-2.79515758395763	-0.528601866115061	0.196310567517342	0.00328705249737517	1.33942818630415	2.81630162574546	-0.277131026174137	0.990665858397698	-0.429631298290433	-5.48175532917678	1.48102258445711	1.73515467345208	-1.26159434603271	-0.499480554944035	1.11982558634404	-0.280723863444839	-0.624362913043785	1.80194106853387	0.0580612681830858	-0.425406770772428	-0.0356735870185967	0.709398659722507	-0.566683023550388	-1.01488027109668	-0.244739163431773	-0.816848441457471	-0.503268822047291	0.512060979977504	-0.124483987622094	-1.20407249836695	0.151061233376895	-0.841932117886739	-0.126465922254185	-0.551260328784928	0.908286881522718	-0.326243494669157	0.564130134892996	0.622920121645286	-0.649008084469947	-1.98256337844467	-2.04423368465672	0.739261769273763	-0.589113138287651	-0.255499796479694	0.0653118852667594	0.349455345013748	-0.17921577098804	0.314670884982898	0.25789401192908	-0.237803631565784
"AAGCTAGAGCGATAGA-1"	-6.32700554121952	-1.3811197286068	-1.53317237451473	0.588211251418438	-0.444997711372246	-6.01088508132029	-1.38969823525711	-1.09011932695245	0.269572958206743	3.7150182028879	-2.2121666904543	0.127426510163444	0.523562209892588	-0.849628741460455	-0.453677970394095	-0.269153491088178	0.407434944412497	0.9558847425412	0.369270584105903	2.54052139361422	0.449032789298867	1.40303541428074	-0.831529242756503	-2.1231685476962	0.991313811659299	0.743983522184552	1.45438665863986	-0.33092873229487	-2.27879165268301	0.0174626595398356	-1.03406293641474	0.853961053731036	-1.51646291328058	1.09689537331882	-1.21114580686042	-1.15621378493037	1.86666680171892	2.5292149653536	0.246525117369363	1.35045609121665	0.552869317878472	-1.33399200325353	-2.63321955369222	-0.503345351042562	-1.86092816724153	0.205246345386677	-0.217511913454009	0.542285175920627	0.0523366056064402	-2.23832488792186
"AAGCTAGAGCTCATAA-1"	-5.82401069813459	-0.513647118642932	0.131614021644756	-0.583760650166569	-0.453289484762525	4.09627242924357	0.513253069484788	0.224397296223158	-0.103794116850834	-2.24040176429779	-0.403624776593354	0.188707508892763	0.00683057348353984	-0.0194294472512306	0.57520724334643	0.754290369545262	0.946886143619084	0.344051563531221	1.06097257481451	-0.667947373865596	0.343257940060963	0.258046848965059	0.186883288428349	-1.50364713950161	0.330553185329835	0.450730308998707	0.253409065307643	1.727210158273	0.866674028807788	-0.638097049571621	-0.376767414786551	0.795169621253531	0.534067971161533	-1.19777213866008	-0.744907508445379	0.234237416679132	0.863788789319914	0.321021414703536	0.858839331896385	0.370687255780509	0.559275514282321	0.742499603522582	-0.678656006171417	-0.574753717429763	0.948029915700532	0.167185984275715	0.985269566699737	0.10378161223812	-0.192489200317559	0.430485404691391
"AAGCTAGAGTCATGCG-1"	-6.31422095829731	0.00426311369114097	-1.66194089960549	0.132536641998727	2.22773630120005	-4.53704592655176	0.0530469500798904	-1.26735254578587	0.791382588312641	5.51653013646496	-7.65205673922918	7.48602091209079	-3.99906474167941	-2.72965248185217	1.43515933417743	-0.464481477129864	0.0585301067771022	-2.09270684611036	-3.76241337189994	-1.72717827155491	-1.38674837158616	-3.43657764869291	-2.54940497135544	-2.54535525683456	0.97839674817323	1.98132856569838	2.24220296911321	4.60926276015353	-4.39653935683866	-2.60643917961747	-0.560010343165947	2.20215849777335	1.86727189096411	0.127200703829708	0.875094328098568	-1.70359666262143	0.228951573063755	0.0899119367079201	0.561576705548077	2.2169649703942	-2.21224583846903	-0.935319369896347	0.333393580526585	0.717460243717896	-1.16072693285081	-1.67424386436053	-0.936268985135196	-1.20655334211908	-0.794429207606797	-0.720663878951075
"AAGCTATGTACTGATG-1"	59.6592000897176	-63.1580220688126	-15.1273763716967	25.3384731299771	6.54323994788948	3.455458248512	-5.79519493118505	0.462324870429919	1.3999084850927	-1.37941524481232	-0.987819579747755	3.51631016281463	-1.59269198309479	-1.40718491561277	-0.063346723570447	1.66751325544139	-5.18105889982348	-14.2559244478976	7.74335914780368	2.04615778828868	17.4357851100698	-1.05868453401381	1.26007659636687	1.57632024206313	7.6135509503375	-1.22261513513	-2.2926127981368	-2.36137435393163	1.31178785216804	3.37757816422409	-1.1077287171415	-7.34700814835085	-5.7672412751389	-1.20205619057314	6.22074708300288	7.81758829542842	0.783303464150205	3.03633456071369	2.54171917889192	4.85930098657925	-0.138682592592684	-1.60588942348079	2.77536949455705	-0.0955765983993049	-3.77105341837181	-3.39126984995084	-2.29375302475961	-0.242876795660469	3.40344893118414	-4.75954627138806
"AAGCTATGTGTGCACG-1"	12.5693216905907	7.49119360866583	-2.91339151136917	-22.3353047907199	28.804790564208	-26.5005394347309	-14.5456023402412	-1.96265602300681	-1.22197984204345	-6.21250437251782	-0.842666039921305	-3.06272271982828	-1.92212856816791	-0.257864054520941	1.41530114725708	2.33423664173209	2.47077435333772	-1.28859801515223	1.71169504907922	-3.23381266966193	0.608150396892772	-4.05111788240013	3.61698917522834	1.29266135950757	-2.15407210887036	1.77207035624538	-3.38405393003767	3.0054312341493	0.329524919008041	-0.0220030559133518	-0.901993992874958	-0.244215767162863	4.35028089939303	-2.71711234829277	-0.784400253577723	-0.155496849357658	-1.73477952098723	2.89384429444491	1.46412437651992	-2.17506215199157	1.51017780748051	4.44218378968262	-1.7420851378819	-3.64703002072312	-2.70478129157393	0.727080324097482	-1.08986752462393	1.79646162940537	-2.01963644945261	-1.22709591218503
"AAGCTTGGTGTCCAGG-1"	-4.72312435811166	-0.916378656862623	1.22316716539611	-0.122855752024998	1.17165447202606	2.05616916710531	-0.69492590615646	0.0889030746050678	-0.0167733251982789	-1.50114438963083	1.63399393168852	-1.39346818147	0.97498886220823	-0.0920147174357013	0.152669317535046	-0.0550902562496873	-0.292907605405783	-0.710467828452459	1.43455258401073	0.863732963819471	-0.264658420976085	0.310587736839111	-1.83672866472209	-1.19858347322633	-0.524627603208624	-0.232763703909716	1.09714225836632	0.0436251493035173	-0.973481329938986	-0.199685527886608	1.56929937409845	-0.33995614737143	-0.800622873990084	-0.420006708576553	1.37662773981094	-0.764556504147288	0.233808571358401	0.0209095126043969	-1.67387218995842	-0.846744658441535	-2.24764761038741	0.242607325791325	-1.33831864692529	-2.45500131345876	-0.019829638210163	-0.848865425694472	-0.199765384647784	-0.0939266917529037	0.37662677009215	-0.402922175184878
"AAGCTTGGTTTGGGCG-1"	-5.05919715955757	-0.163812705335438	-0.219134410627188	-0.531924549087999	0.286970405158964	1.3825878768287	-0.722625142495075	-0.030540947343348	0.406054220522947	-2.0338665435364	1.9718900537413	-2.77503729666455	1.48575299507985	1.00710935238766	-1.06976075412105	-0.142729225579897	0.131768539610921	0.530073063757436	-0.511346270722876	-0.588195512632155	0.380154805739485	-0.200007555092667	-0.324659632111308	-0.0303903905619305	0.338305485810098	-0.96670129644471	-0.385527849445421	0.864414867764805	0.24418227872678	-0.184011455918224	-1.13409650397575	0.237936878072355	0.318106069965879	0.270727487736686	0.490999250440046	-0.646326966797591	0.660042437315427	0.554995951733973	0.434379699396051	1.35944206603216	-0.310139115069771	0.497781146848226	-0.424798158949071	-0.812434851495365	0.898784111347418	0.421093264175662	0.374431419762378	-0.767708454629824	-0.300130954241883	0.706456778763686
"AAGGATGTCAATTGGC-1"	-4.57082141439269	-0.733892681305583	0.397032713382927	0.49848650881336	0.763096268579981	4.3315197697278	-0.643623427882078	1.03714560374053	-0.568830321654943	-4.45034537161668	1.3838266955444	-0.261554678416675	-0.159636073754289	-0.0134910534470444	1.95719041270738	0.458730362443661	1.37382202444274	0.509921899112628	2.81424201513012	-1.15701433692352	1.0158548644288	-0.0919884123577075	-0.764409919124513	-0.336884397179944	1.35590367289466	-1.26421137522994	-0.480941559820066	0.534375530115829	-0.586138839140977	-1.1914977009769	0.728291752940458	0.0035638575746592	0.326071058972468	0.179455923003856	-0.548872792171664	-0.288108592096227	-0.639600187435788	2.04343137934724	1.18115844807041	-0.192361940484982	-0.864195358897601	1.12061874621553	-1.18672018989785	-0.096668015756777	-0.517871522780817	-0.546569155189399	0.704056488062953	-0.0897802519748148	0.0373465155111548	-0.36140151407983
"AAGGATGTCGCTATGG-1"	-6.53876002459791	-2.29439201711773	0.393224654528946	-0.941413960507548	0.289088980541097	3.35658598021752	-0.100019922145132	1.30229847941454	-0.373468126731647	-1.73213338934949	-1.37602327516675	3.91443333891169	-2.19632561752133	-1.28689453734194	0.902609835125993	0.594378376747347	1.02221344063123	-0.0451914596417837	-0.128362459724848	-0.179463638644998	-0.468918275534575	-0.39761511467848	-0.419109939946908	0.405739360356007	1.20821538093874	-0.518971436123872	-0.227090386266687	-2.22259616373334	-1.51066250396575	-0.199008015967972	0.878825915237628	-0.615533769216652	-1.81829418523887	0.723462097266915	-0.778983983267007	0.226305220820008	-0.348420464091439	-0.308322678396085	-0.68484996086524	-0.0892953427812897	-0.248359682517941	0.747626173677054	-0.108250004887755	-0.77072099923739	-0.646670642320692	0.538922698766365	0.927920943473347	0.370259737242017	0.370206915184305	-0.102405417050134
"AAGGCCCTCGTGCCTT-1"	-3.87963015884588	0.920406229677682	-0.591213208411057	0.65338920145071	1.33392717707499	2.46959343373966	1.55112309199452	1.11713705004073	0.591896301448706	1.86972644534046	-5.36296649839032	6.5882924583481	-3.95429410580556	-1.60582818778181	2.25852492044255	-0.565966718957861	0.703555214829281	-0.118664107570059	-1.44390650297259	0.732995550356796	-0.758884854380958	-1.4114711025751	-0.38475710250263	-1.71459291303558	0.596929032244622	1.10003636933967	3.55299424778914	1.99083691338806	-0.536168078046238	-1.18531905440592	-0.493274343473719	3.01054889609998	2.50377252661526	-0.195895157140523	-0.295122116136596	2.02587579979124	-0.449567859377836	-1.02345641216713	-0.345909802998847	0.98887499874663	-0.684063975474211	-1.59756485292796	0.208343230137673	-2.10192293976134	-0.570308396282118	-0.642598552682195	0.195636267572121	-1.23106070128649	-0.205758367598026	2.67444109457968
"AAGGTATAGGACAATG-1"	53.1945795043879	-3.53789495284877	1.67678972774923	-51.475211701961	-8.44707752028664	0.680648505979841	43.7614138717899	-0.279101405885559	-6.13373778448731	-3.82910513855646	-0.869656251829403	-1.56570443289989	-0.49492824670295	2.05535311955137	-4.93244657177051	-6.75076362948484	5.29765848854809	-2.23990294088172	-6.90320128391116	3.41984331495262	-0.964940244043881	-5.37927781132506	14.8665968660163	-14.8422229672447	8.34143657922154	-7.8893583090414	4.53913112897387	-17.0304818500263	-1.53536044665374	-0.74151718286081	-0.192323322960982	13.7869029867339	23.8958396858298	5.68358883199827	-1.20404275718684	-4.59964521803945	10.3522585980345	16.8068993870501	18.4444817629574	-6.60847635864735	-15.5268152743338	8.67096183136482	-17.7447121814067	-6.9324423682675	5.24795427914454	7.07512814937294	1.60776451193842	12.0163070071711	-11.6769400657078	15.413016941878
"AAGGTATAGGACCTTG-1"	-9.78940367669468	-2.01248243068113	-1.29810939931221	0.239664156191527	0.100466069639815	4.50936046299874	0.124203528288039	-0.548662018262118	0.082815787628861	1.04379201751255	1.9933624127035	-2.03800664445218	1.48168620771822	0.211887135118911	-0.292705685786832	0.185988655950648	-0.80003922059787	-1.33634047271066	-0.975306871374925	0.136050716800682	0.685492216512792	-0.389745016169757	0.905919924139528	-0.126522033778758	-0.296971330288401	-0.87893039711041	-1.86536200711328	0.176782724746539	0.788907727354532	0.827755659648329	-0.63294374996066	0.49260812633149	0.34068288472702	-0.18964667783172	-0.0594868094000269	-0.708283341376141	-1.12026076288047	0.145839100317225	0.926518358716914	-1.08691380234655	0.129116776739003	-0.335779806093032	0.980431949649937	0.615764287787719	-0.671111946251072	-0.00197517693245502	0.822068081458896	-2.1056010388356	0.020006236273	0.68182241623495
"AAGGTCAAGAAACTGG-1"	-5.80592500844334	-1.01716547483377	-0.682922707724526	-0.257266479247938	-0.762907934428497	3.93168514050594	-0.00256152770026341	0.681421222742136	0.109415295794865	-3.02817497952399	1.66546185425975	-2.2422523705377	1.40793641245788	0.24462695654845	0.693984723310189	0.699739710132719	0.1115908909109	1.60769490965036	-0.861040530998145	0.323746614157627	0.852329628545932	0.683889294394402	-0.992901751225671	0.737775539572873	-0.376449510765235	-0.913256908718114	-0.82935340449796	0.607126927016732	-0.739999593918491	0.52477548635615	0.373154209253632	-2.08842199623776	-1.04362666465913	-0.513422984167207	-0.979724204029472	-0.124508471221429	0.590737124573977	-0.971555426279078	0.351225169496968	-0.342115915658163	0.146527789777331	-0.068352738598816	0.692900507115482	-0.314015728141008	-0.699241303957919	0.537192010784891	-0.061797388445203	0.241593513866106	1.0245821553347	-0.52031801106353
"AAGGTCAAGTGATTCA-1"	-6.05449363416052	-0.76381242448654	-0.453823332164311	1.54244195082643	-1.07501017556956	2.93035882715084	0.29331456048463	0.0650615902267085	-0.110603710831127	-1.07715007612125	1.10693323849301	-2.98886758182914	1.0941136804796	0.779176220099325	-1.66169696295097	0.706350603446747	-0.874772262834253	-0.839517994082116	-0.599698318273041	0.30189923539287	-0.0264557907513231	-2.48055841550629	-0.009033083768416	-0.461308353686733	0.512012384558848	-0.14508341308026	1.43397178997007	0.421867889526761	1.63355778783982	0.230522727521376	0.786250752621106	-0.435112203211179	-1.03571426422612	0.747684117847552	0.463818916831252	0.0588061168030376	0.5189673822398	0.1986663399844	1.23589745747583	0.0910304608189686	0.608716057852051	0.984598203459218	0.296870921319556	1.11455041855158	0.0249818069965775	0.655325962231492	-0.195528445882216	-0.797753132584997	0.195347336853872	0.160872343267372
"AAGGTGCAGTCACCAG-1"	7.75618333988679	5.15178442442049	-1.34682743567532	-0.558265671999014	-5.34577241045186	-22.2329267249052	-2.73281059865859	-1.40421372621779	0.598684593455383	-3.00722594081297	2.127735298781	-0.690979614567608	0.79169472227455	-2.99692846654679	5.36529539244618	-1.45430827575344	-3.42232071322088	-0.239840318794343	-1.78716732714355	2.57417322935575	-0.527531796292788	-0.346752713499562	-2.99583264587382	7.44494571196724	-0.668191026158507	1.58446879690888	-1.03624713380146	-1.4059246603783	-6.3008950878778	-1.6462082031762	0.654163933938474	0.375935609701293	-0.432888913175923	3.23537847872812	-1.07524420114729	-0.6589987213202	-0.127508631694513	-0.837417068466286	0.0229987658032654	-1.06966907099924	-1.62968494857826	-5.34398640366093	-0.687769624939412	0.885452722854069	-0.12289042611649	-3.42363820479667	1.07328235519303	-0.998749559040786	0.669669271319274	-6.60558962958174
"AAGTCTATCCCTCAGT-1"	17.4900245206618	10.4158151021186	-7.00774051117768	-9.90070822205541	-3.20841746092089	-10.0951900645836	18.1010057196364	0.844864959317633	0.641804945973113	-4.99382321294703	-4.34895953804285	-1.56398718942645	-0.372183581298197	-4.05239369637281	-0.304073808130803	0.823859781778663	-9.02858859756438	5.5847519336794	-0.99423221864468	-4.41219222206909	2.91883078191966	-3.8255111667453	-2.8252586347308	5.04647282724924	-0.452243763532318	0.653765893088125	-2.3531214912413	-2.11728812612988	0.523288799605501	2.03071595828722	2.66344086878879	7.52025879232011	6.93662238729818	-0.201973058989355	4.39705688625218	-2.79465401224311	-7.77818151227246	4.57542363473292	-3.04699904186642	6.44815323235976	1.46903427107243	-1.16859234333092	3.63320336846837	-4.51677815296711	1.13541978681549	-6.95287587939867	1.795896804677	-2.57230524039448	0.9534698951777	-5.39813928171716
"AAGTCTATCGGGCCAT-1"	-5.65860958052511	-0.200492076285601	-2.37340867275105	1.21045528825631	-2.51688016056586	-12.3411503921528	0.0287734230245495	-1.87472884741635	0.00511054897415531	4.4529446274118	1.04366329268896	-4.13215664288694	1.99578160319802	-0.066081606994468	-1.66594203758061	0.894555996839128	-0.464948632437021	-0.607030579085153	1.96335748280534	-0.97274112008331	1.00025566585558	1.12559629904086	1.14975496068845	-0.71874909248862	-0.805312494887097	-1.8963940775428	-1.46839371792194	-1.84032582309723	1.49046921834032	0.868803253252833	-0.786736782990011	1.33039379289306	-1.23791308654544	-0.978232655625343	-0.116217725920245	1.05218487832276	-0.685604212929318	-1.19443613663014	1.81434954484884	-1.38723019365932	-0.744602714414022	-1.3183777269017	0.0515371116738857	-1.76883851580956	1.88025542646626	1.7525487573106	-0.454242118873057	0.64025852551182	-1.27389255531275	-0.152795964068007
"AAGTGAAGTAAGCTCA-1"	25.4449526596261	1.97094110024148	54.8600731936676	4.9273720521078	2.20138455066283	2.02922219392085	1.20508823643294	-28.5100701872363	18.4420671693592	0.171732980125018	1.65008652910308	0.405107719405286	2.98589747830967	0.435026978866601	0.844342279055595	2.45695270565747	1.71295032430799	4.84879831397943	2.78952032536971	7.0138305918227	-0.946903557498095	2.37599381934833	0.327379610640227	4.22672046849794	11.1756098399382	14.6363049197693	-7.5669032580558	-1.86903291782546	-13.2063661742619	-7.65239124655805	4.03809782077253	3.78599612702931	6.4545795507393	-9.3382488033543	21.7785992547814	3.34479002954225	9.26973893885717	-9.17413428687864	-4.58334945254356	-7.80416038176638	-4.01467966096397	2.92385517165323	1.45421253799495	6.40078258113624	-10.8771456495172	11.3596061426084	2.42827393984243	6.22128986636615	-6.77120021842253	-4.43198756448517
"AAGTGAAGTCTATCGT-1"	-5.99407128484114	-1.21470115073224	-0.512341745459018	-0.379410910080435	0.482426990187424	3.49733597314363	0.779699716675844	0.45091140128669	-0.635819368654256	-1.23155813755422	-2.43517130758239	6.25351295810419	-2.54452517097958	-0.996818267621715	0.000693825813214171	0.944758133006408	0.545687527509109	0.498687424528442	0.142215102646984	-0.778798838655347	0.0342340487768405	0.271763627923207	0.0677267567350578	-0.574980982784187	0.558025193678991	-0.0690192990138727	1.14653342627151	1.34098607839086	-0.44326816003019	-1.38460908221498	-0.380686662240388	-0.618801534491077	-0.349563798071234	-0.481003101904579	0.0201762785377452	0.238575165680255	-1.20037275053718	-0.0288851413757937	2.03222696795756	0.648627563803908	0.0780337841165504	-0.843252698793367	-0.161359459635454	-0.186528169722284	0.706655745905449	1.45297960706903	-0.0379760541813295	-0.083198573381713	0.128277372823967	0.0302439545535322
"AAGTGCAAGCAACATC-1"	-8.95657866123719	-1.24802597237658	-1.94857502044384	-0.911689562310114	0.731256020922248	3.4257637029181	0.084318888402668	-0.600556091112335	-0.590313894642432	3.01328946719313	-0.796035092112814	-1.3783607084768	0.484950937542876	0.432505019960022	-0.196320222305937	-0.965278093059071	-0.0798611341272191	-1.96818226639417	-0.41265332385376	0.143441234341519	-0.0979402788335125	-0.810121666883551	0.0501108099437992	-0.345328134449107	0.203403539665598	0.139340192573622	1.22654361167676	-1.23939324688511	-2.51936002392056	1.59473992433949	0.818039770970991	0.402798375741604	-1.89094943392462	-0.252954069822222	-0.53460377761194	1.36877442019617	0.0760782337860413	0.853913792985002	-0.181364550256212	-0.927191884223864	-0.834031099648833	-0.88771951221783	-1.71355195918729	-1.26487196140863	0.0921753056483389	0.0545502783683931	-0.222641241788571	0.210561472742326	0.219895014002302	-0.553989835319098
"AAGTGCAAGCTACTGG-1"	-8.88891544189735	-0.991353182856037	-2.02373447832136	0.246704204667039	-0.896039531601802	3.36931084159389	0.864792369484213	-1.45011511404824	1.02168113044019	8.5208911611719	-3.38729155771254	2.91968117059075	-0.388817505095554	0.589252006849404	-2.44624933088342	0.866686948383694	1.0346322431991	-1.27547483173482	-0.801502825266303	-1.05082996835154	-0.103415619846982	-1.75163506795184	1.47617203108399	2.0178157759071	0.43810495346736	0.556624698883305	-1.2494722502056	0.80309081488206	1.20187797488161	0.50219479431696	0.0173155406724892	0.23018547021038	0.629344558258257	0.464482467923371	0.460487774793237	-1.50767463108076	0.357364615195377	0.052948598296464	0.565771205798258	-1.32651769359312	2.8173331951997	0.899997545393287	-0.0861123466909497	2.42744270382986	0.34167554457861	-1.40365625237821	1.73791932885746	-1.88793455243672	-1.08747656852587	-2.36459350472001
"AAGTGCAAGCTGAGGG-1"	-7.72038969232112	-1.90428350898317	-3.7075417593974	1.74498091929072	-2.05619380938638	-2.13345475923151	2.79844352394112	-1.65543672683838	0.930645679276742	13.3304077946438	1.31773068583656	-5.68154862756325	2.60734009714067	1.68678209252217	-1.15600377900974	1.75227676583816	-1.03792171403067	-1.26303676642883	0.0949076062393799	1.0103606890316	1.76248811892876	0.13161590268952	2.03499174212633	3.1894903127305	-0.935536986958583	-1.2995266311123	-2.33903095450797	-3.79491189431442	1.7979412329979	1.0130031268023	-0.536573471776897	3.35646538839328	-0.20968410630638	0.320031315619226	-0.794211109837571	2.95954557873116	-1.01138678949685	-2.24897917437873	1.20181531820564	-4.06524391155878	-0.136087227904288	-1.15454793475031	-3.77313477520393	-1.04577486974461	-0.2366054024783	-0.0261853677477699	-0.637594189556083	1.89276873442765	-1.00433347073389	0.80597029431474
"AAGTTACGTTCACCAT-1"	-6.32346462787921	-0.863184042939773	-0.14883149590986	-0.318715566024629	-0.400214220816376	4.09167594866657	-0.358361690850855	1.05456300270476	0.300860245432651	-3.9377443903392	1.84818038494959	-0.887979418148485	-0.726772521448021	0.260468303500438	1.4483245148845	-0.814145792723666	-0.328544925973829	1.44077017411057	0.458539365605448	0.970687404032977	0.062010726472983	-0.201217194176174	0.0618537325608512	0.314608665824235	0.165057867807768	0.686209590173105	-0.565185040531818	0.597748704598242	-1.07977189001064	-1.2847747068425	-0.318240791633534	0.322758109465506	-0.532321184807875	1.41411583027377	0.381122180227196	-0.0934140691131429	0.132651164344502	0.800698458397773	-0.200954777810336	-0.100025933415912	0.225480725994375	-0.273608667480397	0.475520256534322	-0.371754255128247	-0.394379037085624	-0.104008597728482	1.24396929834074	0.361906436335677	0.391833158323126	-0.62962389696686
"AAGTTACGTTCACCCA-1"	-9.612245450612	-1.43255706715577	-2.36757143861609	-0.313620451634337	-2.13529611133736	2.35353887965486	0.957215526093394	-0.898695562986278	1.21997346681814	10.063171375213	1.70803590543077	-8.69584872292705	4.04362969390327	2.86831099733838	-2.19112734449143	-1.53345727939342	-0.471348751406864	-3.04412501330334	-3.60482747176737	-0.060360523318409	0.847232389671573	-0.525494381708144	-0.090180457635725	3.47884723933733	-2.59324357111077	1.22323084300563	0.139366253426347	0.112641497295553	-1.37739113083596	0.94881740218867	2.28596639609769	0.171596279068368	1.17003026959392	-1.32828676440162	-0.389037570481097	-0.394948344456692	0.195856774951377	0.168812808990964	-2.17967033994598	1.42492832190164	1.84821573918762	2.03568179104592	2.86539032023742	1.049041322948	-0.111215504100392	0.720090692126642	1.3597159491875	1.66248639061797	0.10652033645758	2.31220643394465
"AAGTTAGCACCTATAG-1"	-5.70872741201947	-1.53874750358146	-0.869952700751982	-0.199561069327637	0.375566463278709	3.19940252843767	0.335649701801883	-0.194737148533483	0.545898404071695	-0.891494770815409	1.4373444822833	-1.10001902949699	1.3696913021003	0.25912525696913	-0.360409333121765	-0.532643461081928	0.0708618978871533	0.0461585398288827	0.610784717051541	-1.01002385614531	0.653815543480185	-0.592754945777028	-0.446308999185802	-1.50489170359647	0.382276842619128	-1.95039498370429	-0.748560981410863	-0.812511222677089	-1.03432969785827	-1.297656862858	1.75911775200177	-0.367653502696558	0.443341277940876	-0.677390646892751	0.200426409619278	-1.01517255515398	0.338358488479551	-0.855404619719647	0.406663078323079	-0.715213540259828	-0.21822618304041	-0.424368383292613	-0.794875677969078	-0.31809697157646	-0.566592649554499	0.412744495832966	0.660773957998635	-0.22648186133203	0.658337954614552	0.678040558078756
"AAGTTTGTCCTTAGGG-1"	0.561949286990023	4.6078606797486	-2.02965494350651	3.04390962635088	-1.94307061431855	0.255313226913473	0.968001210007405	1.62512631585919	-1.99236176675028	-2.04603734497404	1.31613420299242	-0.406359493041457	-0.015221974783946	4.80732588228851	-6.20903921510455	-0.695004361811081	-0.1840953664932	0.98713882399168	2.09598789970694	-0.238750663202189	-1.14487930075914	-3.11792310557402	1.09280237113403	-0.598394351696807	2.39442931032158	1.38758162188663	1.33583170783804	-9.4537374977817	-2.06640126880968	6.47603542386481	-5.19730160822009	1.85892570114251	-0.910279557958366	0.936409533766401	-0.977802269852244	1.04231092850056	0.483345046600292	-4.09740589143343	-4.15210800583074	3.40359594254671	-1.84264530180819	-7.55402876980878	0.0500945966185898	1.06605869075426	1.25977660944198	1.40027393532032	-0.506984074397951	0.855360437970166	3.71094279350952	-1.40241122488091
"AAGTTTGTCTGTGCCT-1"	-4.83166030679745	-0.942600716036833	-0.417786874705596	-0.69180684973374	-0.109476949075773	2.86093924763274	0.40265982745646	0.329236574261591	-0.384219365090245	-2.61261524975984	2.04992122145787	-1.45208398544747	0.919441447822821	-0.103240569838863	-0.481966305082424	0.889819527160905	0.571984283715991	1.40716127877569	0.544142467793579	0.504481735370256	0.614942917766161	0.260945829120433	0.641208754355367	0.638535482841454	0.212455229091143	0.540727463104363	1.52964177308208	0.541599913709607	-1.41159635324331	0.416243246438725	-0.855821489826651	-0.140237150951025	-1.66973081757728	0.541629821751676	-0.787267160874242	0.933501286208269	-0.337026192721978	1.07460317809123	0.833677512218744	1.09226922576279	0.923770618801078	1.14256912384609	-0.0336998673958411	0.316066241509969	1.10035697395725	0.348532319355694	-1.02351602825399	1.04765310673086	-0.742708463074127	-0.182627867755321
"AATAGAGGTACTTAGG-1"	-6.65947727290792	-1.55386104163691	0.563963487380314	1.31393190206097	-0.595622075379526	3.6277206575482	0.766275023602144	0.00343474940122987	0.0867183437725135	-0.357268015757855	1.39182386364752	-2.3741716479832	2.59176166973919	0.419091218328016	-0.234143632835333	-0.364120520115229	0.103189177528551	-0.225530247648561	0.0732686007836218	0.342589104578397	0.327876817231104	-0.185382329343839	-0.225688373423974	0.463637837035781	0.27357547961236	-1.20751706808425	0.544443662127776	0.359406882717717	0.786165429176202	0.939888936427936	1.87044950195728	-0.843714019672838	-0.426564842885678	-0.29168545181995	-0.21171438769352	0.343292206490705	0.197744861284195	-0.914244508424341	0.0161516960553733	0.908961250826715	0.371886921496328	-0.258809869867	-0.307929585125701	-0.125122160562649	1.22960287756012	0.483263998162939	-0.591101636398254	0.39534587919354	-0.851607386136531	-0.350447302820988
"AATAGAGGTATTCGCT-1"	23.9858496888981	3.1983363674613	59.2682663251624	6.10954527677122	5.48915533021569	3.97892336567937	-0.243603973460677	-22.0023894551877	17.119385726556	-4.02786188340253	-1.64291775985588	-0.347766587210893	-0.482338104185275	-2.87512033178671	7.58737280590434	-0.863894934895951	-13.7828930883268	-2.67818330005451	0.404028532580663	-3.17609372601318	-1.81583937606313	-5.21322606888076	-4.33015379805694	-0.411128613795615	-1.38724729142536	-10.714193051863	5.97067458573685	-6.87504223077518	7.08893316183862	3.50288888850495	-7.2918650289753	-6.37342737346233	-0.207726059187011	5.31789595237765	-5.92913456395399	-14.4272281742836	-4.77932620010039	1.65271664941697	-7.03145845334378	-4.32580995924675	-3.30468798378383	-3.19818571138645	-6.24070232481189	7.28754223917636	0.681919662017083	-5.64104868581204	-3.83658606358202	14.1306873256312	-5.47799333815839	0.266541629241502
"AATAGAGGTCATAGAT-1"	-5.52567630267491	-1.43254758785314	-0.0799792762331475	-0.703397180214609	1.02181268419553	2.78260828079646	0.133814541664193	0.443129756181067	0.0583842012840257	-3.51002953723034	0.53749254792335	-0.352076236576379	0.7281589402597	0.151817766556253	0.795122823681168	-0.0767828780188207	0.132003622859231	0.504896168655931	-0.299090696246994	0.813155731465061	-0.185984418124152	0.326878250129664	0.0153215269147831	-0.337746646223557	0.966643544687985	0.0737407487542858	-0.75356822507182	0.377017147413397	0.57972313105531	0.595935103879002	-0.286327239528615	0.248838152873034	-0.397642136059672	-0.414087509775005	-1.07577204952545	-0.60857994006937	-0.101432084792613	0.655299884721233	0.355732005214814	-0.25789673164158	0.38617150652054	-0.49560071369773	-0.205969242092295	0.52693619455209	-0.424047422465721	-0.201371519100005	0.0474143021610866	0.544369995565428	1.01139943035165	-1.06303186235819
"AATATCCCAAGATTCT-1"	-4.86391479856451	-0.395020421280508	-0.290867470080366	-0.1902596822722	-0.193163819234364	1.08516118291281	-0.251791474681762	0.277595453052864	-0.393331959019881	-2.71288432987105	0.600609477043446	0.696486757738615	-0.0672673077907204	0.778981666334614	0.476494210485238	-1.2128872619718	-1.05429548699779	1.38967471802339	1.14535794425866	0.166718270832829	1.98936092692728	0.410824349327577	-0.076858909561605	-0.253268774222218	0.490680313529419	-1.3193707668474	-0.177955723264629	0.0313075992738168	1.21582271519776	1.02055617937215	-0.25744812654364	-0.436034071339913	-0.460802039011819	-0.435190207650261	0.535672159844346	1.74944060030306	-0.542750321352079	-2.04870432372932	-0.460975767611252	0.558265153754691	0.832601902555059	0.744710976592626	0.181603650790898	-0.476134416752878	-0.288228404344078	-0.622687127585961	-0.084971708310402	-0.714774199493861	-0.543610615677878	-0.183400862590706
