"PC_1"	"PC_2"	"PC_3"	"PC_4"	"PC_5"	"PC_6"	"PC_7"	"PC_8"	"PC_9"	"PC_10"	"PC_11"	"PC_12"	"PC_13"	"PC_14"	"PC_15"	"PC_16"	"PC_17"	"PC_18"	"PC_19"	"PC_20"	"PC_21"	"PC_22"	"PC_23"	"PC_24"	"PC_25"	"PC_26"	"PC_27"	"PC_28"	"PC_29"	"PC_30"	"PC_31"	"PC_32"	"PC_33"	"PC_34"	"PC_35"	"PC_36"	"PC_37"	"PC_38"	"PC_39"	"PC_40"	"PC_41"	"PC_42"	"PC_43"	"PC_44"	"PC_45"	"PC_46"	"PC_47"	"PC_48"	"PC_49"	"PC_50"
"AAACATGCAAATGCCC-1"	-7.98882683085821	2.79680051053028	2.98411000823685	-0.527474364572861	1.51330749752784	-0.56991400995613	-2.34654016923051	1.29451648962619	1.81386833805378	12.4546237683573	-10.3408234096335	-0.540355808395242	-8.4115846228656	3.36838816715918	-2.00794923630167	-0.383640706721787	4.52132075104858	-1.03560069137777	-0.0213504843190113	2.55540299030985	1.10062124103911	3.03071636163655	1.30846104303871	1.72174228538798	-1.26365767189733	3.05566978975957	-2.46560725302876	-0.485753553758049	1.76939725256536	-0.173859556999473	1.44716450701577	0.997580131445462	0.543402581534538	1.43154466107446	-0.187831081333171	1.4917655108679	-2.04605753637856	-0.472804590547298	0.933218667718351	1.26450209979676	0.267562445727471	-0.390029183376537	-0.352996290099251	0.0473189701185501	-2.58812892590521	2.76262829960495	1.16539643667193	4.50310841240103	1.48899399325038	1.36821041623977
"AAACATGCACAACAAA-1"	9.12726070256454	-1.93382572303838	-36.1533289240125	-5.78063007150169	-3.22606021202145	0.532067807837292	1.6174653083508	-44.3360582303353	8.04292560328022	1.35651479918539	-1.86086980398282	16.2307548181601	1.23533024533755	-3.10035142644815	0.417300627418708	-3.12212028380683	5.83095876223226	-0.0643212682615459	3.18310206437363	-2.3247543899161	0.00540519334232982	0.898458628137661	-3.87824227535938	-0.462758033224373	-4.56968019256417	-1.29047823839225	-0.249424444400828	0.827466596542529	4.09963041293999	5.53434865096913	3.69129966610434	0.761884292779455	-5.94487366807303	-5.36748650833248	-3.78117009483101	4.63453588161878	2.51537434526442	2.24449845279752	-4.06143683701859	0.941724165500166	-5.85220674863496	-14.5094213570311	2.16490285445257	-4.66185765840251	6.02210102610192	-1.45827227914461	-10.4561629266545	-0.0641758985301085	-4.78979975709871	0.735329396417224
"AAACATGCAGCTAACC-1"	5.76453188927327	-3.91478579091393	-0.109773979347773	7.55324723756101	-3.43141070488831	-12.568231033655	4.41783547387231	0.495887375830412	0.646787407874818	-5.7103115545842	2.92066649455406	-0.377540965562186	-0.590504081062038	2.1651167615756	3.11410664750461	-0.504235531306556	3.36729686835764	-1.72875962605503	-2.22327208693064	1.24743610548504	2.98695058461196	-1.01781270432122	0.297940506738609	3.17363652079641	-1.17317423824723	-2.67501854189026	1.08250681790147	2.09306779076004	-0.697166368018727	2.4612784073108	2.20034221015499	1.19062927707068	-1.01990911106738	-1.17279786197284	1.68348932906843	0.883739019897936	-4.97739376105606	2.64898993073663	0.967402392910917	3.38336170416027	-2.06268930799285	0.0982682370363497	2.89305185314663	1.06272350168175	-6.45159390835027	0.841879923544876	-5.16434396931333	-0.702471095092084	-0.165438278333261	-0.00915013918407398
"AAACCAACACTAAGAA-1"	-2.42825692094057	0.599997211517468	-0.336506311154038	0.632735617510229	-2.43245716979289	1.30180071096532	-0.409164728521332	0.15942982425057	0.358751796528496	-1.30970127705307	1.3774768431984	0.180054735470359	0.186262832671107	-0.082356675506461	-0.493767906892727	0.556909223883991	0.639640917204562	0.180600781315876	-0.410738050351504	-0.387943822328971	-0.539406505090473	0.907721021845789	1.49684762733126	-0.193283289058122	-0.88849550008824	-0.449410911054823	-0.821064047995294	0.0104550480683146	-0.112523624021672	-0.325811962649907	-0.546648575332441	1.27649181167032	0.275325925503175	-0.313297046989112	-0.0322858785923506	0.322677291443145	0.646488143625728	-0.266114774998402	0.424929502405329	-1.17550697267334	0.718303856944733	-1.11111218167269	-0.594905076862096	-0.55440841304215	0.902978745824787	0.447559800396114	1.35271616837074	0.704991773011782	0.509491328254366	0.982554292430044
"AAACCAACATAATCGT-1"	33.3049479369196	-37.7928312631459	12.8535640887664	-11.6168335843811	-7.97899376701232	3.16749312700258	-3.13835606269276	0.0378407361146923	1.57814646653366	1.05410172649067	2.72844299965931	0.708692998344508	6.77142594861554	10.4148545682291	13.4176367505734	-6.6537951477171	4.77691765939917	-3.04838348189964	0.87739791344706	2.25423900336809	6.6278443285902	-1.90261450384552	4.10500214946593	-0.935227276945219	0.396485130087813	-1.48210775339754	0.501832847900358	-7.0590774631978	-7.81600756297775	-4.33573642313812	2.45409952729497	2.83338719432688	4.66763399612124	0.0493363509304006	2.69366949616503	5.42885556441013	-9.95998688475146	-3.35391025577979	-5.9025007547932	-0.65681032119461	1.45533498529287	-4.62514734982339	-0.846477211516764	2.42344636961367	-1.40056571477749	-4.46591482503276	0.240937079338006	-7.82334646422989	-0.0655977013021981	2.19303735419452
"AAACCGAAGTGCACGC-1"	-6.446595977066	0.971315462219418	-0.453471143871051	0.38421976236292	-1.48579683195379	1.99888761870947	0.0194722695570015	-0.728822751310325	-0.074481051924933	-1.81192684402608	2.23901311170402	-0.241271440232666	-1.53938269091253	-0.4413987693356	-0.0596404544399408	-0.646595926069935	0.278856239684028	0.405075884560095	-0.738766939067106	0.603948183040025	0.688009580472468	-0.194444092975214	-0.011656127160327	-0.0980830833595427	-0.84433191709772	-0.847699606917047	-0.968155880483773	-1.92356970128651	0.257323702692862	-1.33782912844655	1.25384863489735	-0.878679342033434	0.0689510749847268	0.0999145500635972	-0.941820518062373	-0.310413486043361	-0.463743902929699	-0.618149899320661	0.583458567556063	-0.057693118238471	-0.0998215571531835	0.249763716327908	1.50557416369425	0.0636542923590267	1.01960638900161	0.0274591613052739	0.278881654130513	-0.868183356380158	0.196760696127094	0.840913507532165
"AAACCGGCAGCATGAG-1"	-2.12503178072299	0.104640145934561	-1.31469077878022	-0.0251670957434001	-0.727348198305235	0.827869919725747	-0.715104960359536	-1.32208140215544	-0.350348067000273	-3.70494047178186	1.51648729236973	-0.0626147754762916	-0.143874260088835	1.23161576397906	-1.09443897634532	-0.941082098490496	1.29393269517587	-1.35647545788564	0.0315016939620604	0.650317265622727	-0.337893227650343	0.886395881219906	-1.2000178265355	0.160780114085206	0.718568016033823	1.00570027243944	-1.67932383577861	-1.04249175054382	1.17513087520807	1.24614117951466	0.274774739100975	-1.02043214464312	-1.38394658132876	-0.314969945796496	0.723448295454887	-0.906326350041295	-1.14736289828007	-0.35335479546579	0.285048135056452	-0.252270175137385	-0.289273959414692	0.287859591123435	-0.225385285528285	1.86997725147742	-1.27082685339416	1.00009612025668	-0.177014152786253	1.22425985956808	0.754702380476459	0.0531327524982296
"AAACCGGCAGTTTGTG-1"	-8.50007032522626	1.11137590206783	2.76134874763976	0.985360002279815	-5.02422397718464	2.56951013456634	-0.60383206964107	-0.148366240243834	1.3622742637644	7.77834269313156	-0.966235809132374	0.341993500315488	6.44146887807941	-6.29661439433702	1.71704618013704	2.42768808641347	-5.37996971479029	2.54341468300535	1.75725397324444	0.0184965520278908	0.853050942574816	-3.03584687128015	1.49647089324457	0.164562559287791	0.622143027558388	-0.536573028806545	2.26612831596077	1.49485255417243	-0.434398946883311	-0.453345031117002	-0.192641629867909	1.21100132423807	2.69864836797715	1.60121540803224	0.42793782630466	-1.71889407983315	0.653151603680313	0.217825726751785	0.45172216758937	-0.0246047578172446	-1.48426355944122	-0.166503525304927	0.572677060556685	-0.00614208862466783	1.28438452574491	-0.959093476304085	0.892503012678908	-0.0496012139691515	1.16845984675909	0.47676788529804
"AAACGCGCAGTAGGTG-1"	-8.20518350532314	2.2972580893433	0.809029094205674	0.317587714545976	-3.65635804158468	2.15358198144979	-0.23002364985645	0.219821733391331	-0.722694294362761	-1.04946318689811	-0.105467108700096	0.0802698364438239	-1.86636614665301	0.635475781372922	-0.661559222673943	-0.736846569237068	0.353142180766353	-0.930132096520921	-0.515978744723217	0.57572534609046	-0.0626104984565141	-0.247441779909453	-0.136386834389902	1.10375296935589	-0.172317183846909	1.54647001828093	-0.758196636661283	-0.582378983416279	-0.0343678782427237	0.502811943081018	-0.462150024053516	-0.641221034845379	-0.577204990954842	-1.56179740773235	1.62438070616622	0.617405214002749	-0.267143073243945	2.3048176089388	0.648919605048004	-0.893719567528725	0.11351741264151	1.67896859984311	1.13330424433053	-1.10945411733915	0.548931128902416	-0.96823734349343	0.301232275701241	-0.342902350983839	-0.172535254987147	1.10906737003949
"AAACGCGCATGTTGCA-1"	18.5559988019214	18.2489105753844	6.068572594592	-5.84715404591927	-3.52230381201177	0.623641835336452	1.45880063104931	-0.694342735730707	-1.95988786796575	-2.41062194122357	2.69479644761548	-0.544170146270032	-0.0329294468568837	-0.560879901972844	2.06151262230212	0.312295731267193	2.04766582157216	0.0674581723306684	0.865597438017655	-1.13006409891563	2.19594947338459	-0.67103456924454	0.660772588415849	-0.801012444184819	-3.15455680835139	2.87388828391523	-0.246962586721182	2.1160822923275	0.452299892878571	-0.0751072750089988	-2.95166682963135	-0.171920653983637	1.94272767220967	-0.654734954900322	-0.162340015893201	-2.07008302531871	1.52081767345865	1.22237030618608	-0.105834494670123	1.54669923161804	0.611080661681733	-0.0358532980110411	-0.7325066381299	-1.8209878059219	-0.146411424037057	0.263121496138736	0.162544923103137	-0.886428940291552	1.42119080949131	-2.71808443831876
"AAACGGATCACGAATC-1"	1.62624249230235	-1.60408505643637	0.268810277597469	-2.4071137899736	5.78885536993935	-2.03756912751389	1.43319191644926	0.402586398633681	-0.307851220312733	-2.03862387005106	1.69549221990909	0.956686235067287	-0.0692446989207522	1.06483443990825	-4.48186764805496	-8.01569151597984	-3.29994847023811	4.38392635283491	0.31694630292439	-1.55057409930446	1.6491048493546	-3.78962043898267	0.403007237142101	-0.307913682268016	-6.68622822669599	1.32634055371389	-2.76190923088732	-1.96674659987035	-1.0499578400881	0.591593867160476	-3.35106338903155	2.96151722471602	-0.570807790262409	-1.26083107526058	-1.07155222518411	0.996403563405245	-0.402160248530945	1.44833456624015	3.25060581008078	0.89216861463776	-2.00740522058719	-0.546323136772214	1.25203616654578	1.09947903507487	2.11162617625074	0.943727501552066	-0.351385614772416	0.551325095650776	-5.36235112209388	1.46347384843584
"AAACGGATCATTAGTG-1"	21.0226204650134	-22.9749682777627	6.87577692697154	-9.12267885546546	-6.01895987298823	6.82990884276778	-0.832263703973134	2.25796639316585	0.462728847683845	-10.5095332513167	-6.22103307772026	0.631189654439434	-1.78296879997186	1.91884362366158	-0.531749043049072	2.93630703477307	-3.35774481629399	-1.46209149394052	1.71952049390923	2.01366880254122	2.47890233726041	1.62641529460467	6.7507985499385	2.45253925750631	0.615978566779053	3.49357673427064	-4.35922729755915	8.37324108148192	2.554245562189	4.24923906998023	-11.0370668702586	5.3168310751571	-5.65617625042989	1.92653112840682	-1.56836472196749	-9.09747326606852	-2.5137910843252	-1.72260293285686	-3.69570246579699	-0.97248482581917	-8.20183965823416	2.71161202069542	1.72935673195951	-4.9413867153702	-7.32809520516228	-5.88383955796417	-2.56837190495195	4.06082340929094	1.30597043458252	-6.14735743085062
"AAACGGATCCCTGACT-1"	-6.59702830294019	2.46185611296647	0.162694156826816	-0.276107105572665	-3.25477907112291	2.29566688200773	-0.442039007157392	1.50932863081545	-0.396482657390347	-0.349082822211987	0.403564197800282	0.977053403824584	-0.646611563993476	0.369067349819328	-0.199769640214568	-0.0886524085608151	0.450099253586259	-0.899527110867356	0.967665796294787	0.383543625380881	0.654369826333176	-0.277672175021959	-0.654273140259298	0.391931904843492	0.208245040189305	0.149765528261672	-1.55836545188675	-0.0313543853178628	0.383621190029846	-1.1577694588582	1.87263031459593	0.20117989073843	1.2615869145771	-0.143766612599803	0.570411622888549	0.224695052571114	0.636304372252376	0.697630700866681	0.356969758690594	-0.869288867299219	2.94822872519103	-1.4080009330786	-0.599911778301577	-0.73146369024842	1.88358452685795	-1.26757353221109	-0.0619246457149656	0.382545039396221	0.13468724251504	-0.708536057411549
"AAACGGATCTAATCTC-1"	4.30503559486864	-5.14952865664983	-0.29440062633774	-1.87693808404044	10.0175043808972	-5.73076244829606	-0.00846623513100701	-1.15539916589563	-2.1018225450203	-5.45323052278209	-2.34184832498078	-0.213433626785104	2.19869743029325	0.765064429196861	-4.84032395831957	-6.74252297982361	0.445957418344811	-1.34473281182294	0.753135983892173	0.0186310806834384	1.47839745626563	3.05409223397332	1.53511989137302	-3.52653203028191	-0.387836874696869	3.61775275128431	1.12994871962322	-0.713698486722393	-0.32117816427469	0.695592948815933	-0.330327227771855	5.26172306192245	1.77515735900963	-1.94665874972523	-0.255280573089697	-2.02894741225873	1.26369276939033	0.917146841537171	1.80942592648469	1.40536885980436	0.998017955907226	-1.68338485405115	-2.4571175992853	-0.713588765129961	-3.46778257324341	-4.23785402246343	-3.34534913510275	1.0447230780458	-2.65446584369103	1.59434987044521
"AAACGTACAGCATGAG-1"	57.7319729671736	57.5316965104373	14.779852544186	-22.5536021930539	-6.27175200113776	-2.37336555264265	0.084001228154055	-2.33838999009105	1.22033287250595	1.61726047468562	1.62297111254482	2.53177123525953	-0.375408046222706	-1.48315756684901	2.04617764119096	-2.30827472518356	-3.26359101305165	1.74869302793212	1.18425845131935	3.811797216768	0.521671667571804	2.8436253130969	-0.617813463687791	-0.134831147307377	2.47019651241976	-0.448189833107256	1.28353843223088	0.560599186817022	0.202305299064188	-1.77233424987636	0.809996506230519	-2.59669459061404	-2.13089178321024	2.70048053110147	-3.96400309621547	-1.90873085475929	-3.45536495444271	-0.798651799550124	2.68888124615704	1.94351861388688	-1.76273940665943	-0.191223611545645	-1.30873646981558	-3.22039685703322	-0.220939478497131	-6.02701281237265	5.4493886388286	3.26572362895552	-2.64536117132012	4.13663353520163
"AAAGCACCACAGGAAT-1"	-7.69414034686046	0.754796060485093	1.23950490726921	-1.41965096705052	-3.90722235034666	2.8632270715315	-0.45038650386629	1.50617973633428	0.132929431627843	1.33431350224906	1.32343445639914	-0.574885909180768	-0.49652647571912	-2.527978730475	-3.69779311641129	-0.548082686023295	-3.85286646068076	1.35058020302213	0.577849357665547	0.676626113439448	-1.44078532051898	1.36626803536269	1.74517901912104	-0.117070579148032	0.487095437528249	-1.17849807411393	2.04144450176649	-0.915637357102214	-0.181863064906348	-2.52027845188911	2.52234737413586	-0.246097278061067	2.85203447912425	0.363183807503473	-1.08748967126195	-0.205140735378428	-0.299346179799333	-3.45171246112055	1.10147818596824	-1.17170151983153	-0.971123581580497	-2.0683701493144	0.163915999584481	1.44225291791913	-2.27593598978547	1.95399651444041	0.285428304984099	-0.23434284960972	0.234372174873627	-0.429493495648627
"AAAGCACCATTTAAGC-1"	-5.47545653680808	0.709421900331859	1.89171981690511	-1.99875142747344	10.3541997938328	-3.01836448592996	0.448985042743747	0.664406822980217	0.472371511568363	0.559230163408488	-0.291662854842582	-0.257175807471843	2.68466614167737	0.3193451506144	0.108121022230189	2.83107246582293	0.34244305599777	-1.61617779604964	-0.756448633775383	-0.908497643837712	-0.33877296739008	0.299774153734135	1.02429769513964	0.93136319025905	2.45907346656735	-2.65594510035503	1.21770696974916	2.86564258453974	0.14375857715057	0.983895092413855	-2.02097718518191	1.35336286633659	-1.41355780430228	-2.20895203281186	1.14526497142536	0.273513247682152	1.1313227309944	1.77602671610006	-3.55042595548361	-0.588536660569255	0.486159639375415	1.2007567358715	1.06721242177517	-0.288906084590736	2.82348637789056	0.249522963985181	1.54749134306426	-1.00341062596284	0.802445677334057	0.842038350905709
"AAAGCCCGTAGGTTAT-1"	-3.62042634751201	2.19227190429771	0.164151563785054	-0.361198023910967	-2.16899414131919	1.0011079464599	0.312397885255553	-0.0470441076369478	-0.339175493072114	-1.30119230726811	-1.30550547817346	0.901335042985104	-2.9090583365229	2.38480728681166	-0.952680290235495	0.519589455377187	0.0774435604701466	-0.905984899153406	0.806856677487971	1.55522941146581	-0.0791684817570303	1.32670912929947	0.503163851163625	-0.36205599370231	-0.876249418453409	0.195417552446728	-0.473236034678928	0.322003109242942	-0.68310584138499	0.28536966007557	-0.306533134786659	0.412352050713956	-0.320353882990715	-0.53189083463548	-0.106334949525159	0.639139639439638	-0.542394324856194	0.51905709407169	0.557533000509923	-0.428729721942704	0.290109629967414	-0.516111769221976	0.413577185121387	-0.519441615810403	-0.268276537433085	0.462123265921411	0.371189036877757	0.954429295630499	0.716512138816803	-0.15391685035333
"AAAGCCCGTGGGTACT-1"	-6.03512666371292	2.04413566660549	-0.0464242983986146	0.600970153183323	-3.43159314262804	1.86676534695412	1.25628733694989	0.100051222611075	-0.395219148270054	-2.73734069347965	1.89430164790859	0.865696764325436	1.42244640657608	-1.25521605894249	-1.20301334998481	-0.263763338954649	-0.234072010398574	-0.835281734689013	0.285676374317633	-0.319227558239166	-0.157015363888076	0.795300051420774	0.114348964265274	-0.311832726133621	0.193797165113874	0.876511445789336	-0.386971928525542	0.627074504801062	-0.368853478686007	0.751467440227896	-0.152636109909359	-0.223182705362102	0.430856203672262	-0.124139037622342	-1.61432167499461	-0.367155949486721	-0.44579316544675	0.0934463002987779	-0.11653802412366	-0.127371129788613	0.793042355966599	-0.383284713793375	-0.207736217343303	0.160197547059267	-0.114849134733333	-0.211309568251612	-0.618897199511845	0.164467619354609	1.22259339590308	0.407163644898388
"AAAGCCCGTTCCAGGG-1"	-6.2623011287795	1.46068695458919	0.156101247214548	0.511745237323556	-4.21600502389548	2.27348913996128	-0.983315858075413	-0.799474046008754	-0.452051980744753	-1.29123893743144	-0.560232382849957	0.159985081322552	-3.24965402298578	1.00420913784032	1.51317895907088	-0.369217419129049	0.451636830120146	-0.353450816539659	1.07605985647375	-0.733235381026682	-1.47967257584672	0.972745555881134	-0.129954235650583	0.259946137379329	1.08033724895561	-0.12950676682133	-1.55561434466573	-0.855102308952452	0.479705027886066	-0.260478174305377	1.28844112842926	-0.914836280270824	0.0564599765559344	0.30817243325571	0.469270851391296	0.563847002317051	1.42817360492102	0.860960375322197	2.00612091597308	1.08804584673063	0.281637351348883	-2.12654268203513	0.2793806595797	0.231327502419538	1.17965381846492	0.821455920242614	0.0466720644605988	1.26235921324433	-0.287212235777015	-2.17566396567829
"AAAGCCGCAATAATCC-1"	-6.21823740795341	0.729116491851796	1.00063956765	-0.636362717817098	-3.01392283053835	2.59084590649906	0.661061126313406	0.143570475394239	0.198389467137464	-0.768618845980888	2.33392786498302	-0.200527627218212	2.87221878335949	-0.554748234023382	0.636709248408889	-0.121262972451736	-0.229484061051494	-1.93540132875535	0.675821824059838	0.764689796253656	-0.799999912289374	0.155079433881407	0.701556843060161	0.0936309116540339	-0.153009363188405	0.272301926543727	0.281164199419888	0.247535786066284	-0.248403051103264	-0.152041121503515	-0.620289641576325	-0.107338646354563	-0.486490677135843	1.71238658849999	-0.55832825013836	-1.34120977047278	0.410044976582909	-0.834577727832037	-0.282047674755055	0.318839957598521	-0.476394039428168	0.363614910992913	0.91954723615966	-0.147394608371769	-0.682111121559383	-0.0272369114547729	-1.14492501189121	0.201736128320922	-1.31381442852793	-0.840680947512098
"AAAGCCGCAGCCTTGG-1"	-2.29025824786782	0.417940453127832	-0.145024285529216	-0.280755270741681	-1.36863022731264	1.89063281197963	0.812000699260346	0.359962531827702	-0.259260141264772	-1.41472157384938	0.66565862396118	-0.0622178188263095	0.331459199468333	-1.22568560671921	-0.0966282757181464	1.66627846353398	1.15884297397123	-0.912046310709069	0.761572272798138	1.32315682252084	-0.613271944142802	1.08906410575518	0.0242508362223348	-0.266689797736419	-0.426115810925699	0.0663276432627007	-0.395122288824917	-1.26916016463327	0.446084926552758	1.99035632466673	-0.490410127798837	-0.977655036202712	-1.4173260814378	0.528257157249105	-1.48177732652762	-0.903923466906334	2.67339073929155	1.15914942647185	2.07875792318597	-0.691088324810039	0.592411126007823	-1.00618228746142	1.12156804636495	-0.675660284808338	-2.6454155005258	-0.0942362599841647	-2.08209797331976	-1.24449166369806	-1.25258246509711	-1.87023199896831
"AAAGCTTGTGAGCAAG-1"	8.51078891525225	-11.4090050865581	3.19361037730494	-5.92712185971339	-2.5525635452232	4.24804882368416	0.594917643885203	-0.685068929147242	-3.18193747608627	-6.34771384023644	3.44727145618181	1.38827295081311	0.776967871210416	4.895427069665	-0.905421988445926	-0.525202334235975	1.70170554493809	-4.57518839077878	-4.57036289585594	1.58779846159632	1.03646756095916	-0.175744718617148	-1.03207630557945	5.83115050820081	-1.39615150556962	6.21123007434704	-0.111775234380319	1.94404130556365	3.996315357877	4.39365201800398	-0.525641379463252	4.53941867003246	5.04711953657961	-1.93930907211496	3.17942842126562	-2.77381389529519	-1.92153709518024	4.07419119897481	-3.61311494469771	3.68342678898225	-4.5318797021356	0.511454265374696	-3.1503945218374	-5.99543471274341	0.625703214970027	0.121640786303648	-3.44394654297363	-1.57707458696066	1.61604528732841	-1.49947759736842
"AAAGGACGTTGAAGCC-1"	-7.05730350663093	1.41369970415962	1.16728213274586	0.136908382025939	-4.26522188461636	2.25260425069263	-0.972148540120491	-0.0378881877483806	-0.112081783296396	-0.593782550976261	1.05731109434481	-0.0568482319625032	0.953726325760859	0.143252092274655	2.20657201991807	-0.280157223770563	0.454570096778129	-0.121730771538938	0.166492893435432	-0.681768354508871	-0.361505931781617	-1.03424760951263	0.569459990907785	-0.540127930663722	-0.254679997532354	-0.0756410923455424	-0.39129293247524	0.0783607729767777	-0.805947055111427	-0.0130391486790882	-0.150761494477252	1.04276368256754	-0.92405613157175	-0.86817592272794	1.35207652669894	0.248255850330701	0.887258551868728	-1.18147919181965	0.0432721924965825	-0.382332330544878	0.409585776687245	-0.363001861829768	-0.0229567089461776	1.02734014901652	-0.543927007419431	0.830856093694484	-0.828170429865651	-0.461510726276837	-0.154408510414331	-0.0180969703714297
"AAAGGAGCACCGTTCC-1"	-4.72188756148245	1.20260729936779	-1.28918055872522	0.774414868308754	-2.6412560715708	1.56824007458812	-0.00612082181360073	0.27641220135032	-0.0184588980338771	-2.56108804783098	0.938321950905497	0.00129912375953996	0.102026629136488	0.772592283320359	-0.16513407651158	0.170571726330594	1.26307848008959	-1.84247908690416	-1.22730680895293	0.27404767993318	-0.304386789837865	0.589770825054513	0.119381393890903	-0.216448292445376	0.266734573820556	-0.0410260945320524	-1.11769507374437	-0.794814841797469	0.643342217877701	0.739709874671838	-0.0665704835884606	-0.733682108999422	-1.25664249328758	0.711388390343096	0.24898644695865	0.38251598582114	0.447739182168816	-0.115901229674793	0.329498093673752	0.614790727679935	-0.0519887673259447	0.194019596705202	-0.320383107643134	1.18796005117071	-0.368482703689379	-0.409346895434875	0.0187630538488338	0.100726385420967	-0.121370829415075	0.0652906101817655
"AAAGGAGCATGCTCCC-1"	-3.48210432606991	0.94064254502959	-0.342495291181183	-0.0462742897610497	-3.45580563752475	1.15749095424191	0.0393498626068631	-1.389821551177	0.137486361916273	-1.06902425011974	1.23179657351076	-0.958913040761663	-0.566130381023871	0.915127184405408	0.520093218004869	-0.288490207019675	-0.134345834038584	-0.356294604900306	0.407429606131923	-0.0855906541097969	0.128731499487822	0.218354425126535	-1.39860724560805	-0.0971171945692608	0.667727351649385	-0.0651344121651383	0.723929866714956	-0.242461233577617	-0.463660279532474	1.0843024440719	0.571760503307069	-0.381946250114374	-0.834920139802702	-0.624791940611781	-0.79104385562343	0.028900822482666	-0.524367108597651	-1.07851071574179	-0.643309465556256	0.393765470893461	0.527354473002074	-2.14756394881074	-1.33520301376165	0.896086154286132	-0.279040210052783	-1.01176014417183	-0.586858921008912	-0.685165492301432	-0.406462695492818	0.479307829896546
"AAAGGCTCACCAGGTT-1"	-6.99868406880583	1.50901527978116	0.737550010866224	1.0900313880522	-3.67350114625531	1.47515567394925	-0.379916892693478	0.414934565759319	-0.589931634348999	-0.662129425335109	-0.9324331350332	0.462275667110248	-2.99956436877676	1.8395592083284	0.45471551177939	-2.61299596781161	0.436321529458523	-1.26181760778204	2.07003461130301	0.12087241615379	0.0369721607616382	0.909353660851175	-0.5584789167343	-1.34351568981134	0.223256213450868	-0.768727992420153	-0.0113480845252275	0.333439087611305	0.0706920636697611	-0.772737723902104	-0.745835070501475	0.63930893438567	-0.847112796278902	0.927622383514021	-0.128159172925855	-1.51404877578458	0.179317736453583	-1.50544538421329	-0.870320646897834	-0.337870353302023	0.550033308230207	0.00839602786660193	-1.29151662174309	0.0324937171612836	0.36191551741945	1.48380728859963	0.25329438369182	0.846815922021519	-0.0398968804437227	1.91209303650381
"AAAGGCTCAGCATGTC-1"	-1.80137697601014	0.319492225439175	-0.595447579005269	1.89505133743333	-1.73353082813507	-0.575739840290178	0.559123618421597	-0.949530755042976	-0.396047214900381	-1.05072729836756	1.20093001129399	0.273738293702154	0.634299576519707	0.250067280612414	0.743568868026213	0.270057733142374	-0.317437192226114	-0.767318155284803	-1.21526441014085	-0.866888693264973	0.918068612502627	-0.391893558858714	-0.0133191812731435	-1.3565066997135	1.21061329678666	-0.571463153468771	1.38393675225917	-0.292553283123174	0.795646759262949	-0.504515969917804	0.0565458523399978	-0.150241504779642	-1.06020014660467	-0.0406462414015483	-1.21129748987732	-1.2087627287016	0.0184362654500932	-0.516214856179033	0.00802848804995692	-0.0137958616291685	-1.13715413078514	-0.0736211531712128	-1.30480787957619	0.801590506975321	-3.10690748536108	-0.0291186449793586	-0.870889341362564	-0.975791413535193	0.758896338140651	0.0175622238484769
"AAAGGCTCATCCAGGT-1"	-6.16570181112955	1.25554004738593	0.593302827379216	-0.0412123554965644	-3.70666834785579	1.69189031977902	-0.205971940299709	-0.140426769356893	0.388792787089607	-0.400090771766993	-0.681814733237078	-0.181741223326525	-1.02300816923351	0.387672530419332	2.11048640873542	-0.710047652868603	0.540773589288353	-1.18078115211213	0.15921800258665	0.0624236781134577	-1.2378777839217	-0.495860925307756	-0.543892210000772	0.85284212066651	-0.139995082517625	0.49225650330075	0.397708283160165	0.148629483042139	0.0455525528913861	-0.697890704267337	-1.5504313676051	0.875111423117047	-0.790796548256769	0.523400203646798	0.38838175544817	-0.742446276862062	0.876440953293647	0.104292768560526	-1.38034918791312	-0.307675563791632	0.374059480883585	-0.480624374385839	0.665726405346087	0.4243059537721	-0.00285858434278767	-0.455712612645588	-1.09060506238973	-0.701249766528546	0.132030141036371	-0.533815979308225
"AAAGGTTAGGGATGCG-1"	-5.794776604189	-0.201186325987376	0.96479017158819	-1.44947441788179	9.60106696825617	-3.21368084418157	-0.900964426069577	0.722408785430879	0.353764532928887	2.44115361571793	-3.35917480435859	-0.704480970721339	-2.03666329504631	0.717837018076652	-1.63445097631057	-4.93349521323373	-4.96308561879499	2.31666115233125	1.67909574878571	0.667006974422957	1.4324804148953	0.538783265202392	2.06416593971161	-0.266240492254763	-2.6272424817286	1.0252303718985	1.06184381935954	-3.57064871824801	2.31393282230645	1.5828139276842	0.312414322744945	1.57937572543215	-1.5168539143765	1.31038720120416	-1.32588493192044	1.0140100843681	1.02295575763211	-0.941597054440843	3.58817212809227	-0.533414342164057	-0.715059059769058	-0.982856350650684	-1.06215917479679	-1.18928553398667	0.773563615609222	-0.942755850254187	0.556370265473493	-2.12736771864247	-0.720147009950964	-0.512304392162233
"AAATGGCCACCTCAGG-1"	-4.98605259331524	1.46155593936949	0.966908651309624	0.541140571339614	-4.57826908888664	1.17998589209595	0.401844836048479	-0.401220434265947	0.132576457017189	-0.569832649117257	1.11209216906227	0.223060081485042	2.07736986153042	-2.44900605660549	-0.0396848065305568	0.579842306859274	-0.238657542090585	0.642938279038495	-0.0595725497161036	-1.53866016553581	-1.52795673081678	-0.238486943525978	0.989622661005638	-1.24922108079869	0.594164782796292	-0.365923146455207	-0.658566786735505	-1.03349504591757	0.118021683894056	1.54472602111788	-0.555987358034438	1.7143938537477	-0.225811479668765	1.20253731681154	-0.379494100291693	1.0470185938266	2.38387490358243	-0.473356304019316	-0.711436485516261	0.149706193679294	0.678488972349798	0.632353968667041	-0.154139821945786	-0.793644469326116	-1.00678577567539	1.72365470552022	0.261964417725369	-0.728731476832634	1.57873569039406	0.444006178861747
"AACAAGCCATTGTCAG-1"	-8.76568770980194	1.75682265259509	1.75213896794806	-0.0938786155656741	-4.20238171004446	2.59834694035814	-1.25253542587563	0.727648283882312	0.594999468669919	4.3256204292996	-0.538591191736831	0.337394047827709	5.62137176507582	-3.6812610761312	0.352358160424631	1.58035112886134	-4.92881982719317	1.96988964287339	-0.369204800492302	-0.0701565413000988	1.19182992829849	-1.78301599622741	0.872647110121506	-0.0316823131107352	-0.836950400605803	-0.955001251986217	2.33932953788304	2.62553562335287	-0.75646547919808	-0.69600124033024	-2.02272589222627	-0.565867907833063	2.10109647281623	1.66323383045854	0.254952641952813	-2.2514639307315	-1.06795035699005	-1.58253928083896	-3.97320679147497	1.7303773948989	-1.88311757142141	0.112916029473689	-0.618497731610233	0.308075136656838	-0.658761868489989	1.08600545432401	-0.107050234947667	0.012835375412537	-0.0866962139391479	0.413718180816468
"AACAGATAGCGCTCAA-1"	-5.77992631486731	0.594368959608313	0.373703562588271	0.680913989007874	-1.0475455503913	1.65260550601399	-0.113653319562098	0.0061596346399609	0.980602915999404	2.52879211068247	-1.63698555236267	-0.513302367671389	2.23952349131183	-0.0841928254692658	-1.88354346859621	0.697505642166195	3.02116706964012	-1.30329418569679	-1.13286546147228	0.599219494658585	1.12916005548275	0.0564314974674666	1.05791292892447	1.19773218442903	-1.55088842158564	3.32583276846544	-0.961307037285119	-2.39913184105545	1.3513529995019	0.180712895247992	-0.441050150339292	-0.793220792934637	-0.953175490511419	1.08864597469137	-0.710999319841091	-0.000422554868237299	-1.18424426366835	-0.066470076631961	0.319617219924059	1.19256781704674	-0.114344647135465	2.04092153326539	-3.43022097157026	1.79273147264831	-0.699129797514213	-0.0674539510899987	-1.66009722364774	1.43635718594177	-0.471927711473117	0.0884687737916262
"AACAGATAGCGGATTT-1"	-0.548487586173935	-1.98277854675605	-1.21920710042038	-3.70235216708863	16.9721053435015	-5.46703253145357	0.0233883967504705	1.03871516647457	-1.35083680314631	-3.85686095325999	2.80090722357865	0.428669339567817	0.396770708567365	2.2382261796314	1.63255203138794	1.09137618649088	-1.91743944413622	1.71216758023697	2.08951756718976	1.75962237190258	-1.23580413744329	1.40688935653443	-0.527320069453105	0.5940080770158	-0.610158470200863	1.15458103610839	-0.179132700990562	-1.1379498250928	-1.53862689370545	1.94996936475726	0.940898295331373	-0.789018529112556	-1.36452892510266	-0.925429488256452	-0.567591594402472	-0.440321119063311	-0.582100630868956	2.23216226411705	-2.87732692722011	-1.17534944669812	-0.675532198808441	0.897810877583424	0.352352079056032	-0.991542845125112	-1.10843495323955	-1.21795593337851	-1.17565024016849	-2.90131016886878	1.45416039481892	-0.618488872363584
"AACAGATAGTCACCAG-1"	-6.0270417849433	0.557150428513144	0.681216768800661	0.977342388079404	-3.6397444622281	2.36027131279928	0.389239313982829	0.865878796166503	0.400545523914033	-1.79097412859059	0.595846402729317	1.02413227162081	1.19575338718694	-0.324445351048489	1.71610833441094	-0.126308598151678	-1.38191826123355	-1.7631819421019	0.191473165680607	-1.20054411905214	-0.602016164345758	0.0944041820021466	-1.29033412181083	0.465175310055819	1.30788309790702	-0.217755550817585	-0.329347121396873	1.55945925255159	-0.401260485375514	1.28580180594534	-0.91264748493642	-0.422949032354349	-1.49753610500832	1.74064553020137	-1.26480465639299	-1.37470514731831	1.43543879689092	-0.456247707332769	-0.533760944674751	1.34947640025893	-0.894941707902864	0.320335234823315	-0.319348477765792	0.138942029394727	-0.546569731228885	1.55553555683747	-0.529935486667777	-0.408541323287118	1.09773688691468	-1.0310346779953
"AACAGCAAGCACTAAC-1"	-8.12347979068453	1.72508759296929	1.19850275702054	1.22198125186494	-3.54310442584605	1.18657473950106	-1.27693298197888	-1.23586969221045	0.685122780008169	0.0261956854556018	-2.96019929663354	0.366773601465031	-4.2438314962506	1.87390893292803	-1.15852129590645	-0.502935726582815	-0.745017761798065	-0.699454547444221	1.2250477028392	2.39691370079728	-0.727457641004212	0.37472898916193	-0.713054617199174	-0.726784138322933	-0.791519171925974	-0.611349626053316	0.0105210344960244	1.41099434190398	0.0466398927373444	2.04267177036136	-1.56057137678332	-2.16058958626862	0.1844137611591	0.878714236427272	-0.9390694087614	-0.916278293547419	0.92544198223258	-1.60047618744176	-0.669323530284922	-0.173348110534196	-0.97668042209327	0.0592924637431937	1.25138774520738	0.00956352187398915	1.11648707038533	-0.629620156599222	-0.480694579592412	-0.245028974032478	-0.412642594779309	-0.363653123367901
"AACAGCAAGCATGTTA-1"	3.94055182934644	-2.37841918122485	0.436517420703676	-0.571556091450514	2.13082420810136	2.28373029420529	2.7425811241104	0.273628556195762	0.140282066516775	0.169984785067907	-1.36153347525059	1.71855988940667	0.0064020543718082	0.493652953333738	-0.854879590031493	-0.680273288848001	-2.46349222628944	4.12762026260263	2.19044932135259	1.52804693518222	-0.00991885230346343	-0.341249761108081	1.80988346217495	0.168135083135002	-2.2411427565824	1.82429149116476	-1.20120461535306	-0.90039998819952	0.202533903840541	-0.605020606352982	-1.2105240222663	2.29115167219694	2.06789042344647	-0.744776579428041	2.48163672232305	0.863310447663573	0.0979758999765057	1.97770575818249	2.25893448933643	-0.158201744027397	-0.892046203356148	1.19907993245093	1.16067894252089	-3.01002698979217	0.989757177532669	1.69603169360188	0.626565394739473	-4.21597590842475	-2.30939879843612	-2.755619780109
"AACAGCAAGGGTGGAT-1"	-5.69461324685176	1.63780248512932	0.30519540395731	-0.0757966699989808	-3.97549236335804	1.55542679883894	-0.683461987748961	-0.496853830218067	-0.97929910100292	-1.70508972167524	-1.06346346413653	0.301599259789358	-3.45195281722418	1.49911543969346	-0.247204191923451	-0.338407598748894	2.4742758239679	-0.0236661776970126	-0.995265602776512	0.563458401647665	-1.39448326407105	-0.19026283448543	-0.633700667102107	-0.262434218022737	-1.08367526030295	-0.195504504057839	-0.506916234029038	-0.5307289533845	-0.581844398017963	-0.413565070437747	-2.25747078066907	-0.422536521216293	-1.06554732346016	-1.02252525049311	1.55253572109746	0.685071372834255	-0.506378640189176	-0.497267674094204	-2.29212761109969	0.0934738094532407	-0.770185266092773	0.189181145530915	0.680952639024368	0.41725458481105	0.761689216576239	0.155598989901364	0.0159686909162921	-0.421844269722835	0.336851193111176	0.11263652201903
"AACAGGATCCCATAGG-1"	-3.15113196076486	0.591978779038531	-1.05377205799049	0.15470833955674	-1.31772019958268	0.0742528861503339	-0.225414175432571	0.186974631943041	-0.00540053554546524	-2.92094618315526	3.27437203689297	0.690854496684862	-0.276478394454517	1.77140386049918	-0.217447244698442	0.678061977983074	-0.285471521076091	-0.255879015166381	-0.408477399202711	1.48591595128245	-0.555417135346797	0.703562973246307	-0.418358679706763	0.0361453809683454	1.43834268879014	0.726096137905994	0.230606334125722	0.176785572388842	-0.663754502190711	0.337318629440864	-1.68115779885046	-0.231397826516727	-0.316109328661639	0.288685015819972	-0.0120621331879727	-0.469573534617201	-0.146962761159528	0.038288057587839	-0.98036960187477	0.2278996309774	-0.316895150767014	-0.721053952265943	0.714364255686907	0.841903085321588	-0.29292120448503	0.15121467700733	0.326870849112554	-0.1343884074876	0.185824545519219	-0.831531089637156
"AACAGGATCTGGTCCT-1"	-4.1459820158398	1.02615115919237	-1.06487468134446	-0.29112201206784	-2.36550303818491	1.69549336560223	0.468648131446978	0.473252386295154	-0.661051838850487	-2.46166443954903	2.4383816175141	0.807213611304547	1.15283072971982	-0.456456816115046	-0.507342699583344	-0.677579931123624	0.235854109126624	-1.08630553336777	0.0254722919102686	0.0284210859873707	-0.204396662479851	1.10108169456073	-0.799796432725827	-0.513463256122924	1.15471815604226	-0.832876099655492	-0.723409431462719	-1.17801689977338	0.491561237715589	-0.428652699136547	-0.374883782690964	-0.241937315692929	-0.197698446582297	-0.93594320505827	-0.955173679255085	-0.694689476043649	1.21108316927771	-0.0315266341188403	0.66097879426154	-0.342671660999584	-0.436588474988072	-0.597600842983719	-0.825939385322728	0.546077463484531	-0.78443990754834	1.01765255828641	-0.0838746345157411	-0.980573693681936	1.0734562012773	-1.57658681311464
"AACATAGCAAGGACCA-1"	72.8815581832182	69.3415081882496	18.2847142878684	-26.5118126004126	-8.89863522283218	-3.95258462442954	4.3066992206976	-0.716916298848254	-0.700700952604013	3.39431478282027	-3.62970468528863	-0.407971751074548	1.62350183767386	-0.202751432609567	0.867676871470693	0.657657871197346	-3.08880259152645	4.39219837281238	1.17179941365996	-4.32281247520687	-0.0247032268368475	-4.9500721326848	5.91864872038425	2.98793552812178	3.85158003421382	-5.9666422109703	-5.30661741718849	-3.06576124617365	-4.06342513459918	1.15588771081855	-4.42354740608906	-5.33924357545561	-2.90159843548998	-3.01275659021559	4.19520401415044	6.19771166573782	-7.13457087138252	3.65508931755109	-7.57746584947333	-5.5035535845317	1.70337099750244	-9.34569396991178	2.74572707566564	-2.95885195527519	2.91965347197134	4.96934373095121	-5.50209706248531	0.0844569451764081	-2.69787802177256	-3.6719653424105
"AACATAGCAATGAATG-1"	-1.45899293324007	0.19706342680671	-1.31304743209249	1.24198804109369	-1.60105081579115	0.412945982403834	0.632686754756525	0.325994751490194	-0.174236511519238	-1.37288130624539	1.30247288312269	-1.2611191282761	0.341914685695839	1.3301755862155	-0.142067624232638	0.417601478297793	0.704250665557649	-0.378969738268588	-0.0904736459712924	1.14322607275193	-1.69604941099328	-0.254129102018377	-0.404597866472182	-0.452066728895481	2.23817432865651	-0.230511679787623	-1.48487737080346	-0.328257604509809	-2.39362191935555	-0.531725755959088	-0.526445663764827	-0.529196785768713	-1.33104192089887	-0.455210159711781	0.714053292586885	-1.03010531332505	-1.21829974508383	0.0474309078681672	-0.776099834514776	-0.683944105670159	-0.830220849911825	0.114335310153386	0.235439280507539	0.210380382101556	-0.502289545813751	-0.155881700258632	-1.38397357608508	-0.381318545969114	-0.418341152260661	-1.5323519434425
"AACATAGCATTGTGTG-1"	-6.21289362831347	1.77184950452572	1.45684658786299	-1.68336173397319	9.16652945625742	-2.77177143589203	0.348834988250429	0.66352034534469	-0.179988225736289	2.8891665329986	-1.42948130187499	0.268278198500934	0.558066952862356	0.390343651800943	0.198544920996736	-0.0173838907208564	-0.0444158280582267	0.676232957882225	1.62415730336625	0.357465957840099	1.34528730984073	0.207882281895856	0.139599621585257	-0.155472485865363	0.127176952296737	-0.552426100068511	0.248341622100364	1.72639816512935	0.22290479275537	-0.252909446762348	2.86231429589204	-0.958546316344449	0.676600909755222	-0.52307638970912	-0.631795450201032	-1.27766914474596	-0.823503150768114	-0.675561982758568	0.540773840413657	-0.816705461346222	1.17160684255306	-1.86525124591146	-1.67785568942583	0.812537341589328	-0.974768336982139	2.00633019078576	-0.079934358779363	2.37413920020869	-0.017276693128484	-0.677318549444252
"AACATCATCCTCATGC-1"	-9.64773376104079	2.08829391072265	2.0356308412957	2.26161579684493	-5.07167099719579	0.770988106758495	0.0744249900845083	0.949679342199567	0.318983621177271	6.37298050825734	-6.67359514191059	0.717719340024942	-5.6969219896681	2.30390940063802	1.96884874390879	0.369884586027457	-1.56524307948643	1.63141297917713	2.1055295318316	1.2420649042894	0.104008221435705	-1.25631819579905	0.397420611585041	1.252292976919	0.844961494510687	-0.589694358589731	0.365121407403962	-0.227879944126667	1.43434750255629	-0.318412461860056	3.49520392411158	0.362117721931955	0.594480832815969	0.997660541886974	-1.25369453644506	-1.47544055296048	2.46705713251052	0.342690822158612	1.38175498268912	-0.789039947505685	1.51914840366698	-1.4986185830427	0.46197742825392	-0.386673246888553	0.509033673566392	2.07045228545979	0.00911710802888344	0.834934364085264	0.125258519036134	-1.17887676451154
"AACATTGTCAGCATTA-1"	-6.9234051262201	1.20371139976431	0.325636433479058	0.403919348832905	-4.09462263981623	1.66986054142667	0.420324407935977	0.1619592597484	0.62289444403566	-2.31592561230414	0.47185524972628	-0.352676519568759	-1.17188150544023	0.950659829539313	-0.0875035727725254	-0.328773872152364	-0.469428155468722	-0.228139377332637	-0.486894651087059	-0.560680312228265	-0.665341293669049	0.418474858606272	0.658366096372827	0.233628245633031	0.448846960412259	0.955937384454194	-1.09786137871777	-0.662901560178284	-1.46387559232284	-0.708007964352323	0.478116283397371	-0.937591556707854	-0.525153164640343	-0.522127003074968	0.845137373891193	0.257452385433715	1.40346521102628	0.411656592173308	1.46189212290798	-1.23326119060721	0.654346549042833	-1.80965700589022	-0.136897811388943	0.815276118669319	-0.315625139349456	0.0955532614346864	-0.221718715091397	0.836398217006275	0.404548785632073	-0.499976255502017
"AACATTGTCCAGGTTG-1"	7.45820720790779	-2.86157289656067	-4.33004034841816	-2.66881764803157	13.4403784063461	-4.17594215840021	2.21278280775102	-0.10667440137685	-1.49045183110028	-2.86596265473784	0.297096686044212	-0.473019161978171	-3.23815158511856	-2.10445940617124	-4.89593834116748	-0.825049988712414	-1.58009501947004	0.544593750350696	2.56342037674136	1.22725697702308	0.720988084280495	-0.199690484134197	-0.236442039901533	2.8852296320343	-1.61752654602532	2.26445498611857	-0.561895982070329	1.04251154264576	1.89369544326022	-0.429433948756349	-0.650433719043252	-0.107627237227673	-2.94046584848167	2.6912223282217	4.17422088411689	-3.8415138781892	1.95785962649166	-0.431694872796736	3.55573548646712	0.992743676124349	-1.47346573299709	0.585015200827813	0.710506388041771	4.02677141969006	-1.76596645734992	4.80015325483691	0.912383977257483	-0.615184214390081	2.3023451934912	0.202043802878595
"AACCGCTCACCAAAGG-1"	-7.40462648247176	1.99637941322653	0.27394544325349	-0.663341642183578	-3.70785771612528	1.71214081089296	0.0552026987435332	-0.284501103382727	-0.249657959641402	-2.95265501697157	2.76542002583771	-1.27214935079256	1.10323812766006	-0.759632340063414	-1.44847270149699	-2.0139212454726	-0.286614853245513	0.19086288131007	0.606870053597883	0.12713383615026	-0.345644225191961	0.572179763274444	0.321008743090321	-0.580316529388664	0.823231982658544	-0.089467883107076	0.00842734827074149	0.563685201371442	-0.219253354497118	-1.0088422165483	0.879178843495397	-0.223228781775583	-1.02057832322926	0.14206286468682	-0.515652321729382	-0.595978882075234	-0.664582367448405	-0.966436976031879	1.19025775407441	0.255884758410606	-1.44846757430521	-0.307734224123406	-0.389998307136433	0.483720600962194	-0.19904662645126	0.596106408270528	-0.293900997517146	-0.552369942534798	1.28599133711662	-0.3744375741829
"AACCGCTCAGCTACGT-1"	1.93819749675737	-2.72576689975894	1.40799588898628	-4.12757902646101	21.5999991830738	-8.67265942544067	1.51354501243804	-0.441818691719454	-0.0552601295044053	-2.46721759720602	0.222788692965292	-0.566130054443849	-1.2965116525741	-0.228242526479735	4.11768445035558	3.94413429648946	-1.00280216820144	0.406300314231178	1.86577563444052	-0.78020591043799	1.04417486947277	0.142342349013256	-2.30365960824294	0.10780520365135	4.15852314930517	0.399120460595286	1.28236830420389	1.1842691172697	-2.20836921933799	1.89165096836795	1.61101356367561	0.423382954540385	-1.29507223693925	-0.593061022955468	-1.58537300807272	0.583752738846154	1.73395664780918	-0.462633760824361	-0.310253337723853	-2.54096960780941	-0.897524100457782	2.70744721254714	-1.29569616194256	-2.0702962053781	2.55673479176307	1.95536667872154	1.42196045563522	2.34695548975553	-0.823461901983266	-0.274624025406931
"AACCGCTCAGCTCAAC-1"	48.768510819003	47.6333003425693	12.1807650279792	-14.7810418118496	-6.25242965122703	-2.26444741408002	3.408663398188	0.786093924999811	-0.171991469297543	-1.5088672685917	0.724379096623017	-0.599835147385991	-0.297690234548001	-2.50781388489156	0.26536566621937	0.928983241683835	-0.655838966363292	-1.91870203496134	-0.869232292544388	12.7296142698012	0.855269758653095	4.12338436757649	-3.61324088497209	-0.84204442820869	-4.70972955356134	-5.0189368437531	0.528798698422473	2.48164914593977	4.7471012343662	-5.33624858262836	1.20453637753242	1.22456886842123	4.40800655029462	0.35848979560776	-3.32369626362303	1.97203444627952	3.78359001448256	0.269985348741418	-1.17729140902148	-2.18812297423303	0.45376973895415	1.62674012948072	-1.89907918056536	2.34122048188089	2.48406568706277	-1.36761254671636	4.16960595472473	1.15406312872567	-1.06208844568712	2.49088427038331
"AACCGCTCATCCAGGT-1"	-7.41369675379867	2.16109640592489	0.735607218999948	0.389479976490127	-4.22958204770421	2.17186651141377	-0.712562214789488	-0.473375585978943	-0.798736661826221	-1.57589287241536	1.87636184296442	0.347313191252499	0.380894571934083	0.0922477170245291	-0.149667992584817	1.1653780503421	-0.0811376822098605	0.188870945435752	1.48179369491009	0.156558359742545	0.106330698150484	0.946573306256534	-0.650344718944458	0.283574731739086	0.97126414249767	-1.62194385060125	0.329591465997825	0.293657250115495	-0.19408569521383	0.35794811125512	-0.50156854639101	-0.388335598803875	-0.921604352660863	0.0853853198588502	0.612229476303824	1.14567973027649	0.78293006809797	0.078032640617223	-0.572757763531617	0.536729150189598	-0.0830743827521778	0.100335432054401	0.777466701270075	0.560686694882386	0.549460961679763	0.0831213485024149	1.20774219336865	0.677649888577869	-0.137885803153909	-0.831276143086648
"AACCTAATCCTACCTA-1"	9.02296260408928	-0.124287487349555	2.71525028325959	2.7864986239973	9.76903902047976	-3.62511415325463	-1.57871890340926	0.0543679841143254	-0.12843222001529	4.17242121854783	0.531724917411345	-2.84029760348859	-0.965590216747834	0.702229011901744	0.232400195540312	-0.974681169152567	-2.41894901706397	-1.43967839536049	-0.109237328768281	-1.90162789511345	-0.994065101688852	2.6896164543566	-1.01653399784567	-1.0509134455956	0.215679870551816	3.14282440269217	-0.250401505018477	0.304432984587645	3.10163861729021	-2.14974509506657	-2.9967316580411	-1.13093227607991	0.54999815791982	2.42485602971284	-1.62964033141101	-2.02411043448383	0.868113475848594	4.50097586676953	1.33333208545789	1.79056790819615	0.640928604781006	-0.203368271220371	-2.04709347539743	4.23645684129027	1.51206418155386	1.78596242215283	0.813201723419475	5.00330750336029	3.94979109141655	0.0233078673354791
"AACCTCACAATTGCGC-1"	-1.99392177567081	0.683775543316789	-0.909769883080915	1.07616717864689	-2.06666236253283	2.1853022688711	-0.461461000386687	-0.541444124954321	0.11877896369831	-1.14537480608856	1.7030761611186	0.909258534965307	-0.316024018002788	-1.34045088842326	-1.31728900789283	0.531278269030466	-0.132104644624802	0.123789972883896	0.610764663736711	-0.156022077251163	0.550794562161799	-0.552532514716785	-1.16049001771985	-0.809246245676493	-0.205843958939651	0.477066779098289	0.170400948527605	-0.231911052243469	0.241518393145043	-1.12102264443298	0.364333354176569	0.00371560279979506	-1.11908735898853	-0.465235423526041	-0.104228200770995	0.860695614504216	1.0764916082305	-0.105466085689313	-0.412232015342334	1.06243240407878	0.470110822230685	-0.459812870210355	-0.133496227113611	-0.395164139473548	-0.727089685500871	-0.662052888204664	-0.253495673236516	-0.293567235694298	0.743903626329952	-0.211656982152265
"AACCTCCTCCTCCCTC-1"	-7.51692143498876	2.56209899012361	0.144490864105283	0.519824990274187	-3.82308042454505	1.19431930080938	0.448167271225084	-0.409168848986186	-0.680789021451765	-2.59420248788098	0.545243213178662	0.304571292538393	-1.40339262325657	1.83290273004045	-0.38047161987608	0.443574620497025	1.06998159726226	-1.11458073503574	-0.619352687300911	-0.454669175380383	-1.04012136534167	0.422604638850035	-0.585644305520805	-0.0017920001738295	0.168317929645308	0.188544675384255	-1.29419499059147	-0.292253774007172	-0.455927354372045	1.24005663667638	-2.19208403074991	-0.617378528810155	-0.75566416836719	0.168496254491912	0.208761104541077	-0.248635581678023	0.202293472925795	0.311048729490246	-0.407653725289751	-0.625961518019919	-0.912094165681416	0.329464917264836	0.784287081339897	0.729825648143383	-0.582944995180767	-0.647553326749182	1.48097011997852	0.215646339555735	-0.170438057678461	0.771000454741392
"AACCTCCTCCTGGCTT-1"	-7.07195554522507	2.10907023659107	-0.0226598037988129	-0.0226149085496865	-3.60950567469192	2.17304663715479	0.718806188819771	0.56169070144785	-0.820709338829489	-1.24773489991047	1.97234838587336	-0.0412638922685188	-0.103720551738938	-0.767704240278614	-0.272770847252897	0.651190661631846	-0.0724384500181819	0.103005055660051	0.173898609059915	-0.145997591484656	-0.462798820281167	0.228652033247755	-0.90215429826596	-1.05432223272131	0.688194945661168	0.0762211880224119	1.03682396567452	0.467210290105229	-0.0519388420636279	0.321298727192088	-0.171365253461287	-0.866598417036322	-0.700044697534282	-0.407951649660887	0.484217725217727	1.14911956377174	0.643394962163588	0.130173219853282	-0.508143538393985	-1.20748080316333	1.07797044288096	1.70635455930549	0.452456430222992	0.369400586913081	1.12533977215349	-1.38891252008149	1.30048716127398	0.220170945929481	-1.03120254131267	-0.431185729923965
"AACCTTAAGAGGGACT-1"	-5.16260634319906	1.68150680155214	-0.138368565823596	1.2765603643688	-2.61701574034609	1.87879707755592	0.163505117580388	-0.954255880656313	-0.0533524558798757	-1.67982051092548	1.38756716805943	1.01108040546257	0.352370291448776	-0.865604699341475	0.192966435172578	-0.263085156655574	0.0660847659172218	-0.322749671573023	0.701348178379363	-0.0313880144030004	-0.915200283880407	0.344699604178541	-1.53004987307162	0.0971775400766281	1.37121785308728	1.37937552182603	-0.94259213485319	-1.46968987995697	0.588496894099298	-0.565059649397758	0.389574594089136	-1.65949551576534	-0.390487955653422	0.115825604557989	-0.0662812725682038	0.187572444201579	0.356535289549928	0.644817773091057	-0.422021846335035	-0.0543529602956699	-0.924874716352921	-0.738361290447222	0.842162616920419	-0.222022864487844	-0.423140126897998	1.61745236381828	1.30251827841469	-1.5146469382924	-0.634944832585946	-1.02021945765021
"AACCTTAAGCCTCTGT-1"	-6.44122511768661	1.32330624370231	0.57957093055533	-0.498944385018851	-4.43154193698275	2.90065658049942	-0.0816822686734103	0.371687176955664	-2.63782120666146	-0.123475329431588	1.77388275721493	-0.254421251731162	3.64668984152068	-1.82936935271611	-0.280676884836496	0.480745609215444	-1.7312287616965	0.744884313727206	-0.242562566725458	0.509590011345255	1.35673338029699	0.614005570047793	-0.969725428029222	0.447163059303912	1.21080431454773	0.245592127551064	-0.311706771372635	-0.50557445295902	0.386438040278282	-0.0354976465460999	0.762438430595084	-0.702867833012803	0.989759890422539	-0.303094307082245	1.54105799094548	-0.204277924953679	1.63194231880168	-0.914610719110943	0.077005910673507	0.0525554238604501	-2.92965090342312	0.18507448485708	1.11004108698123	-0.329626422240776	0.930407247613843	-0.0385650432089383	-1.52971510010248	0.309488214315769	1.21400659690256	-3.77451656428461
"AACCTTAAGCTCAAAC-1"	-9.61793680614711	2.99371861646302	1.75937804522146	0.89958463252463	-3.95362805242871	2.40960229768576	-0.382664832281038	0.0476902933714113	0.358573458040404	2.60713185568159	-2.01067919690831	0.134328411353592	-1.270936901187	-0.214565230975614	0.958940081540976	-0.600889416468574	-0.919955094921118	1.87495947646446	0.723044827459503	0.472551900845638	0.840490930685537	-0.624833700445982	-0.480695946646861	-0.596742190188371	0.242776878646283	-1.23089116384183	-0.546286961242818	-0.767218713412998	0.379369602188927	-0.672014598487687	0.866161890185845	-0.256176189950998	1.24591372638195	1.38661779210161	-2.00260568079423	-1.04333546277634	-2.12920019279317	-1.26997840372436	2.1522285418622	-0.545870269807882	-1.57997383104064	-0.702692826877988	-0.321183645780796	0.774934071449286	-0.799243023687449	0.624511024542986	0.297496201401455	0.032620886567012	2.87733035219347	-0.0890361627531864
"AACCTTAAGGCGAAAC-1"	-2.27538430417858	1.23541873082703	0.258305553268265	0.71229298078111	-2.82823266210479	1.34797811334852	-0.813198800715279	-0.464366256686323	-0.20019666633505	-2.89483991734529	2.14927304764641	-0.356459906476096	-0.859145884386955	0.19175802246902	-0.0620672740731304	-0.433777665090573	1.09644431452018	-0.309735094959615	-0.709776716925939	1.0010686009822	-0.322700003106634	0.799329081611521	-0.649971450903309	1.11662246320054	-0.317732836708169	1.29529810466522	0.305823502195775	-0.0213338871582977	-0.758149914126907	-0.368580066075973	-1.16515926426854	0.60280213770741	-0.24601405713884	-1.02765142402565	-0.449004608254153	0.50635069897846	0.588523385654866	0.661970750878227	-1.33192234809624	1.09839061287509	-0.720441699786086	-0.363977844532034	-0.445451813065314	1.41379780707872	-1.53186750865539	-0.682595966639988	-0.598713941456007	0.123967794980565	1.13705758182642	0.849324474311817
"AACCTTAAGTGAGGTA-1"	-5.63389752269585	1.3328304460435	0.450605940806838	-0.593197802244907	-2.53235242327608	1.62449170069212	-0.299576415329463	-0.395861076476129	-0.0429156419195217	-2.2403859728917	1.8263681811679	0.164213148682928	1.12101615604494	0.337102671895685	0.628353553454094	-0.499016688631488	1.34883617777164	-1.08316122567645	-0.292595273217349	-0.74278333829656	0.731916697537716	-0.936756023136482	-0.0723192518246724	0.239953578680957	-1.01816154039049	0.364016129879118	-0.775097862086783	1.10935417532392	-0.660464199788032	0.177386521881402	1.11230374250739	-0.168960275323595	0.64285796692684	0.440958858881151	0.782143408405817	-0.936188893226285	-0.458550180220763	-0.0420010390482869	0.363034959286274	-0.565311502630545	1.31763723136574	0.383440258920908	-1.36783890849814	1.50638914321862	0.90967528791705	0.166289066447602	1.01810769229059	0.636327863736868	0.101159873107132	0.538932525580118
"AACCTTGCAACCTGGT-1"	-1.0477710370045	-0.447610341787037	-0.819485642830876	-0.135597118233652	-2.14736243225683	0.319551957020043	-0.208520772642175	-0.348586863781901	0.189117697287717	-3.36288511708892	0.529509413878827	-0.170406728483395	-1.84662294831842	-1.09733547001149	-0.757955019306628	1.26748708969625	1.5301548487476	0.282912997796003	-0.194661823047915	0.588011565502823	-2.03607480696759	-0.595876763926692	-0.810389326253422	-0.511560814274887	-0.0408110183378328	1.21031285245013	-0.871370308234669	0.0717722998925133	-1.10636771597481	-0.956212281525714	-0.455442053083487	2.02644375082662	0.225334335948801	-0.882700450120269	1.0212199829299	0.805993313408186	-0.598946129031475	0.969650845693409	1.07803092585442	0.624188084272067	-0.642984232013105	-1.61822858838529	-0.634971055047382	0.976690035460589	0.538477701339303	-0.681200714821001	0.364728252766265	-0.428638944370532	2.3641139761042	-0.220672032127389
"AACCTTGCAGCAAGTG-1"	-7.90644316645015	1.05169394482248	0.98107945944873	0.494455582959692	-4.20869525485648	1.96868713912173	-0.513667035537687	-0.0268875056231681	0.294533087589625	-0.225917580372208	-0.914714164240709	0.0357632844838467	-3.95236919116447	1.48767451062255	0.755795004752159	0.674012279316039	0.573052498570914	0.937497443140558	0.0156593687312767	0.276944230051647	-0.877379175193554	0.404522326655038	0.452967206305861	-0.90345102482749	0.197735658600233	1.22141209051229	-0.730642096264653	0.521771162851282	-0.126967278788739	-0.166940969271393	0.773211632025878	0.715194745521619	-0.00429910088324933	-1.96348137278605	0.929018959203524	0.442917241433352	1.39650136302877	0.554301351813484	0.331119156785456	-1.59758053998488	-0.0101528210418463	0.721520965370319	1.06243481329217	0.293885583218124	1.3295840152457	0.982419351087635	0.929468901672424	-0.496204312992054	-0.23994006946547	-0.309818611947656
"AACCTTGCATGCTTAG-1"	37.3491965090971	-44.1206394945797	13.8281664732451	-22.145477647565	-12.2349557868837	7.95027670470027	3.95362805908381	0.792488060261144	2.31729702415439	-0.710478468448327	-4.18717342796671	1.87987166793719	10.5311297930432	6.98410629802151	-4.08721618721635	-7.63289581252604	3.71991187099485	-9.98945747898499	-7.15802374894591	3.34591158952156	-0.160720387745894	4.90836043423804	0.151775448744501	13.3444116045457	5.50795595528572	17.2803691430979	-4.65493733298525	-2.88745388889883	4.9811386009766	2.18683917166139	10.4972398048504	15.6444980190471	-11.0559736873449	4.98957901167928	-2.9142936407748	6.35780847591988	2.62212046503599	-3.66704653077118	-4.80378515682066	6.63994282275898	-1.41272234591713	7.38815243675789	11.8095667484866	-9.36662205141466	11.9584794166921	20.9174012747715	2.96150742778754	-6.85863590849648	-3.01391001363371	-4.38067896091054
"AACGACAAGAGCCGCT-1"	-2.47167653168503	-0.437147112015985	-0.051393442245345	-1.07964666362029	4.31242819191572	-0.455823060275337	1.02753698100065	-0.82699571382254	0.689292509809439	0.566870545371515	0.885989293406835	0.48925809159511	0.373510976231534	0.498451101791275	-2.41372556985192	2.7208238787267	4.53029247955948	-2.51002582614419	-1.06399968750237	0.165728698545523	0.359245963465594	0.60509831646416	0.693662738948932	-1.21987297062069	0.515867929165182	-0.172862917959976	-1.59468046825055	-0.999251067531346	-0.380521891025182	-0.566164205693246	-1.45890792609355	-2.1079685974753	-2.67257169889927	0.500271949520505	-0.283896920986133	1.02319195654416	-0.869935574349107	-0.187569266445124	-0.200572704071902	-0.00474635585495637	0.0934822137269173	0.145842707958477	2.12089441523248	1.02675130009723	0.920279580129334	0.714269073353409	0.431836461913748	2.63601009055033	-2.43448409476609	0.101488665722528
"AACGACAAGGATCCGC-1"	-8.89855957337787	2.38676186674926	1.55645833522106	-0.0496779566485925	-4.43768641397633	2.94752142374559	-0.829453593600342	-0.05029228528071	0.422999057379677	4.12726514866782	-4.85494407285416	0.419546615337211	-3.79130891127704	-0.571500409617739	1.07561761598548	-0.337990651458352	-3.08208152468701	-0.67519716401505	2.09503613739127	-0.477755260281684	-0.206524057206594	-0.744522635519489	1.04772802322275	0.949350009509304	-0.160868475627402	-2.37443421629041	1.48816043298193	1.53721076811342	-0.114896708146848	-1.19736416574096	-1.43301572428575	0.148611877763612	-0.0994738240646578	0.593748074052892	2.34590902734604	-0.347741767376237	-1.41594363575579	-0.860869034324843	-4.66008959682428	2.73193240349918	-0.923990029772909	-0.293866688586122	-0.85371477157376	3.2664243313756	0.322894934380504	1.76401158125305	-0.281476818581009	-0.818678299730183	0.786972868331667	-0.0430969038109957
"AACGACAAGGCATTAC-1"	-6.07767925790483	1.47123325216606	-0.481470888838605	0.539182131523496	-3.99078570633163	1.31695316637849	0.641380903700529	-0.312963656268542	-0.145672000862738	-2.36025867612724	1.15736462535765	0.55985093829834	0.346101307739705	0.87036453867779	0.310150011287779	0.949482835153796	0.791836607826285	0.374866122284698	0.0703243961592231	1.96287557199962	-1.58169774203914	0.325873732323409	-0.132351358902638	-0.407909212265339	-0.0302006302918876	-0.885522251768268	-1.4615684223378	0.249956473282518	-1.53211318368439	-0.0560568998101736	0.996547259382764	0.175908332765165	-1.46676148989132	0.185973416651776	1.11901393441767	0.435755657879582	-0.676848377711528	-0.239757332463699	0.392552874604715	1.78660091764773	0.367796313379158	-0.447703747162289	0.756768460718365	0.631493788105107	-1.2757161675353	-1.36847549123425	-0.738251169294447	-0.974203316010914	0.00368128062997909	-0.044032271608608
"AACGCCCAGTAACCAC-1"	-9.59780133164927	2.6410578834881	1.1373467642701	-0.202668394700769	-3.31109307016763	2.43027055641122	-0.298055394021613	0.474835181013661	0.379778330480117	1.94055627844116	-3.65946168209356	0.0301794682663754	-0.130655774555207	0.270328413340276	0.0935584085659413	0.828684842685983	-1.1289306089223	1.78989127544037	0.209217950418759	-1.10500383029627	-0.74265945536631	-0.536024507674984	1.72880464425012	1.61655359403135	-0.0376118954431376	-0.118045435249588	1.50573762400327	1.79648429642831	-0.666997412037959	0.29956344071635	0.0308324150944353	-0.698805454765218	0.522592596897018	-2.83529038767719	3.58968915869619	2.06579153479601	0.00291396717415588	3.05321510461637	-0.223486801956804	-2.22095988290801	0.162738997784369	0.43273391868115	2.37385960224193	2.00416873305764	1.53849650777108	-0.257827829879532	-0.65981482766825	-0.620937070770235	0.181928167642684	-0.330374745320326
"AACTAGCTCAAACCGT-1"	22.4921385738775	-3.0817348043334	-63.7052918914306	-10.365240357705	2.42907073074195	-5.47005579451689	4.37038073407305	-71.3580651729292	12.0194733850386	1.9418104401579	-4.07764033970466	30.0944572798037	-0.98341308659018	-6.66385237717236	4.9649539916869	7.14124354024102	-2.06216887744754	5.42576022768671	1.03900712791051	-0.804822017467327	0.144836628543927	2.92952283494447	4.04661911192438	9.40389573452312	5.41561932293787	0.164363272530054	-2.06906330441365	-6.12631752039824	-0.788081720502582	-2.86477065286772	-1.41345927828376	4.03643154241136	5.19297653950038	2.52330827650461	-5.07367966778618	-1.62985151129165	0.6526116746878	11.0623752868918	1.95124395737364	4.29877942598282	5.62836596542589	8.90210258705478	4.43606663321509	-6.71090969891794	-6.7758074160028	1.35996301839666	6.72418751302539	-8.50446573967472	7.4700440008257	-4.18763258600731
"AACTAGCTCTTTGACT-1"	-6.5354218611434	0.338127271995692	1.80410604315206	2.10392279644114	-4.8477954086385	1.20230147682395	-1.59200879263853	1.16576376051951	0.55007805106359	2.11774269970007	-4.50702238993969	0.380611023232289	-8.08252236240751	3.63164850293098	-0.501565097306827	-2.23524757128995	0.928597096393008	1.17874905204993	0.30466898339982	0.50060282439221	0.398866399846673	0.0748626966814644	0.410482664165492	-0.291153980150431	-0.93486079451754	0.325501004167013	2.59122380977332	-1.30853272670216	-0.772129633292906	-2.03591908899317	-1.65447253166005	0.937535538052175	1.07246743107196	-0.68938230971511	0.435972629552028	-0.890112571118424	1.06776372276543	-0.131715339351953	-3.65391403044942	0.403985172674589	-0.661958654201917	-0.14186844078829	-0.72975397787496	-0.94445265817152	-0.00856196655792679	1.1433518457114	-1.95517594106529	0.553040467280548	-1.08387114649172	-1.1687128301072
"AACTAGTGTACAATGT-1"	-4.12060984975208	1.95974142612867	-0.372149749396261	-0.391525460161358	-2.99588777221782	0.615925067536447	-0.0598072454249599	-1.00704392306044	0.657351589627637	-2.55526258572564	1.72268589656545	-1.27164315176284	-1.77595077212145	0.96595697685442	-2.85216205949378	-1.14240128389998	0.0294267416306929	-1.26737986510406	-0.357020415752997	0.59125464166522	-0.830260309196704	0.725890502395017	-0.596701080706668	-0.642619135716585	-0.245826589607345	0.261168262655455	-0.000362142974406002	0.353685240129772	-0.733051510912683	-0.133984411309092	-0.190180894218495	-1.31409747341863	1.04414440781742	-0.554955113079639	1.17157805989673	0.00354894187302785	0.0500126595694876	-0.987404956873245	-0.457969878879009	0.131280972741433	-1.53220981876651	0.804124699408176	0.313027622289665	-0.00683083575119016	0.292625586571242	0.353025628949405	0.421553699285107	-0.450161225355957	-0.729990574751938	1.4745785218613
"AACTAGTGTTTAACCC-1"	-5.17047551498901	-0.569760894060294	0.636633260893898	-1.98302752150338	16.9874303106113	-5.26026135732143	0.419557872347196	1.7764574033111	0.495033961566208	2.63995713059917	-2.572511163224	-0.107926272273302	0.185679158192152	0.123211150380625	-1.48151228749924	1.11314165836424	2.68279044566511	-1.24959254463319	0.58236554176374	-0.836470933898922	0.908605185151515	1.92141067839483	0.723258030397901	1.09570812120019	3.03352416958111	-0.134891456363662	0.323330848326567	0.759587033499918	0.168642028985242	-0.617035196668436	1.37589897749103	-0.0939888828144481	1.54829947568886	0.982672463300436	-1.01369176517306	-1.13619029396827	-0.663292504192902	-0.483563929639602	0.279367399020563	-1.04573247897187	1.52969406532036	-1.16146786457481	0.345594009725973	-1.85854409128579	0.410636507872049	-1.94852987995187	0.773607376724701	-1.48536383681028	-2.45834474381426	-0.916852193188255
"AACTCACAGCCTGTTC-1"	-2.64485859468883	0.580196548699963	-0.862119012217332	0.797316251354614	-2.58140919773681	1.0159724643058	-0.254806412510713	0.0423152311751948	-2.50726977481064	-2.5788879615793	1.06809353160374	0.106358808340835	-0.974996731944405	2.12217180378505	-0.0240864990792273	-0.017459868741368	1.4235237027792	-1.42886815000907	-0.96273157205185	0.292960501407037	-0.514373575230023	0.448080518322842	1.66157155402244	0.521011916375406	-0.698356466583653	-0.971688370861064	-0.481600486800423	-1.61647828666341	-0.15153193400104	2.01097632782731	-0.0951728658566997	-1.52557376173808	-1.34243784131858	1.00181394688251	0.370069321946912	-0.1015454128864	-0.385715440814807	-0.320785969752561	0.420875698634132	-0.460755748830012	-0.879013117811122	0.0713048074726573	-2.06731428988262	0.396182415291661	0.0351131558149976	0.0808908391372038	-0.0588776858908769	-0.632417832491726	-0.473636287151329	-0.46364649865672
"AACTCACAGGATCCGC-1"	22.5335018376946	-9.02263881176839	6.7281262937823	38.1382653455565	-22.7157072858999	-50.472359856889	16.7229932553266	0.174835292887604	-1.32259742240489	4.1111422098663	-4.42754682862305	-1.56514068610059	0.182246178994113	-1.73733075471834	-2.31847058166632	1.67072654038304	-3.12290098478878	-0.913503966279466	-2.18536007856853	1.18922104513914	5.75578683002953	-3.07468263722833	-2.66361853092405	-6.9683271894239	9.31503300326845	5.03012992058394	10.6433051821161	-10.195386782514	3.74784006793726	4.74137902698143	3.10236051253069	-6.31323929671785	3.57056999632467	6.75836359113117	0.118517775498016	-7.68180987748538	-0.781393090655208	7.85420681490991	-0.118770251135008	1.29820020130157	-2.90659562641848	1.04171992637659	-1.55136991435227	2.51486950274176	-1.78577279462877	0.405482637931385	-1.76132932797599	0.848329834037672	2.98669785862198	-4.55130325079184
"AACTCACAGTAACCCG-1"	-0.0674699629543774	-0.87591557768695	-0.905507478744274	-1.99360652872162	7.9125848644087	-2.82493631405403	-0.348453082248733	1.19822033270365	0.239532753046137	-1.4507493746138	0.823929708134904	-0.458380145614019	-0.335054114764553	-0.448470700399752	-0.391545091044974	-0.148182189976907	-0.291998100762261	0.292942604455401	-0.410790987948784	-1.03546683857042	0.456291750279054	-0.64641057472892	-1.91624872483007	1.03612411585817	2.65686484479368	-1.41652822551136	-1.16514565540705	-1.26908818862699	-1.12121871773308	-2.54645752781568	1.86207374117988	-1.62878123027553	2.33737010511819	-1.30780358235912	-0.239074245807971	-1.78864694836833	-3.61867024783814	-0.819485196770053	-3.30089326491133	-0.0342896936356241	1.04265314266458	1.25515893368855	-0.730946790635525	-0.787181092353548	-0.749094691330143	0.69927678847838	0.630086708186739	4.21190150059889	-2.76275570287217	-0.862720461405447
"AACTTAGTCAAGTGTC-1"	-5.2530604025262	2.75614387035417	0.0722921943886652	-0.598471772836044	-2.63348024182325	2.12296629470235	0.353963555203094	-0.187770546701473	-0.234789095759569	-1.80458006285605	2.09101562351956	0.54001863408903	1.47214222686233	-0.480230291417851	0.336459531765435	0.95659592201136	-0.34739606639804	-1.2173225790561	-0.285210477949793	0.761842378104881	-0.24633743767775	-0.329788617223788	-0.061921519430029	-0.216239746241582	0.496936056256597	0.281799524896235	0.694935559357193	-0.83861207143124	-1.50303056925884	0.662283715148315	-0.210938573636347	-0.936487846756512	0.274322863069643	0.480060584540515	-0.799244796109947	-0.515514422610621	0.762030403939688	-0.839923982020639	0.228883967362515	-0.270483976585835	0.9293044202669	0.210167625878093	0.820913732586971	0.362735519639271	-0.313875241289487	-0.134414613269876	0.126643719229944	0.164522645854894	0.724927999302289	0.774220709883676
"AACTTAGTCATTGTCT-1"	-6.75113971775375	1.5001221800228	-0.201593737867857	0.169665754659053	-1.995150271247	1.01325514039866	0.108566441818089	-0.342566077242275	-0.666773548952008	-2.37855403101651	1.18082698133005	0.0255794796179283	0.610522225224903	0.763004634773969	0.258389924923849	0.34286340999661	0.252018466654493	0.0694048882451682	0.585690120071963	-0.22434966426352	-0.282481525352403	0.709295116667211	0.512627894957709	-0.510127600574273	-0.377232944070502	0.560620592901215	0.0639976822626518	1.02056540472575	-0.842472846635489	0.794881100256286	-0.0369486466653024	0.514840549810027	-0.145112603146422	0.190667582441169	0.519641758185426	0.219239205559163	1.06801775359878	0.444526164187748	-0.757448472597463	1.43550907246982	-0.536090808816633	0.467409050821004	0.216995274802639	0.0147182902805049	-0.444451090977462	0.323116096018132	0.815717188147401	-0.0156795119746856	-0.0392222700349226	-0.201081131347927
"AACTTAGTCTAAGTCA-1"	-3.6318430675942	-1.072673285787	-0.0476573545772745	-2.18461541903804	15.0970976660429	-6.77702219894802	0.533623464424846	2.43839064005836	0.199721344111926	6.20512354374706	-4.10118513666059	-0.257848488515441	3.02942118346623	-2.56342452208103	-2.07911112711492	2.340409364853	0.703057383060178	-1.59079403125906	-2.40057470098186	-1.17582464655369	1.17727057987076	2.02564760328767	3.17890380559474	0.190967821179912	-1.6821888597685	1.82048883809286	0.596334024745437	-0.301354924689418	-0.922681648626396	0.09415935056038	0.476444728972988	1.10203161983923	0.22486781454757	-1.09277336217708	1.88812681170336	1.73778946660384	0.394155632762167	2.55073266729101	0.909083518376456	-1.61243993139881	-0.0736084769291125	0.688837657958876	2.85863220785695	-0.675200561478	0.277892049987746	0.615033034034161	-1.65026871006956	0.933943198725644	2.25942599361708	3.74532120886828
"AAGACATAGAAAGGAA-1"	-6.15454763585601	0.957324334368047	0.830851265737249	-1.50578410921979	10.7140696286427	-4.10369403337801	0.566154047816745	0.610315616224718	0.306957731395823	1.23855257001739	-1.56498156238171	-0.0517341387158947	1.60554080088042	-0.580899238741294	1.07860005757336	1.8867470884141	-0.0139073920315995	-1.40677633032686	-0.137038633821388	-0.946742773417873	-0.731519254667257	0.348576587739024	0.689340163161157	1.15760894868155	0.85195042215182	-0.836516793752892	2.13341857858741	1.57633168401877	-0.650541207465119	-0.498926324976622	-0.412921210754634	-1.34475485181816	0.270782039348704	-1.33441511338392	2.45754717919743	0.351100152635818	0.420526605266974	-0.706159952182001	-0.856396324483528	-1.44480859103057	-0.847473500596128	-0.620984985784014	-0.357839176372252	1.39563619013975	1.04816375627144	-0.480179772144161	-1.31957446090066	0.127847929376729	0.354638201873315	-1.18700620318503
"AAGACATAGCGAAGTA-1"	-5.90454877770395	1.14183253661897	0.675612305846265	-0.269867978089011	-3.43549499851958	3.14183075815334	-0.274452184618273	-0.439382171991551	-0.991108939823296	-2.11268146176267	0.945096044169291	0.488689808712158	1.04494863661299	-0.592387665160138	0.359872088474073	0.114902492214187	-0.755552860242481	0.39265762665289	0.295990505931721	-0.163399671755267	0.0534806605835387	-0.265401760828692	-1.175595792358	-0.397929191676697	0.101860159642551	0.0626116130697403	0.573183871573737	1.13378886305176	0.34637981192662	-0.291358006860874	-0.507000853531243	-0.0478818391004442	-0.0546110248111689	-0.697668266168102	0.237787708244982	0.769268429633421	-0.686327990970304	1.05224683347546	0.549600970469781	0.175133724329777	-0.474863608680031	-0.368009491668415	0.902967727687366	1.07246314746138	1.18713032804171	0.493195169153452	-0.997985874446675	0.0446413303616272	0.623380612922364	-0.264320755349459
"AAGACATAGGATTGAG-1"	48.5335795996573	-47.9834553902624	17.4750292715971	-15.1141937742735	-7.79216984340934	-0.0928868202510559	-3.05913560706048	-1.24869980449537	2.01262710634085	26.4803598640601	11.8673255897748	2.17724579578866	10.2756791050902	19.5288215535108	19.3757414872448	-10.6990331265994	-1.90078350868143	-8.37317053982058	0.803841792535108	-1.15640076765106	4.56790936870498	6.64063196489795	-0.810915373493199	-4.86705459901573	12.6337188487232	-2.60663295523649	-8.91461337311196	-2.34768596804543	0.934031414308685	-5.77767240048971	-0.0335085456653756	-11.7562951779085	7.77359484816087	-7.29523220882916	-6.78469748321593	16.2342401354426	-2.91984686659375	3.70905111088261	0.85891607596563	5.33173747348385	13.6731436445251	-3.01662969223577	4.88688199642747	8.7786032823067	-1.95948107390048	-3.54367902131622	-6.30414463352389	11.5971740312993	3.84184957248985	8.82944841640951
"AAGCAAGTCAAACCGT-1"	-4.75229161564924	-1.1803160405922	1.68983082084165	-3.37744119100645	13.1678378718195	-5.02675860427101	-0.241055943765355	1.4484197644922	0.90994519259406	2.47439900282668	-2.14631774096994	-0.385483728098439	3.3035189730288	-1.79045150173451	0.190625130634636	3.05517574281585	3.6228593203711	-1.51383932769777	-1.46094039901915	0.131291696567895	1.44755136316783	0.592842967489759	1.23669109940641	-1.03030634103241	0.80110199013324	0.231435422492988	1.01306045264455	-1.88899597708998	1.36358218555142	-1.54817984518801	0.700640239115518	-0.166865888283864	-0.627382937651382	-0.00975279729558111	-1.0129521402801	0.046383914395099	-1.20303012250867	-2.31528356925733	1.95361046592797	-1.42529808379176	-0.407120888519623	-1.6497424602075	-0.651097717913729	-1.07991910704028	-0.229713572878918	-0.264514268382049	-1.30284458276342	-2.51097699834591	-0.584463151069787	-0.457440469194137
"AAGCAAGTCACAAGCT-1"	4.81622047605804	1.43512626493289	-16.6532074212652	-2.21534982386425	-2.81067467645156	-0.184908951604006	0.268949121967931	0.0369322067911609	-13.5173383871491	0.142353007342276	1.07321239212849	-1.07276281594184	0.014544927553714	1.20281240676804	-0.73767110831688	-0.62476305267364	0.898523915240139	-1.37617685858493	-2.8540421221843	-0.036590918585127	-0.139050665347543	-1.57006568282166	2.35935883788143	-0.247200407327738	-0.33449669524998	0.959486496520674	-3.14151997982898	-1.7321039173175	-3.36289118202869	0.818537971993973	4.03079109409197	1.95700792657932	1.1222507918097	2.97943364643886	-1.99945167339049	2.83218656573544	3.23970617937417	-2.97651328970021	-2.79466980306679	0.605164615410727	-1.2260871891867	-5.52279070658437	0.12450664610772	-3.74884056468992	2.17001051939034	-5.35026698410091	-1.12191290813411	-0.254203405249095	0.118834456858835	-0.21452026804801
"AAGCATGAGGTGCTGC-1"	58.442256421389	54.6597014544647	15.1255154813697	-18.8392371585084	-7.78636541535735	-2.6859715098881	3.07618933160559	-1.6265320860138	1.20143866768683	3.25665237347437	-0.988551753244688	-1.40938622988002	2.18508584557924	-1.63995385141869	-2.64482026392258	3.5232551906609	-4.89437952317145	-1.36310617419377	4.38850919071991	13.8971136119165	3.86566187975129	2.45285622268841	-5.81825321035347	-2.8063970365193	-1.50350290999333	-9.30384939346327	0.0955025072890043	-6.31259511025898	1.20113508944066	3.39627730966862	-0.274253262346232	5.58388935275818	-5.43175825152885	1.15743287266941	-1.58449000073068	4.998378870395	-0.321581850722536	-2.49965209834761	-3.89240576690876	-6.81090063121955	5.12926415651015	-1.03843842095206	3.74501104789629	-6.46966316296418	0.0946908547336412	2.5557907726423	3.25509005177441	4.42506796123745	1.07175281112135	-2.85174980021697
"AAGCCACGTGAGAAAC-1"	-4.40616250213341	1.1242955677158	-0.308178470187547	0.0582911812204176	-2.89647344349207	1.88177910049965	-0.460308347517283	-1.19632184017004	0.0385207324670933	-1.60132477640548	0.646787163782948	-0.00643101853061938	0.230297895144868	0.275745444172405	0.553001383737803	-0.714979823826279	0.880578914679798	-0.667962616637295	-0.183723221606826	-0.027938609836791	-0.948401370275013	0.297898395870196	0.175254824725077	0.301073480872425	0.0687679614579977	0.448210541138725	-0.204997392299319	0.0283660845821258	0.197326238082726	0.485128319385132	-0.36052874416075	-0.467360517648753	-1.61228182916925	0.262971716094558	-0.0625578164971077	0.476243679395573	1.64220527007365	-0.0790208093093936	0.258437347258259	0.239765142101549	-0.234743262949985	0.587610488707937	1.22310705634603	-0.366062561828932	-0.290668570226598	-0.0461577723040869	0.348934358488055	0.0271173025275528	-0.007671531879047	0.0920105911183168
"AAGCCACGTTATTGCC-1"	-5.32604430570192	2.02485590678519	0.0437558710787488	1.89368498686309	-4.68407920080512	1.42876490711011	-0.0184190231926259	0.589579086402873	-1.1130893740116	0.786148764501706	-2.42434150877865	0.309214354125014	-6.54170313333566	2.51015445763899	1.28773526349168	-1.0339614842317	0.54386357147084	-0.964379734266541	-0.328789924029946	0.676545135231944	-1.51766028183664	0.357631596582559	-1.43074854811945	-1.73494657758888	1.8361695104757	-0.441626116517276	-2.71056060430897	-0.136955758792638	-0.819804939531042	0.42026979637097	0.577052189813873	0.829281657844468	-1.9189573285361	0.148463781281745	-0.215901053444531	0.219886313661698	-1.25459927136831	0.370039163839311	0.316299946136586	0.667712673004309	0.238498846733532	-1.73091017061017	-0.922941813088187	-1.26046640519663	-0.0339266503404031	-0.641224352735639	-1.1402993222827	-1.23700795752356	-0.631121528908758	1.04723172508307
"AAGCCTCCAAGGGTTG-1"	-8.58543515182052	2.14594201923543	0.923516751627913	1.57973334804506	-4.99806459338645	1.0901174199656	0.0124604651939792	0.291523871706468	-0.12451137091214	-1.06931318858599	-1.32489404095819	0.0207951610627796	-2.37760083207364	1.24281486433386	0.843020653867154	0.0315841696311138	-0.464526079966923	-0.78853834927496	-0.0641163767812966	0.488724717244116	-0.223829012009135	-0.723221807097797	-0.0619539579349292	-0.230162678219929	1.2143006651567	0.167185802537916	0.256126177329046	-1.63451716650421	0.400803221398727	-0.498563326658721	-1.19406737779898	-0.611311457629899	1.84647873327803	-0.984100119535346	-0.0614550576174518	-0.0245876031199355	0.338193319168879	0.229997797153089	1.04073864246945	0.318986763159521	-0.641470608914603	-0.179290404498844	-1.30556251918248	-0.216361965592822	-0.488388176053293	0.112198080309383	-0.760161977154959	0.368528239912775	1.00028134694184	-0.259047027370424
"AAGCCTCCAGCTAATT-1"	-8.09466060748747	2.52031017240228	0.850882272825096	0.679767739709952	-3.79529796061104	3.79974527820774	-0.739620252241406	0.208010587250762	0.206394709143541	1.09439301155964	0.0870715291207987	-0.162638428699699	3.93371406341539	-1.00650811368633	-0.313723118643853	1.26560571634339	-1.94122284614407	2.14992718182602	0.917009979102452	0.00424380178640325	0.621369217839893	0.880849967664169	0.206051473826513	-0.0380961847963853	-0.25968636580813	-0.680828755365534	2.41104296045313	0.456394346251296	1.46660215367527	-0.242354938500709	-0.181589777598187	0.2988118631099	1.96478601696857	1.24250233041478	0.0355071579800252	0.405749921596041	-1.32306249346644	-0.74762479828265	1.0832267110568	0.784004545654299	-0.117407774067497	1.09400732906002	-0.61394795670167	-1.34631281230536	-0.877972111053753	0.0320659973303849	0.706049841320288	-1.5688063755232	0.198538825639093	-0.198133981038986
"AAGCCTGTCTTGACCC-1"	-3.25845679928657	-1.44818855351067	1.23215757024923	-3.74897236044837	13.9203657545014	-5.67249132216083	0.1552959003177	1.80211125052534	1.13325882309885	3.98359955915701	-1.20099387938747	0.330889183526504	4.50519831465339	-1.26320854100814	-0.352661012770094	5.20312502796586	3.31252750805619	-3.15380871034875	-2.02794286668657	-1.47966123019404	0.461081982396018	2.63170740711175	2.54954992819866	-0.0700182329988034	0.279797238970937	0.416485591282142	-0.346942802928103	-2.62066424539939	0.33068149136038	-0.644451219742754	-2.25607555165148	-1.55377343748542	-0.873923973775906	-0.126803257785061	-0.771140522841837	0.590704775478424	0.576690573484787	-1.6760754343082	2.56775910749349	1.3590247498207	0.180768708441199	-0.707621889716809	-0.78649630956939	0.262526210387295	-0.570777271796116	-0.423293540667167	-0.478369730798043	-0.302184230650134	-0.248790708605433	0.170039782281849
"AAGCCTTAGGAGCATA-1"	-9.17051464024695	2.40482947407627	0.395534174696107	1.33120342879576	-4.03610615208343	2.64628188394277	0.187556218633277	0.152303674600209	0.0970998179540853	0.65571466259992	-0.714429810636239	-0.612972430981619	2.06734113195829	-1.72187762325883	0.738624994730306	0.908707701209633	-1.38788758457928	0.567614627766157	0.301184443251103	-0.531650474333465	0.616426361954329	-0.840465940861661	0.393127326675988	1.28119132046756	-0.537253626311341	-0.228920720737827	0.333419628209973	-0.444821449819409	0.280245894552726	-0.162867666120345	0.752557551454866	-0.75890844435453	0.016093980561667	-1.75522276581235	0.601535478680526	0.746789471738053	-0.443508306913262	1.12321055010777	0.665871930498487	-0.168127405756206	-0.0649959556292524	0.958736895361644	-0.316971079233075	-1.0587198650664	0.780828240591822	-1.39519133124836	0.279202934210785	-0.223359972836157	1.71424430171033	0.134064203102103
"AAGCCTTAGTAGCGGG-1"	-5.80247687230201	1.73586032917011	-0.673872764109266	0.733373219496687	-3.13078076476603	1.92328146907677	-0.124939881393655	-0.0497978737525773	-0.113542309747938	-2.66651429834105	1.53514188672345	0.54179394767338	-0.384220153881619	-0.284730464404707	-0.562696739314534	-1.04978260685098	-0.54320275932514	-1.18187325235022	-0.0155194439312533	-0.12453495014506	-1.29156193377177	-0.0644697068132924	-0.704442951196147	-0.590113398518558	1.39930575851519	-0.306886434730996	0.0499665572512703	0.35647835247041	-0.576077943488239	0.0826412824899396	-2.12117107211971	-0.434958450530866	0.723869328702405	0.00663924703622465	0.400566063340652	-0.830421115866787	-0.279094588095235	-1.0599020363626	-0.641954392347339	0.517110271296487	-1.05804547467653	0.511122987613122	-0.154171095194577	-0.27320609046892	0.0743115104443355	-0.219733147994192	-0.753303130302385	-1.12947379206776	0.184680284475863	0.188610197489371
"AAGCCTTAGTTTGGGT-1"	-4.88849743246781	-0.667294811045823	0.82033613864912	-0.359215426283564	-1.36337349029014	1.57367035442805	0.986431670814911	-0.0157317276447153	0.209141274732681	-2.03416687686611	2.55209435255995	-0.601397759774504	0.813021839632955	-0.868047813240631	-1.36315149253998	-2.84642744883085	1.06643440727781	-0.70926486190216	0.994595250816805	-0.487170093172501	-0.523639342809176	0.595934113906472	0.719467756357969	-1.10428285243531	1.48167066914216	-0.140956955518581	-0.67769790696533	0.591964052542421	0.0208541969692304	-0.609475424867653	1.05994996644236	-0.433303957536223	-0.101033420130658	-0.289376899381836	-0.989413175668016	-2.11733644613124	1.06648407233808	-0.612896679967861	0.592293449898907	0.489880884708772	0.591431929298371	-1.08172419892119	-0.546407604193987	0.675149703387844	-1.36055812852638	-0.459438015862899	0.760088624048143	-0.109689734246148	-0.133348243361427	0.233754974088787
"AAGCGCTGTCATAAGT-1"	-5.42392870561678	0.911379501740244	-0.889542125878518	0.0980168656599603	3.50326618668014	-0.871461537554983	-1.93888570733583	-0.0249091662392113	0.566387039165206	-0.34173917032688	-0.600660413319238	-0.89178139854864	-3.10204732825536	2.45635272915149	-0.645269234048822	0.466046860775747	2.13683173504542	-1.22053565463346	-0.521982552518896	1.66265752518698	-2.71037149200911	0.215107433901835	0.174291436541032	1.67326836304006	2.48273977068472	0.91237288928081	-1.53070121713899	-0.266624614695003	-3.62274963592289	1.17243392198588	-0.166888658370337	1.14438513125936	-0.844218241955673	-1.11151058078804	0.191761234149551	-0.015173519402717	1.17014866257955	-1.77723902427719	-1.85188799295288	-0.860669112877515	0.764184607276661	-0.177473883898535	-0.910033429198417	-1.69048939806192	-0.273780267400384	0.903117913960135	0.3628128526115	0.0789057176935366	-1.91758306193482	-1.10626312152893
"AAGCGCTGTGTTTGTC-1"	-6.34163671789899	1.41101000956522	0.0924551327420348	0.73827185437251	-3.27744162012237	2.76224910722073	0.318626672465514	-0.479979573548481	0.0398526346607386	-0.900078552386462	0.418380140278	-0.711710209058107	-1.73569320634681	1.11767211489107	-0.184086105255734	-0.748333160466931	0.117522370460884	-0.256009003600808	-0.577636616266607	0.148398533864263	-0.56384377242231	0.0469678790122206	-0.524687061504698	-1.26159005686074	0.607051351176748	-0.79437451851396	-0.825027778939864	-0.057425403802882	-0.623293487569442	-1.00417953441601	-0.112043632947003	-0.669168058826327	0.365897534041895	0.12827656407454	-0.625549463527839	-0.50672170506031	-0.109994839805572	-1.16872661630548	-0.531670713933859	0.639259617221794	-0.101916979998524	-2.47518558091744	-1.45411012091331	1.29477022532067	-0.523979849006737	-0.323518168779352	-0.518787298291262	-1.12607474717846	0.394023985320888	-0.237943878925061
"AAGCGCTGTTTATCTG-1"	-8.85374391989601	1.55400387069583	0.51943661065785	0.36844221728178	-4.20365038543613	2.16059780326013	0.548138140142564	-0.21604230713577	-0.422182686830264	-1.36117583263232	1.48030842453426	0.243987079529625	2.3733855342834	-0.800479371098924	-0.129210624644355	1.22184809427066	-0.860010067440269	0.252982389864055	0.159919444188639	0.346317269056158	-0.31801385625141	0.312913317236248	0.0637129830695342	0.303633954612015	1.10267154953228	-0.181118542880269	0.934825747491128	-0.428385987632161	-0.70027535866561	0.148557499613665	-0.0651887784835549	-1.27269516758014	-0.133956911652804	-0.705047212538044	0.153413594207831	0.379682730168158	-1.08786344241081	-0.155860689359305	-0.638213988468956	0.087868525377583	-0.291765075731994	0.516082632469842	0.832070033330465	1.81030930824041	0.0324300289205904	-0.411760568407562	0.82999787457878	-0.0699993513796064	-0.660387148643115	-0.0381964480778018
"AAGCGTTTCATTGTCT-1"	-9.7192501208953	3.17498932307926	1.84876195830346	-0.527494962410954	-4.82575777597877	2.37621722469674	-0.359278792847907	0.756849678039512	-1.33899260289654	3.56236864140652	-1.91593208207197	-0.299301533032636	1.33315454452333	-1.8198301621786	0.467130867718221	0.604013881164151	-0.840358794890587	2.12937960048244	0.608595388313553	-0.934707452479673	0.131700591288085	0.246412206093139	0.454721377058748	-0.193581781290242	-1.54503364469061	0.109993495300194	-0.128001275453262	1.36735916878485	-0.0743218503102665	0.313573938519817	-0.0258634404417419	0.700383098958705	1.00458991769412	-0.360040546450351	0.799930312803087	-0.553064257791651	-0.948483723473464	0.212937301378917	-3.08461833656721	1.60759210030265	-0.878911889155397	2.16155120771842	1.9831768889055	0.335806240226973	1.93987543289761	0.688809770023021	0.690595484758631	-1.01267820605684	-0.519908689378698	1.53211067434433
"AAGCGTTTCCGCATGA-1"	-3.20862405170473	0.990500893124629	0.19843074654125	0.132057929063818	-2.31331122992065	0.42857068052736	0.131405285825205	-0.36628926933753	-0.179591369871961	-3.37568011687436	2.2434816765389	0.13784215349539	-1.58175701389002	0.438966768823634	-0.610751856386256	-1.87769266723532	1.96690766803255	-1.65290693788674	-0.14505670126359	0.746399768625701	-0.312691489268347	0.484237582256339	0.194658786807157	-1.33436007815501	1.15422156354312	-0.06366039735855	-0.954483151067811	1.2434583103581	-0.41707409146221	0.758176851497063	-0.878573883603573	-0.24729670155146	0.709784664088288	1.62360142214328	-1.3130678540493	-0.661717530573698	-0.0925470721735552	0.411864907476695	0.428753963750624	0.33209868099279	-0.603243681172958	-0.557550914437971	1.32652983187571	1.40664375054861	-0.0867766635151835	0.00535278262796031	-0.274422504240371	-0.143375603789285	1.17690364754186	0.118898987167839
"AAGCGTTTCCTAATGA-1"	-2.00591853718788	-0.556817778068136	-0.525825871468849	0.301497569910716	-2.58881555831865	-0.713803420707638	0.387849799520722	0.304982305161305	-1.18914028598401	-2.83747231464406	2.28234055863813	0.00539281573980892	0.602969873116149	0.636918460670816	-1.16429436538761	-0.0748624369061874	0.213041588182583	0.300624989938085	0.0393637961142073	0.60566420069557	-0.321925165680055	-1.08215950042972	-0.941543734151629	-0.294698250859426	-0.843902005914574	-0.0355706603892744	-0.502488115247241	-0.386697747117618	1.65827990047913	1.49085955574455	0.410823251290136	0.484471822628264	-0.790246248160003	0.135809445691509	1.04353924794968	1.5927627165185	-1.48496639952712	0.550858937550253	0.971176150077145	0.200678387485645	-0.735774185138994	0.802555854136844	0.377871571268015	1.02299366471621	-1.7103288902099	0.437280996454695	-0.553703208130103	1.19201078646019	0.634345870759297	-1.14530863836537
"AAGCTAGAGCGATAGA-1"	-5.94181276425619	1.67681018470885	1.40179446659302	-0.608095192676456	2.54826599396906	-1.5535492110812	0.980653429827558	0.543632657704194	0.343745706578788	4.47861897127242	-3.1402524806421	0.387210312502174	1.4431715849602	-0.372380556799285	-1.32161215239748	0.850490889409756	1.39487532779875	-1.24139135728768	0.146499431443394	-0.910330221248795	1.96118748000273	0.06119492776917	0.45836223274902	-0.225808785785914	0.0761154857254389	-0.117003187352137	-2.70936591550928	-0.821947289219581	0.93631395323412	-1.67824383546771	-0.840314632174492	-0.262609064509002	-1.00312112205452	0.943458532862596	0.980565060929433	-0.992440237998715	-1.46531597545169	-2.0368777394941	0.0588241310676853	0.359631031338442	0.878412204424289	-0.283294642496452	-2.48634174392854	1.86230983347554	-1.13503684482658	0.52570788373976	0.049543728126396	0.332777496108895	-0.136983144901733	-0.671486690601914
"AAGCTAGAGCTCATAA-1"	-5.9593862131284	1.35942629746296	-0.133376922496531	0.881193549939281	-3.74251135829516	2.73561814941004	-0.148477845778404	0.0971120647505399	0.139638161763037	-2.11156214875155	0.377938701594367	0.690302218282427	-0.340826342445635	0.402866500745538	0.41539440290265	0.530777583101528	0.631596446482947	-0.545543592059947	0.798511950056761	-0.216700239637767	-0.821893306544892	0.707408596788384	-0.188635603062131	1.12395915117129	1.07964044576579	-0.406258436698238	-0.941798275404728	-0.905784366926941	-0.293163214625251	-0.523639449443248	1.19830108614708	0.490468368534247	-0.092752437240575	0.923958058655967	0.355114747192381	0.739845417332933	0.288483124941095	0.285008830806529	1.21280862358629	0.432105027445349	0.477053446394339	0.643526845950321	0.883119810017191	-0.410153964229802	-0.0826330952635167	0.397491286046098	-0.0774755673254826	0.621048650132148	0.33551432677014	0.00737952357382857
"AAGCTAGAGTCATGCG-1"	-5.89045849926635	-0.354044028219471	1.62370798254834	0.0311257936252172	0.573480782357897	-3.34534303329446	-0.0584275779735152	0.758970795285186	0.689185181627583	4.06312755485139	-5.87396623338051	-0.0679398910913851	-8.2752699792931	4.90752793629275	1.53008762366835	-0.845227848745329	-4.36156325789522	2.90265186093595	1.9114093270881	1.38836984847099	0.90003042783917	-0.79414502413052	-1.2475051628523	-1.16090975362606	-1.12569095235847	0.873655788191554	-3.9378265375983	-0.881209829838061	0.706926447097658	-1.63938377076715	2.81867662479542	2.16106134526726	1.00229470199943	1.0418114282279	-4.05932071627836	0.0364161228434235	-0.848970747178259	-1.43054778394257	3.60778124939177	-0.666369661687347	1.88013867209758	0.388497655187555	-1.72117924516804	-1.02363776423492	-0.978935467381823	0.384536002965767	-1.13940257128173	3.12034025424288	0.166045563944289	-0.770807558827581
"AAGCTATGTACTGATG-1"	61.2608206049228	62.8630428464693	14.9807642584966	-25.4602560883232	-8.04795942530094	-3.73818052547904	5.91599879455615	-0.334783745467988	0.24644888350307	-0.757347944791753	0.494700041782708	0.0856152749787646	-3.90801611829277	3.55050629030523	0.664761160791592	-0.562335681592583	-0.49545013033898	4.32588666222131	-2.54236178050005	-18.6287129028684	-3.9034336721437	-5.81061227962744	12.8671845066122	-0.00594838175934566	5.06135565014456	4.7353751477921	0.768159570861608	-1.20923914987748	-1.67206709937702	0.882253152914046	-5.3875348214617	-6.88300450345619	-2.29679137681171	-2.149766801694	1.22075005952308	-2.14822338346972	-6.36273844498148	2.93831527275508	1.09255130517841	-4.4507810301536	3.14444139612018	-0.532278616638138	-4.47494563978439	-2.08801528107469	-0.490393610542913	0.494271491557874	1.15598828005467	2.25062497597008	1.20457616230029	-5.3859979207295
"AAGCTATGTCAGGAAG-1"	-0.69268543629814	-0.785025443353902	0.543045918350108	-3.42245449441451	18.3048987770896	-7.88662036347463	1.36580883336789	0.932169942831819	-0.353674706220817	-4.10211459801621	1.52772404711571	0.0533304654705288	-0.631736699714982	1.61214269444382	3.359207410665	5.00439592876085	0.684777547496189	-1.23008591301757	0.875407405793862	-1.19947518606961	0.0790986295460525	1.84425441874941	-0.63272835827279	0.0383919884788363	3.45560254375272	-1.33165209801555	1.56491126613939	2.87175152604237	-1.56001901623244	0.943733061783293	0.443499148359609	-1.09107978224541	1.29262410552021	0.657450249421988	-0.00817424427306709	-1.69981524184626	1.08825278426516	-2.29307963275407	-0.420500174902304	-2.06793031682387	0.685487377203793	0.420369590676705	-1.93485704996172	-0.32052256011003	0.494286857126448	0.366600458406687	0.195368286735239	0.304612320138772	0.0741726403242749	-1.34179273886293
"AAGCTATGTGTGCACG-1"	12.4850068770931	-9.30985256622044	3.12317048462895	20.2672822611007	9.50736264265176	-40.7286162691436	13.7015600634062	1.39164407516449	-1.68324452599525	-3.82598111305357	-1.00139197039578	-2.79315342532094	2.1601789894846	0.144208950439767	3.61717375620578	4.2572618922038	3.41299160796752	0.839063048627346	2.70768756057945	-0.380779930656969	-3.4258851562958	-0.549980943302974	-0.807667129983348	7.7214392531497	-0.188981461647076	-0.543626770461103	3.59991617204557	5.44468405060318	-0.864627010835581	1.78726220976548	1.98679689425951	-0.389932359895454	2.59459853238166	-0.856298890001249	4.53369269166383	3.83583169480382	-0.929376209144912	-2.42582442458232	-0.0781812838750753	-0.840887571386095	0.555336066682955	-1.30265951679031	0.591968002658152	-0.0617225937078154	-3.83759092739077	-0.405106188142156	-1.86547335640257	-0.694314433832646	1.75477590427832	-3.26128786104493
"AAGCTCCCAACAGGAT-1"	-1.70569259022183	-0.548358212301459	-0.0122798459709704	0.908055972217625	-2.38941535096768	1.77215508217407	-0.37525957871987	0.0762082786269478	-0.0923211958743977	-2.90958166836321	0.815269326926435	0.0673753149661954	-0.915639892797608	-2.09082924843641	-0.651327978664003	0.325963208028251	1.06384473675707	-1.10039002122283	0.427392462995667	-1.00743030665252	-0.111780443958988	0.117351538673338	-1.02672775613774	-0.232646447652964	1.25557527896326	0.146903485002308	-0.691777066588076	-1.73233680896327	0.956431610109169	-0.931492425944067	-1.04358030108689	-0.656849467362948	0.39659492449195	-1.66584680083633	0.629601150623862	0.315082593476226	-0.249420586166171	1.75265532471726	-0.482728894099833	0.14868590409873	0.794462393261666	-0.268818511533618	-1.7762151997763	-0.252810951023885	-0.0664064034789458	-0.282823059554291	-0.00523938193335635	0.748917543488803	-0.0243846390560334	0.557268923092047
"AAGCTTGGTGTCCAGG-1"	-5.01124297664398	1.10749562390186	-1.03412844129355	0.20020736560321	-3.06165198413819	0.409633221470908	0.305668886495503	0.0405783026078579	0.222313262808889	0.408227576495214	1.31011732615576	0.13581279548104	2.46387165598119	-0.330785156804699	0.222642659848583	0.870928178719513	-0.525676687548556	0.156796715497195	-0.927435117344503	-1.3990973763473	-0.358074293642482	-0.191826487228197	-1.3504408959089	-1.54306894288694	-0.286983733301686	-0.551637527557994	0.518998871272061	-0.445739453292444	0.723111651312654	-0.180933680398175	-0.523777349292038	0.250966776245575	1.26802792940673	-0.484135897991703	-1.80041610366595	-1.12102683512558	-1.48763086941785	-1.16116430112364	0.0758619896994791	1.12033820921051	-0.185668392848476	2.08975752856063	-0.531272471173159	1.33711282192306	-1.34855973827435	0.423234604237281	-1.70264614851486	0.179565351125259	0.597686577792418	-0.57050477811559
"AAGCTTGGTTTAGCTC-1"	1.49963723561384	-3.52665392897882	0.779009085830913	-2.82892780526271	9.82307852124541	-4.25935050054126	0.512483547090192	0.30551230861922	1.21813428533049	-3.03966463386304	3.37301029274425	-2.15041189867393	0.498635218457822	2.48557377921898	1.7103476641079	-1.71641823711478	-1.09457550082337	1.35606120946061	-0.558590086626546	-0.289208244931055	-1.8047239499532	-1.72127535801949	-1.37297886593324	0.941959689377205	-3.00015987523027	1.2328679243082	1.64890274327305	-0.354235761945279	-0.738769578190062	1.86152952602639	0.484390014784027	-0.361760568105422	-0.314448363675786	-0.319581388369486	-1.00730589920855	-0.0764659224519718	0.112661712394768	1.1826139904849	-1.73916852832169	1.40642219119439	1.58886471657705	1.57526368752524	0.0902077619706323	1.51634253287526	1.64019487015155	0.077596328208117	-1.07312989311469	1.93474876600504	-0.541368044769264	3.4986859933163
"AAGCTTGGTTTGGGCG-1"	-5.74392427217204	0.391373877957681	0.451037661632979	0.701735339832818	-2.14774953880044	0.696410093710831	0.294614245414311	0.221682481002721	0.0885615075947649	-0.899348107866576	0.92132434812722	0.269031928255601	2.71979475375567	-1.86802372578114	-0.48420624028772	1.58749529098321	-0.736759490146192	0.177363103100343	-0.0314506198660063	0.219263248899724	0.471715876492909	-0.642397135424801	-0.0119663931079234	-0.295364615636635	0.464281439938879	-0.0440491603540732	0.289210682127658	1.05430625508148	0.662229846608627	-0.347587040667863	0.323923962946036	-0.746449178756019	-0.415506083177955	-0.0101889351145347	-0.0203726203742638	-0.693842294874686	0.0500476912353821	-0.733193442502917	0.573422093584459	-1.13348488888687	0.170476098165811	1.21284575051569	-0.938299747821938	-0.386708247888752	0.104510476126068	0.172711916507567	1.03401487922558	0.414679926250545	0.0598147242661617	0.29280138029084
"AAGGATGTCAATTGGC-1"	-5.10453882339191	1.19201015226251	-0.0568882616735269	-0.162467281510302	-4.11470657077755	1.42651274349678	-0.0734398045880184	-0.309402291014978	-0.528519503102097	-2.66277043540572	1.58927421574954	0.191571762006283	0.289337508081099	-0.458335166698442	0.955148189562562	-0.562361562979466	1.28287575873162	-0.75352796135953	1.2873970738301	-1.87928527142858	-1.50061662130709	0.755972438451881	0.123839590386691	-0.730671195318583	1.0182208334338	1.06485628046643	-1.33296382884491	0.640297806195295	0.0923108900621523	1.80026331319459	-0.217583064350171	1.03068247217494	0.533054397574315	1.04596247884973	1.16296544733795	1.2271061928634	-0.0201242017704911	-1.72200345953011	1.63061069725758	0.925509797498384	0.00512685785269297	1.25345587443072	0.800019430051799	-0.659979437887555	1.18779767805114	0.633026388082801	0.839968965102099	0.797046129562692	0.67351129899772	-0.0725785230186969
"AAGGATGTCGCTATGG-1"	-6.53996899183363	2.27545530949257	-0.312669325892384	1.39117305506079	-3.38007705925024	1.52228260279102	0.13724228897885	-0.571123332723941	-0.229557904734481	-1.37865237324366	-0.571373283891701	0.195134529609156	-4.21953595566204	2.40256948431353	-0.0870961985715507	-1.59532324304275	0.886809913162137	-0.391733854340442	0.980143766170496	0.166082807714101	-0.235556417076073	0.932192568019281	0.337052419093842	-0.638973653209205	0.628695723768985	-0.258939341997912	0.0797896940061217	0.253407772920378	-0.287390394555522	-0.21651764021007	-1.63888860391545	0.197537120680838	-0.258705422289767	0.341649284226669	0.215304574526735	-0.523061653662148	-0.295861640340679	-0.790993478606768	-1.07119572919939	1.37773431569978	-0.984459351908771	0.222629822509443	-0.633034236813338	0.129809206749099	-0.528997817025317	-0.431448115439761	-0.715338216314609	0.555808888520409	-1.475598827311	-0.118609114445016
